899 100
$ -0.18236808 -0.21088563 0.118593134 -0.11583972 -0.09651344 0.11612879 0.3818582 0.16202559 -0.06689294 -0.20998596 0.12441358 0.04888929 0.04262471 0.08704374 -0.28954136 -0.0033822565 0.31903428 0.22765446 -0.068072155 -0.2583225 0.10873483 -0.077429876 0.17692369 0.30639637 -0.13016629 0.2056366 -0.1990818 -0.25109375 0.017110774 0.14644851 0.27112126 0.054613397 -0.11379621 -0.09817962 0.13581379 -0.23154114 -0.2726853 0.010786476 0.10003277 -0.21427432 0.061343353 0.30392253 -0.44790113 -0.27665824 0.19188774 0.3560223 0.13612163 -0.06879053 0.034228332 0.2976922 0.08567075 -0.3420649 0.020625379 0.15356441 -0.089407265 0.34747013 -0.021892875 0.1486754 0.2327575 -0.25260973 -0.2876522 0.036821477 0.25677794 -0.11763542 0.032800045 -0.17819354 -0.041679293 -0.29081133 0.045816895 0.30990732 0.116824344 0.1166883 0.1563003 -0.12263665 -0.06351413 0.3128802 -0.019663537 0.1311022 0.036530018 0.0072899843 -0.2355743 -0.06918464 -0.11082945 -0.13034964 0.29597953 -0.119851515 0.17093214 -0.08143148 -0.03357241 0.1988856 -0.26464984 -0.14996313 0.21127224 0.07878248 0.05931913 0.1606639 0.09472144 -0.15588497 -0.18211077 0.11243931
\ -0.100857034 -0.13071257 0.16647583 -0.06801967 -0.10060341 0.069212794 0.40472904 0.115326285 -0.11526854 -0.23768 0.039283004 0.09148942 -0.024231011 0.036291625 -0.23012517 0.07396361 0.36825293 0.26456717 -0.036514517 -0.24350117 0.18714465 0.003250225 0.1346968 0.23468508 -0.120459445 0.19282754 -0.311021 -0.22162478 0.095148526 0.24172138 0.387631 0.20709188 -0.12091016 -0.036124337 0.1417656 -0.22766119 -0.2227163 0.16916344 0.08563653 -0.26965407 0.14255121 0.33407336 -0.44869807 -0.28568375 0.15124674 0.34039536 0.009511798 -0.22171175 -0.026535572 0.32634676 0.059250362 -0.22022375 -0.112125255 0.24713394 -0.020153541 0.36586636 0.031194696 0.19408295 0.20243344 -0.18319793 -0.35064626 -0.008470163 0.33274287 -0.16805695 0.00842324 -0.21608268 0.015669579 -0.27118608 0.07430444 0.3627395 0.06011768 0.11312769 0.111786574 -0.19884215 -0.024977366 0.30398318 -0.100863084 0.17641035 0.091124885 0.12521417 -0.26959944 0.037230056 -0.1818002 -0.12530224 0.3686217 -0.20143212 0.2431919 -0.16401997 0.037808493 0.1329421 -0.29876038 -0.16793033 0.24540573 0.06535832 0.09788787 0.15925644 0.167236 -0.20838763 -0.12383427 0.03943032
{ -0.0061691985 -0.32698402 0.19375694 -0.05055652 -0.04374595 0.1874716 0.68204314 0.22577481 -0.16339551 -0.25700885 0.093118206 0.1958706 -0.041688256 0.07718697 -0.18747206 0.049660996 0.41620323 0.31876504 0.10377897 -0.2263841 0.34585434 -0.062216785 0.122758076 0.2623545 -0.20163706 0.37421906 -0.28101018 -0.11334216 0.20453939 0.15968986 0.4710524 0.3372629 -0.050938334 0.11476019 0.15486284 -0.21267775 -0.1417643 0.2162222 0.21919023 -0.29579848 0.14083941 0.41258186 -0.46812242 -0.20484982 0.09776781 0.22298834 0.010761914 -0.34409752 -0.06166863 0.39374 -0.008117498 -0.24199234 -0.14649269 0.39768666 -0.000120577264 0.48980457 0.17138638 0.1956637 0.20139825 -0.1331985 -0.3776005 -0.01985187 0.33774403 -0.18801993 -0.053298645 -0.36287302 -0.13703513 -0.43087652 0.21009302 0.4717056 -0.024255829 0.27073973 0.17132226 -0.37210536 0.04446736 0.32517996 -0.09724513 0.15101539 0.016140066 0.100115314 -0.30220023 0.20632611 -0.26119184 -0.3045153 0.31023636 -0.35459164 0.23341241 -0.26477826 0.109512486 0.06826392 -0.13639517 -0.25657955 0.24968454 -0.04385607 0.11519237 0.3106089 0.04538639 -0.17803064 -0.05165516 -0.001734311
G -0.18813841 -0.21392126 0.12896745 -0.09404959 -0.009602097 0.12484489 0.43362492 0.17225017 -0.09416655 -0.14497736 0.2391544 0.033276375 0.03619039 0.1070817 -0.18684931 -0.06581605 0.22892606 0.2681574 -0.009843387 -0.20523158 0.023534201 -0.10284659 0.18222421 0.22468774 -0.15068923 0.26502088 -0.1833409 -0.24954507 0.0146362735 0.03849005 0.23305698 0.084986106 -0.09255834 -0.11538782 0.12945385 -0.22242913 -0.23766838 0.03392765 0.07725404 -0.17453365 -0.027110554 0.30870685 -0.30737776 -0.24660663 0.1489945 0.2502 0.20359471 -0.090553194 0.106166616 0.25831679 0.053529613 -0.3582202 0.08233711 0.15810649 -0.0728491 0.29793626 0.03076461 0.03745791 0.21664111 -0.26310277 -0.21299349 -0.0137437275 0.22664101 -0.119683474 -0.033704106 -0.17383383 -0.043551233 -0.332058 0.07969371 0.21182443 0.11575165 0.20385006 0.11401656 -0.18473127 -0.052588247 0.27050468 -0.0076926025 0.03671014 0.01621432 -0.07162273 -0.21638739 0.00050605973 -0.09342276 -0.14837508 0.16593741 -0.116865516 0.11861463 -0.07227861 -0.020731213 0.13751 -0.18602791 -0.16173978 0.1489765 0.050493326 0.03692435 0.102851905 0.038292125 -0.09941532 -0.20479566 0.121103235
称为 -0.09808843 -0.04356045 -0.103905536 -0.095818326 0.07100713 0.102055855 0.34688172 0.08795366 0.007949976 -0.072714664 0.14542302 -0.19916505 0.102886036 0.0712336 0.07397715 -0.06792745 -0.031926803 0.26732907 -0.12215626 0.07965099 0.07739477 0.00038196982 0.12808849 0.19568749 -0.16295798 0.24117844 -0.2573853 -0.041019276 -0.15433669 -0.012542035 0.19526088 -0.0049262745 0.004292387 -0.12850678 0.12915759 -0.20899941 -0.25030243 -0.03699234 -0.16179837 -0.031331956 -0.24973617 0.25977784 -0.35708293 -0.2039609 0.13926178 0.1981961 0.28629422 -0.16388293 0.16711344 0.19577204 0.12599075 -0.29626685 0.08659839 0.13320328 0.016653571 0.14207602 -0.0019944133 0.09326046 0.066581085 -0.25171205 -0.23348098 0.06785363 0.10996311 -0.09369211 -0.10905503 -0.005305754 -0.079897486 -0.116545066 0.10017799 0.21312594 0.1624235 0.21077697 0.06534457 -0.07760279 0.16825034 0.12197858 -0.04473251 0.0015142201 -0.20043862 -0.1050906 0.03820171 -0.01360282 0.08175706 0.023815375 0.07151353 -0.04771141 0.1349045 -0.03993476 0.0075652706 0.009302276 -0.10765883 -0.1475073 0.08682025 0.07522277 0.010291276 0.12323761 -0.0025253058 0.030300662 -0.15321031 0.056079302
中 -0.13260406 -0.18924369 0.013916392 -0.09105637 0.0064606364 0.097295724 0.42127773 0.16648564 -0.031183248 -0.11378041 0.14797811 -0.04597561 0.08088641 0.068692066 -0.020297276 -0.07566485 0.07152389 0.24061285 -0.06798682 -0.05255728 0.07726173 -0.04015447 0.16391523 0.21806425 -0.17345345 0.24361902 -0.16248845 -0.111384235 -0.064733185 0.01988902 0.18500139 0.029627765 -0.02519061 -0.08410788 0.10721782 -0.21844056 -0.23650454 -0.0076628737 -0.004239781 -0.115597494 -0.13030688 0.2752691 -0.36567518 -0.2372203 0.12443283 0.2191929 0.20796156 -0.1584453 0.11399423 0.237637 0.06663871 -0.30607074 0.07928992 0.12945479 -0.032793045 0.2180424 0.04707399 0.07525555 0.12888856 -0.23909637 -0.22840701 0.07025714 0.15318169 -0.112268746 -0.063752614 -0.119764194 -0.11289935 -0.22527206 0.095583536 0.2318256 0.122913 0.16627043 0.10948704 -0.08879241 0.070462145 0.19404367 -0.05884119 0.03435406 -0.1118038 -0.096092105 -0.08655697 -0.016531402 -0.023434527 -0.07163118 0.11222081 -0.09986922 0.10616887 -0.07218654 -0.021873347 0.06593479 -0.11574011 -0.1579571 0.09095832 0.08144525 0.033933826 0.12341654 0.0077322735 -0.023630468 -0.1316553 0.08963047
1 -0.038859963 -0.2763077 0.116016015 -0.07694891 -0.022359893 0.14803267 0.5639063 0.21437036 -0.100885436 -0.20097391 0.09879279 0.12521787 -0.024569307 0.07859019 -0.13401276 -0.004994496 0.33758062 0.25962847 0.0451738 -0.20146617 0.24757817 -0.072285995 0.12460346 0.22130454 -0.19467364 0.32109502 -0.22803617 -0.093101 0.13874549 0.10417808 0.3570816 0.23804666 -0.05654769 0.05255404 0.12549105 -0.21315621 -0.14601175 0.1311398 0.16303532 -0.23323427 0.05074531 0.32429436 -0.3993616 -0.18874049 0.10973574 0.19461754 0.04601128 -0.26579508 -0.017665112 0.33078697 0.006984548 -0.24201287 -0.082675375 0.30120826 0.019114332 0.41218087 0.11986937 0.13032009 0.19068281 -0.13273662 -0.31261232 0.0008536896 0.26932725 -0.12819962 -0.044287883 -0.27726647 -0.14230458 -0.35515448 0.17341542 0.37104744 0.0016436477 0.22316805 0.13948746 -0.279921 0.023209168 0.2832977 -0.07524821 0.094054915 -0.01755792 0.041487876 -0.24383938 0.14922659 -0.17638238 -0.26288664 0.22638145 -0.25998232 0.17042276 -0.18906912 0.05551488 0.071825445 -0.10973768 -0.22584315 0.18286346 -0.009482883 0.086278036 0.26666448 0.031482127 -0.12540619 -0.0436307 0.011317257
A -0.20313703 -0.1528219 0.015077785 -0.1718961 -0.11670281 0.0017802475 0.2758574 0.14213844 -0.043680966 -0.13932666 -0.024094714 -0.054938924 0.08170181 0.037068482 -0.1490594 -0.09269244 0.11379587 0.1771083 -0.1785779 -0.13036174 0.05344986 0.036374003 0.11981415 0.24446084 -0.09378994 0.1263827 -0.16610794 -0.20792477 -0.008213523 0.15624088 0.21275268 0.042406548 -0.027589671 -0.079071105 0.11938832 -0.22908935 -0.27111933 0.038693294 -0.014134196 -0.19473357 -0.033807974 0.25716746 -0.4924009 -0.29606554 0.19882461 0.34407988 0.1321106 -0.17172855 0.0016372998 0.24467124 0.07051348 -0.2128318 0.017349953 0.12770739 -0.06617408 0.2973228 0.05037694 0.18903974 0.087753795 -0.27138916 -0.24455611 0.085028015 0.19569686 -0.15726717 -0.0730481 -0.14249356 -0.046672 -0.18448894 0.04310657 0.27849507 0.08110847 0.03380907 0.08709845 -0.035807222 0.046566233 0.23942338 -0.099344045 0.07166673 0.003840866 -0.004879334 -0.09332189 -0.11979749 -0.080931686 -0.034316774 0.2670665 -0.092293814 0.14172682 -0.096487574 -0.07873984 0.08654431 -0.23546359 -0.13454452 0.14223379 0.07103548 0.058882117 0.087733336 0.07548016 -0.15598442 -0.12959288 0.0462024
_ -0.00497773 -0.35455143 0.22815569 -0.08833295 -0.013264651 0.19706263 0.732397 0.26621184 -0.16714513 -0.296872 0.10330401 0.2430331 -0.066047415 0.10942122 -0.2334164 0.05402399 0.5031847 0.3059781 0.11687633 -0.30773795 0.35619006 -0.09947749 0.1059409 0.26925716 -0.20094807 0.4318237 -0.29504278 -0.12885398 0.26333675 0.17650385 0.5118955 0.37402907 -0.07164944 0.12567292 0.18400177 -0.22999412 -0.13700588 0.23069496 0.26646823 -0.34019336 0.17261185 0.42844212 -0.48880967 -0.2282126 0.13882536 0.22200109 -0.0037687097 -0.35117316 -0.09740187 0.44134796 -0.005036696 -0.25850675 -0.12933941 0.4522234 0.023274653 0.5602792 0.17266954 0.20880412 0.25111988 -0.14502248 -0.3708573 -0.051088735 0.3852009 -0.19588125 -0.047363773 -0.4100071 -0.154487 -0.48866144 0.2440454 0.5130217 -0.062021468 0.29393312 0.17281687 -0.41739294 0.008369169 0.37511605 -0.07256494 0.15501586 0.07031322 0.12004573 -0.368601 0.22614577 -0.31144258 -0.3909498 0.32424137 -0.4019068 0.23095588 -0.27591383 0.12591949 0.0815056 -0.15153593 -0.28269392 0.26597726 -0.09007431 0.11456537 0.34280348 0.061123855 -0.20687519 -0.05328525 -0.019158619
称 -0.13601094 -0.18462054 0.115083106 -0.06589278 0.003979789 0.08755687 0.405194 0.19420694 -0.07699288 -0.17277138 0.17355862 0.009798197 0.040928196 0.046334494 -0.0988972 -0.03361762 0.21641958 0.2751228 -0.04108058 -0.13599814 0.05991147 -0.11036068 0.109279834 0.21946722 -0.15894721 0.20521231 -0.15860792 -0.18598188 -0.0034699605 0.076371096 0.22030525 0.065964006 -0.10833097 -0.075218685 0.13658415 -0.22342585 -0.27228087 0.024373556 0.008505654 -0.19056164 -0.051714864 0.31208634 -0.35395578 -0.26211601 0.120759115 0.22392797 0.20247242 -0.11855159 0.105817 0.25884667 0.086656354 -0.31805852 0.10708913 0.113945395 -0.08331517 0.2595611 0.025537698 0.08215528 0.16308774 -0.2627348 -0.23911518 0.025001965 0.16644831 -0.12920853 -0.04353394 -0.08931242 -0.06579206 -0.23766077 0.07828806 0.2766397 0.14849651 0.19897737 0.13733903 -0.12112126 -0.0025174865 0.27792636 -0.011419494 0.089346886 -0.033482976 -0.028341183 -0.18144874 0.01752064 -0.07139161 -0.07598247 0.14854294 -0.113366105 0.1503794 -0.05213143 0.014139596 0.097567536 -0.20038536 -0.1523587 0.17492582 0.036285598 0.047391947 0.118162505 0.020377606 -0.059199426 -0.19683298 0.11759828
n -0.14786439 -0.30493683 0.01717939 -0.15788893 -0.067836784 0.13255475 0.46291146 0.18061751 -0.07655292 -0.17232095 0.08372656 0.11471605 0.026443023 0.08372667 -0.16085781 -0.06098239 0.23503903 0.17480983 -0.090189576 -0.20208709 0.17628591 -0.016046328 0.2143236 0.258616 -0.18430777 0.26115322 -0.2182103 -0.15033789 0.07279541 0.09554565 0.2780016 0.114971496 -0.012964811 0.0013801034 0.09936707 -0.2699292 -0.15667841 0.08940235 0.12259925 -0.20337349 -0.012731376 0.2839338 -0.46185127 -0.16690974 0.14309432 0.26156425 0.072375 -0.17909391 0.0034555453 0.27203384 0.0013475463 -0.25957823 -0.044826996 0.20205303 0.01356955 0.39467782 0.09949961 0.15377444 0.23949681 -0.1922115 -0.30545413 0.011085667 0.24829829 -0.15773083 -0.0029812218 -0.28131855 -0.117410906 -0.2876355 0.07655086 0.35197112 0.023913799 0.10217253 0.13323759 -0.18069412 -0.013636543 0.261407 -0.06753484 0.054885894 -0.033377256 -0.0067602047 -0.22174245 0.023077426 -0.07276219 -0.22272426 0.23199607 -0.24069257 0.122078784 -0.17407586 -0.11432173 0.15010719 -0.10884917 -0.21766122 0.117059916 0.049605723 0.053013805 0.26092088 0.072655424 -0.120958865 -0.023248274 0.024219437
x -0.27018738 -0.47897074 0.08864939 -0.22427046 -0.24918945 0.019490518 0.44856504 0.33726317 0.017884262 -0.23398706 0.14619444 0.19033554 -0.02348225 -0.030619342 -0.34237638 -0.046033952 0.4267818 0.16074564 -0.11439796 -0.37612364 0.1731907 -0.10549828 0.31040543 0.42360952 -0.23579587 0.23344041 -0.050018776 -0.31283885 0.04203671 0.25674245 0.22414929 -0.0874541 -0.054445744 -0.057268742 0.10450204 -0.32246777 -0.23099932 0.058964245 0.30547464 -0.22814313 0.015234555 0.27097854 -0.61971754 -0.19115156 0.20704025 0.3505498 0.055296637 -0.01541846 0.10342263 0.29790354 -0.057581108 -0.3387895 0.017845564 0.035852112 -0.070622936 0.44652128 0.084483 0.1744789 0.38454816 -0.32533246 -0.3302468 0.025758022 0.19020288 -0.014427263 0.07409372 -0.23613031 -0.16517921 -0.3724039 -0.013718017 0.34398115 0.08158772 -0.009743558 0.2295019 -0.13409314 -0.09988422 0.4237998 0.014388364 0.0981257 0.040310092 -0.009905987 -0.40324667 -0.068456516 -0.072810166 -0.19455194 0.41323364 -0.16540362 0.122133054 -0.07734294 -0.24041569 0.31705615 -0.18250203 -0.17794152 0.09911075 0.21317062 0.046904113 0.2809341 0.047665607 -0.122588545 -0.09139639 0.06955198
2 -0.032620557 -0.26924905 0.10617058 -0.08032316 -0.01043895 0.14489658 0.57577026 0.20424995 -0.11536938 -0.1962396 0.08032969 0.13434826 -0.019703962 0.0836716 -0.11951096 -0.016658446 0.29507977 0.25234038 0.058983844 -0.16767693 0.24963045 -0.043530732 0.11151901 0.22762385 -0.17044836 0.3203585 -0.22068238 -0.08534666 0.14641194 0.10963013 0.3602502 0.25322768 -0.034855165 0.080971986 0.12974247 -0.18851946 -0.13727501 0.14021936 0.14313309 -0.23827955 0.07028376 0.33633244 -0.40326974 -0.19677386 0.09715672 0.20049754 0.04995396 -0.2790647 -0.03705408 0.3296909 0.007962729 -0.23391242 -0.08967966 0.32035977 0.01005212 0.40235674 0.13308448 0.14646384 0.15257362 -0.14023986 -0.2975525 0.0037822705 0.26802397 -0.1454103 -0.059986256 -0.3124146 -0.14535515 -0.35963252 0.1885283 0.35703802 -0.011381166 0.22268012 0.13939838 -0.2855594 0.056417476 0.24864015 -0.08628105 0.07826332 -0.02892644 0.038865596 -0.22218136 0.12470252 -0.19639575 -0.25799623 0.21799515 -0.2631261 0.16867976 -0.20120527 0.07352287 0.04308762 -0.097736135 -0.23063777 0.18433493 -0.043866403 0.08450005 0.26019433 0.043512043 -0.1360046 -0.026410094 0.015918706
^ -0.06491205 -0.29403517 0.24643782 -0.04047668 -0.07677768 0.15340129 0.6008507 0.19483785 -0.15741667 -0.30136895 0.11825496 0.20965879 -0.03944878 0.0526724 -0.2773476 0.07377611 0.50447905 0.30115637 0.07448684 -0.3203183 0.2820415 -0.093827195 0.13021421 0.23869626 -0.16787955 0.32411516 -0.28879008 -0.20629974 0.20167083 0.22826715 0.4632843 0.30003774 -0.118125975 0.048234716 0.16051333 -0.24687283 -0.16975334 0.20843078 0.20715466 -0.3259227 0.19568706 0.41073003 -0.45592552 -0.26991197 0.13875213 0.2804201 0.0063881637 -0.2704853 -0.045513075 0.38520524 0.028840693 -0.2578695 -0.12591322 0.3151199 -0.0394066 0.47737256 0.074153274 0.18209027 0.28643098 -0.1594624 -0.38804322 -0.038573306 0.3878664 -0.21248013 -0.0075668916 -0.3164572 -0.049763978 -0.3953964 0.14300351 0.46247178 0.030634806 0.1941873 0.16535524 -0.32977635 -0.06950035 0.38407087 -0.067018084 0.17470674 0.10448703 0.11781858 -0.3764801 0.16115561 -0.25953245 -0.26950642 0.35481593 -0.31706086 0.25232136 -0.225306 0.09536732 0.152486 -0.24550276 -0.22355963 0.28450274 -0.007877537 0.12563536 0.25797582 0.122056834 -0.2227804 -0.0991675 0.06419672
v -0.038381137 -0.30313197 0.3911575 0.091174066 0.12503347 0.17097473 0.7112145 0.31129643 -0.22605978 -0.35689944 0.2656783 0.233232 -0.06555392 0.007980068 -0.1721686 0.09867268 0.60176754 0.44947928 0.17368552 -0.31059325 0.2684988 -0.34554416 0.005392308 0.2023623 -0.24253604 0.3256527 -0.21959822 -0.1860165 0.21276923 0.19322129 0.48648667 0.33464774 -0.29819468 0.021854931 0.21491015 -0.2056174 -0.29659787 0.20546015 0.13234203 -0.38104862 0.098856956 0.5589315 -0.34054348 -0.31604445 0.06722742 0.14044341 0.11428692 -0.25616416 0.024562439 0.41280502 0.04502159 -0.32367456 0.08154365 0.2334983 -0.12619072 0.42318073 0.07457495 0.1359025 0.24510948 -0.22112569 -0.34771398 -0.07190212 0.2590504 -0.23991413 -0.02747758 -0.17387116 -0.10893518 -0.37017235 0.18200526 0.51998705 0.13324049 0.40829408 0.19808657 -0.36831072 -0.099049516 0.4499662 0.045290314 0.24841864 0.11172848 0.07778398 -0.47604626 0.3118696 -0.26027283 -0.24962218 0.20508197 -0.339127 0.27807888 -0.13375846 0.22270697 0.082711466 -0.27723306 -0.2276343 0.35795647 -0.108298026 0.12633759 0.24576414 0.026681298 -0.10654062 -0.27699578 0.13683935
p -0.064680666 0.18932416 0.10642662 -0.15674739 -0.021035783 0.087672666 0.3410593 -0.0025333054 -0.08058754 -0.10791826 0.093063846 -0.09582206 0.08494959 0.15464547 -0.31076753 0.23024459 0.30385372 0.24663141 -0.056564413 -0.26341233 0.08020152 -0.024263762 -0.020266606 0.2530466 0.048814867 0.3035681 -0.5054935 -0.18526803 0.045059565 0.25190845 0.46924835 0.15523347 -0.048535198 -0.21216956 0.17444515 -0.13045026 -0.327459 0.14142449 -0.0049581197 -0.096937716 0.026883056 0.22466633 -0.40728363 -0.23408997 0.32629192 0.31915507 0.027527979 -0.14295702 -0.0956582 0.2730595 0.20322983 -0.20291995 -0.07116333 0.38715345 0.117628604 0.34622812 -0.0996848 0.26840064 0.14180513 -0.19272242 -0.22247978 -0.0011613077 0.4054633 -0.1166867 0.07462755 -0.054946143 0.06873216 -0.20649935 0.09754883 0.27288038 0.12080164 0.17652626 -0.050875604 -0.21197782 0.0014541353 0.24464943 -0.076760285 0.16242631 0.22804594 0.20911522 -0.004407233 0.080706686 -0.13768792 -0.055824053 0.4143167 -0.20713907 0.2682937 -0.047697686 0.09169575 0.04438802 -0.36142167 -0.10152197 0.2538738 0.032454316 0.07770319 0.040839992 0.19749333 -0.24196096 -0.2748998 -0.010808418
设 -0.13428017 -0.13467939 0.054346204 -0.12050514 -0.032425117 0.09795634 0.34987736 0.117874004 -0.058908936 -0.12298668 0.092355795 -0.019757086 0.0552749 0.077761225 -0.13698585 -0.034849327 0.1551969 0.20673086 -0.06312967 -0.13402365 0.08894301 -0.02191074 0.118123606 0.22561306 -0.10548924 0.21039887 -0.20692036 -0.17621699 -0.0062454133 0.09100462 0.2308764 0.08661603 -0.024735434 -0.08196936 0.1163567 -0.19402525 -0.22102018 0.040217396 0.017633308 -0.15555257 -0.036328435 0.2642341 -0.36987957 -0.21743536 0.15659228 0.2417306 0.13934498 -0.14734872 0.028670868 0.23852465 0.06416883 -0.26637024 0.014587151 0.17205846 -0.03347443 0.28074637 0.034064144 0.123069525 0.13490324 -0.20530112 -0.23766802 0.022503057 0.19679606 -0.113947704 -0.048124414 -0.15632105 -0.060969315 -0.24007045 0.08234589 0.24806333 0.08142847 0.14118372 0.0917324 -0.12473724 0.036784634 0.215392 -0.050828647 0.071275406 -0.015651487 -0.016130233 -0.12064361 -0.018406017 -0.067032605 -0.091931865 0.2048868 -0.12924765 0.14743492 -0.08418134 -0.01386007 0.08910052 -0.1627305 -0.15091561 0.13719085 0.03991664 0.032089226 0.113691986 0.051570106 -0.09936913 -0.13161388 0.04804509
元素 -0.19877435 -0.24662547 -0.026590899 -0.17629687 -0.09776481 0.063235305 0.3266296 0.19620377 0.013918694 -0.13026568 0.113361485 -0.036704835 0.05576968 0.033897676 -0.10642458 -0.121918775 0.10282135 0.169848 -0.17374766 -0.096861936 0.042104606 0.00013703188 0.24210581 0.27835324 -0.17184481 0.19594096 -0.12609647 -0.20651153 -0.09493763 0.06935911 0.1313668 -0.06044781 0.0053181923 -0.08984733 0.09736672 -0.27448526 -0.23616017 -0.01368855 0.053263094 -0.14981657 -0.10488305 0.22189642 -0.4721448 -0.20630467 0.17003697 0.3147911 0.21252054 -0.089581944 0.14012234 0.25009158 0.067460485 -0.30857602 0.0754777 0.04953062 -0.07479468 0.25575072 0.046938453 0.09962945 0.18691401 -0.28475705 -0.27283227 0.050230063 0.13358513 -0.06943751 -0.046926502 -0.12658481 -0.08803039 -0.22558828 0.02264019 0.23389415 0.12065647 0.056855008 0.14946443 -0.032386653 0.019031843 0.253089 -0.022103867 0.04104818 -0.11016252 -0.092369564 -0.12952223 -0.12733586 0.010449275 -0.05289734 0.18684728 -0.060699426 0.087252535 -0.041843828 -0.14098981 0.15141876 -0.14031601 -0.14458369 0.06480939 0.14518672 0.017660841 0.15392902 0.03271995 -0.05386611 -0.12204194 0.06971041
顶点 -0.062136274 -0.11812878 0.037730638 -0.0060110567 0.1587581 0.14400193 0.5062318 0.22431675 -0.08076593 -0.12090452 0.22677594 -0.079111 0.08701159 0.08685303 0.07524448 -0.08200691 0.07608182 0.3361195 -0.0023572217 0.028077785 0.055722073 -0.17676681 0.08863297 0.15654124 -0.21881193 0.27193066 -0.16972929 -0.062553704 -0.03740948 -0.07009659 0.19979464 0.12208334 -0.08924912 -0.08858605 0.14557053 -0.16197388 -0.2615107 -0.039936267 -0.1114011 -0.10956724 -0.21432827 0.36154798 -0.27684736 -0.25185624 0.05377643 0.14400916 0.33370468 -0.18479821 0.17699116 0.2816642 0.13877614 -0.35802916 0.17668654 0.15161474 -0.05808781 0.181483 0.018439917 0.049250368 0.08371529 -0.21022905 -0.1807761 0.045629796 0.0928002 -0.13612461 -0.12928797 -0.047245238 -0.161182 -0.22666305 0.13944213 0.2008786 0.1919596 0.32123047 0.105684035 -0.12130871 0.092227824 0.18792155 0.008571874 0.0330374 -0.16262643 -0.12969941 -0.05557694 0.07277921 -0.013894111 -0.041267425 -0.047004398 -0.085733406 0.09718112 -0.03136959 0.100352645 0.011380629 -0.1339992 -0.13956416 0.13433015 -0.00012042633 0.034329522 0.11379206 -0.045320056 0.046378803 -0.21461035 0.15526052
q -0.08775206 0.17850184 0.11539168 -0.17563003 -0.056376815 0.090082645 0.32014382 -0.0068620676 -0.05343427 -0.10960802 0.1129282 -0.13686474 0.10280953 0.116147354 -0.29434812 0.23673864 0.27835682 0.23952103 -0.07110537 -0.23528683 0.05244841 0.0038407869 -0.010189218 0.25258067 0.033189293 0.28973395 -0.47493723 -0.20165262 -0.0045104097 0.23780616 0.44876477 0.14594935 -0.016238518 -0.23513062 0.16032524 -0.12416459 -0.30812186 0.121212356 -0.008574028 -0.053539827 0.009701611 0.22409102 -0.40255594 -0.24007499 0.33330354 0.3341643 0.057776965 -0.12654072 -0.07176403 0.23410374 0.2027107 -0.20662428 -0.076706 0.35687715 0.108436294 0.29831588 -0.11097386 0.25723028 0.1637146 -0.20708941 -0.22708188 0.026755957 0.3913901 -0.10333244 0.06935575 -0.034154523 0.079860136 -0.20500134 0.08910482 0.26134434 0.14118914 0.16959888 -0.015723966 -0.15567821 0.016807841 0.22745514 -0.068348706 0.15679017 0.21326418 0.18371789 0.004508146 0.062264677 -0.1047163 -0.03722657 0.38088453 -0.18579255 0.28459743 -0.017043252 0.10035399 0.07569795 -0.35317346 -0.10338206 0.2550678 0.057946045 0.063641064 0.024009418 0.21287878 -0.21438466 -0.27838722 0.015186324
S -0.2037888 -0.16780049 0.06506518 -0.20744273 -0.08858466 0.09256479 0.28316072 0.1280798 -0.032785147 -0.17293851 0.029998213 -0.002959394 0.018545067 0.042059317 -0.20015566 -0.06528146 0.24529041 0.15547653 -0.17779037 -0.23381795 0.01287461 0.0057605314 0.15919659 0.24595739 -0.16156642 0.1756127 -0.22231811 -0.26160374 0.033185743 0.13397205 0.25379068 0.06170282 -0.05916694 -0.10574725 0.14707208 -0.25099415 -0.27101135 0.09457038 0.06781416 -0.241978 0.0032957091 0.27066556 -0.4885296 -0.25077367 0.23071432 0.3549197 0.103665695 -0.11365468 -0.006778714 0.2792214 0.082337394 -0.23750769 0.05506556 0.1080014 -0.050370626 0.3761596 0.020564329 0.14981727 0.19932546 -0.2957817 -0.31428722 -0.009960448 0.2362717 -0.1156619 0.00806779 -0.17068012 -0.033360094 -0.22290687 0.0057389485 0.29207182 0.095514156 0.054847013 0.15595657 -0.07770111 -0.03551036 0.30712524 -0.044645015 0.107827164 0.04866025 0.006549014 -0.22428118 -0.04800116 -0.07346489 -0.13299 0.2484061 -0.1696479 0.14890824 -0.073023625 -0.13735424 0.17023322 -0.21553522 -0.16184817 0.12242632 0.08511492 0.029285407 0.15311185 0.10147322 -0.1697775 -0.15634935 0.0029184863
集合 -0.18611628 -0.11644764 -0.06997237 -0.15197851 -0.058116797 0.051717125 0.23038408 0.11694569 -0.0007288946 -0.08717236 0.047443796 -0.16549298 0.11846305 0.04268406 -0.008094123 -0.16865523 -0.06835646 0.20139569 -0.24801956 0.04708053 -0.0347153 0.08630502 0.14823484 0.2348767 -0.14666383 0.08713282 -0.15377285 -0.18795377 -0.13289705 0.045339584 0.085661896 -0.06124825 0.025392763 -0.09819046 0.10939347 -0.24608168 -0.2809648 -0.04347786 -0.12131525 -0.1657414 -0.1766647 0.25129935 -0.45093024 -0.2637964 0.16606356 0.3093458 0.28268433 -0.17511858 0.12250086 0.2115917 0.14034529 -0.28415835 0.10944174 0.008133782 -0.12343911 0.17574704 0.044128913 0.12146772 0.02932515 -0.31991088 -0.23199572 0.101997964 0.0784037 -0.13358961 -0.15476874 -0.054351475 -0.050244823 -0.12670659 0.030830914 0.21713269 0.14952403 0.084122285 0.10857264 0.042215172 0.15393536 0.17124766 -0.05102923 0.0074519133 -0.16143866 -0.11178044 0.0070374217 -0.18029866 0.05618695 0.07668939 0.12902738 -0.005757925 0.10117789 -0.035201505 -0.10818274 0.055217493 -0.14831884 -0.108154535 0.089939155 0.10038249 0.017479151 0.0759401 -0.008868067 -0.059915446 -0.18488099 0.054643344
记 -0.13381399 -0.1520145 0.1624197 -0.087114975 -0.055346265 0.08547212 0.3664759 0.12359524 -0.12961073 -0.2354269 0.13260579 0.054209445 -0.022635225 0.056586538 -0.24138792 -0.011771846 0.34840283 0.28450355 -0.009304473 -0.25587213 0.11426648 -0.049199406 0.09433651 0.24471389 -0.07468793 0.22805998 -0.2538253 -0.27210045 0.07905985 0.19567892 0.3597924 0.18947081 -0.10003967 -0.057341788 0.1306813 -0.23619388 -0.24574524 0.12312672 0.03283954 -0.24731772 0.061205167 0.3317537 -0.38894543 -0.2487795 0.185805 0.29297632 0.094725646 -0.15833816 0.033636153 0.3092545 0.05355683 -0.28781787 -0.018190574 0.17604774 -0.04125882 0.33484408 0.054740995 0.18394609 0.2292262 -0.2509557 -0.28877506 -0.046527833 0.27984947 -0.17808148 -0.023708392 -0.1452933 0.021508217 -0.27466956 0.070541926 0.32517034 0.100384936 0.14669842 0.096106924 -0.19034292 -0.056188907 0.3432479 -0.034825895 0.10948097 0.09729856 0.06475439 -0.28125426 0.021157766 -0.12672868 -0.12362043 0.3300084 -0.15695882 0.21119598 -0.101752475 0.049904477 0.12697199 -0.26815557 -0.15027745 0.22576857 -0.0076181027 0.03190866 0.12934609 0.12120516 -0.19324118 -0.20382757 0.06430651
都 -0.12979366 -0.14129817 -0.03911847 -0.116704755 -0.031842493 0.0759804 0.3633689 0.15669937 -0.015420272 -0.07829502 0.12907708 -0.111525424 0.1036583 0.062834196 -0.013556457 -0.11654274 0.014172678 0.22947264 -0.14276376 0.0064711194 0.052453987 -0.00680443 0.18697512 0.24659543 -0.15989767 0.20953624 -0.17539245 -0.12796827 -0.12450522 0.0066820774 0.13322444 -0.033351902 0.0039408626 -0.11319292 0.10650038 -0.2392024 -0.2367197 -0.033113237 -0.036818407 -0.106891125 -0.1595764 0.23833463 -0.3927963 -0.23129858 0.13007441 0.24498625 0.26645425 -0.15139681 0.16882887 0.23685725 0.105582856 -0.342769 0.09739463 0.089422725 -0.053664226 0.18263318 0.039518327 0.07802411 0.104133435 -0.25297362 -0.23017687 0.074001566 0.10868239 -0.08944968 -0.116764985 -0.08236814 -0.10299078 -0.20576002 0.07272336 0.20365068 0.1363153 0.14527924 0.09934879 -0.040750697 0.11296964 0.18483204 -0.049239673 0.022342557 -0.17179225 -0.1113743 -0.028703153 -0.09386068 0.02876408 -0.00041970034 0.10429188 -0.047840916 0.111844376 -0.04825028 -0.054711927 0.057296764 -0.10900984 -0.12927623 0.0847369 0.10654187 0.027799508 0.11371533 -0.017686998 -0.008951871 -0.14054933 0.09162582
作 -0.15223075 -0.1405143 0.13926436 -0.07739411 -0.052072525 0.08339693 0.3219318 0.112494424 -0.11298882 -0.21551594 0.1258013 0.044314127 -0.016448157 0.077403486 -0.27492297 0.025220634 0.33491325 0.24598637 -0.024747929 -0.25435907 0.10818809 -0.03437621 0.12150625 0.2568801 -0.10163119 0.21195327 -0.2638587 -0.29111215 0.051708885 0.21869114 0.32992983 0.1422869 -0.13801014 -0.10932508 0.15614802 -0.21871647 -0.269464 0.080983564 0.020429622 -0.19825445 0.06872748 0.33685893 -0.3975036 -0.25069174 0.19737782 0.32096913 0.11389234 -0.12747587 0.05057536 0.28368935 0.09480919 -0.2900938 -0.012248425 0.17773482 -0.07579115 0.30166543 0.003403869 0.15005386 0.23163112 -0.2353855 -0.2798592 -0.01671768 0.27277586 -0.14340098 -0.008911302 -0.1213748 0.035168007 -0.24594392 0.058940616 0.32424256 0.10563149 0.1292839 0.07213619 -0.16042545 -0.060114793 0.29461768 -0.027569328 0.13164288 0.097061396 0.08152634 -0.22403248 -0.03513997 -0.13814294 -0.09196495 0.29792762 -0.10184238 0.21559517 -0.103046335 0.0049254918 0.13357782 -0.30738297 -0.12931931 0.23066361 0.04070794 0.0686824 0.12692003 0.12058645 -0.18626541 -0.22255383 0.046315618
表示 -0.08952738 -0.14738186 -0.033491343 -0.12755726 -0.046003878 0.08941372 0.36802655 0.122188516 -0.02379645 -0.09755371 0.07256812 -0.06459507 0.058485985 0.07492183 -0.019884057 -0.045503624 0.07082535 0.21916087 -0.09961627 -0.023499478 0.11225146 0.03471605 0.12024444 0.22892499 -0.14448924 0.20541453 -0.21922453 -0.064866334 -0.04593626 0.055643372 0.22365329 0.045124196 0.014493636 -0.04887192 0.115392596 -0.21316402 -0.20634285 0.035906997 -0.0044097067 -0.13304347 -0.102541 0.2527486 -0.4046412 -0.19979192 0.13336545 0.2318512 0.16765952 -0.1969293 0.066166244 0.22672737 0.051150464 -0.25121903 -0.0039568776 0.16191073 0.0058561387 0.23974162 0.05956347 0.1141323 0.09810535 -0.1996985 -0.25250253 0.0791968 0.15833266 -0.09635838 -0.055283282 -0.1388811 -0.09806743 -0.2026341 0.09783776 0.28169933 0.08107019 0.14194874 0.10182368 -0.11497606 0.1303973 0.18138848 -0.0794918 0.052507572 -0.117421634 -0.028083144 -0.04426548 -0.005074307 -0.036689278 -0.07144378 0.17213267 -0.12842995 0.14832756 -0.095150106 -0.030640312 0.038095213 -0.12070687 -0.16606396 0.112792924 0.085361876 0.03632601 0.15738937 0.019358654 -0.05868628 -0.08314986 0.041769467
V -0.112341 -0.3731546 0.19575216 -0.09244993 -0.0270103 0.17859046 0.66930926 0.21636313 -0.18028006 -0.25663558 0.14245598 0.24943383 -0.051230837 0.1451441 -0.2682168 -0.05119519 0.4062276 0.2636412 0.12164148 -0.3080635 0.15288165 -0.0634339 0.15828298 0.24681017 -0.15239757 0.34621084 -0.23506643 -0.2375539 0.24064358 0.12827833 0.38068223 0.31072536 -0.11486728 0.08515744 0.13287772 -0.2214808 -0.1650974 0.16008106 0.25414327 -0.32984972 0.20685178 0.39206925 -0.39294085 -0.28143933 0.12546495 0.30822927 0.040145062 -0.26651397 -0.06318218 0.37991 -0.028814824 -0.29242826 -0.06750732 0.32300022 -0.035647433 0.48065096 0.13365123 0.09130768 0.20564647 -0.17014918 -0.29408884 -0.026182126 0.40313983 -0.17585889 -0.03422844 -0.458819 -0.10417005 -0.5042153 0.21138413 0.35715222 -0.017488476 0.24775231 0.126198 -0.3661468 -0.0202931 0.36833087 -0.105732605 0.07855224 0.060342077 0.002984835 -0.31884554 0.08407498 -0.342532 -0.3586571 0.25194436 -0.26852006 0.18745847 -0.21221077 0.047818363 0.098083735 -0.17038128 -0.2874829 0.21745376 -0.043683622 0.12410835 0.24284203 0.11467068 -0.21067084 -0.07886647 0.07223846
0 0.0129564265 -0.20978391 0.07863423 -0.048947442 -0.0035565295 0.12167448 0.509954 0.17544992 -0.08273074 -0.17721304 0.090991974 0.03153581 -0.008742577 0.055596747 -0.045569792 0.011832591 0.2610977 0.277193 0.049693547 -0.10730382 0.26882854 -0.044020925 0.08887774 0.18249194 -0.18615682 0.31914383 -0.24147381 -0.03320127 0.048971314 0.06629688 0.33335856 0.2281658 -0.034127317 0.044431634 0.13182588 -0.18457878 -0.12030662 0.09773763 0.048976686 -0.16236612 0.0068832845 0.30085555 -0.36098424 -0.1814207 0.08117296 0.15117674 0.098720886 -0.2897927 0.046307888 0.29920438 0.038886968 -0.24783756 -0.07727851 0.27860087 0.032154426 0.32354295 0.102465495 0.11522961 0.14137441 -0.13744566 -0.29707363 0.013945911 0.21037255 -0.09340941 -0.09869732 -0.18681152 -0.12162016 -0.291517 0.17217234 0.33629626 0.031303268 0.26346815 0.124047995 -0.26339987 0.10324272 0.20465226 -0.05841015 0.06547697 -0.07736859 0.025462972 -0.17806077 0.16530986 -0.10277899 -0.16476539 0.19404612 -0.19127378 0.1654605 -0.17196141 0.0897068 0.01966434 -0.06190385 -0.1958473 0.15837736 -0.025368106 0.077815406 0.22930096 0.008843319 -0.06554352 -0.036667388 0.012414517
公式 -0.103415675 -0.04857726 -0.14323017 -0.11030064 -0.0023748095 0.034296107 0.32302567 0.09571096 0.021527978 -0.03047388 0.08094601 -0.19912006 0.18079865 0.09139982 0.10634029 -0.10679709 -0.15306915 0.23829246 -0.18688934 0.122564375 0.07294438 0.05429994 0.15466347 0.24241242 -0.12820363 0.15166761 -0.19321597 -0.028850045 -0.19660611 0.012636006 0.104745835 -0.08714881 0.05676669 -0.13782518 0.09664727 -0.22241676 -0.25986168 -0.071365245 -0.17143624 -0.034290694 -0.2428051 0.21262178 -0.40482587 -0.23178603 0.1324736 0.20867766 0.26355577 -0.18106118 0.16265307 0.1826355 0.10815269 -0.2994684 0.056088686 0.12244786 -0.01035559 0.1285956 0.011727392 0.10536563 -0.010637833 -0.2449077 -0.1991987 0.1619353 0.07319025 -0.080514535 -0.13619074 -0.049080737 -0.10913011 -0.08934264 0.08285278 0.20134763 0.15444274 0.12536903 0.0609919 0.0102108605 0.23667274 0.084428735 -0.09484146 0.0059270915 -0.2627922 -0.11489981 0.14023298 -0.12070628 0.09824209 0.090932004 0.10665121 0.0026898226 0.11529003 -0.026839254 -0.02959533 -0.022586195 -0.09262272 -0.14407602 0.065170586 0.12439723 0.015753051 0.0800267 -0.012981573 0.049915202 -0.09797096 0.08356387
3 -0.02636654 -0.06414313 -0.08064135 -0.038918164 0.019190582 0.07718438 0.34498602 0.093171455 -0.00800531 -0.0537763 0.07652515 -0.16143858 0.08396409 0.097003296 0.07949526 -0.11678047 -0.06570694 0.2653891 -0.061300408 0.0972817 0.15606815 0.07891071 0.12583649 0.20803785 -0.13337786 0.19875845 -0.20180558 -0.021863569 -0.13314037 0.008972558 0.16177517 0.029839283 0.060816523 -0.047360614 0.121378265 -0.17381713 -0.1662019 -0.032342535 -0.15231384 -0.07224833 -0.19157726 0.23224457 -0.3514842 -0.19144556 0.06580647 0.15455732 0.25086707 -0.25922525 0.123648584 0.2093538 0.09724305 -0.28839713 -0.01647579 0.18465844 0.0016226358 0.1653518 0.061745565 0.09642625 -0.0077400957 -0.17422347 -0.2393116 0.09152208 0.099109806 -0.10262392 -0.18213989 -0.06372831 -0.09975161 -0.15689166 0.12590536 0.20589064 0.089578845 0.1985871 0.09278178 -0.10206002 0.23969354 0.0816433 -0.06780144 0.0012782195 -0.2479891 -0.078115284 0.04794522 -0.04602468 0.034776565 0.028526874 0.113724634 -0.022705358 0.13986099 -0.08751276 0.06548516 -0.028504802 -0.042661052 -0.14938362 0.08673217 0.042479772 0.016827831 0.11664993 -0.023078984 0.041538205 -0.06522847 0.012639119
定理 -0.08912602 -0.067043506 -0.05840935 -0.07000182 0.015765859 0.0848106 0.35039145 0.09366068 -0.019588519 -0.049969915 0.118042454 -0.14549889 0.10538934 0.10945841 0.028131697 -0.07728845 -0.041105513 0.25377837 -0.09221227 0.05203776 0.090595014 0.02869733 0.14569329 0.1953903 -0.13109238 0.19226383 -0.21373433 -0.08068159 -0.11199773 -0.006908204 0.15920228 -0.003753349 0.019939773 -0.113920346 0.10512439 -0.17939918 -0.22220844 -0.033039264 -0.1215909 -0.06357021 -0.17559804 0.22796187 -0.32496384 -0.21559843 0.09120973 0.19916953 0.24695015 -0.17224202 0.14075935 0.20915276 0.09794035 -0.3205853 0.045874752 0.15490957 -0.017024277 0.17415099 0.013959021 0.07325567 0.0389082 -0.21123527 -0.20691955 0.08017146 0.11398908 -0.10106145 -0.12591666 -0.08230329 -0.09032506 -0.163705 0.10648319 0.19010384 0.13544133 0.19596149 0.08009521 -0.080877945 0.16112348 0.1275524 -0.042564575 0.022168223 -0.18018316 -0.08886977 0.034903474 -0.055419512 0.033222288 0.008597752 0.09449999 -0.03732988 0.13277537 -0.053723034 0.0139336875 0.030066768 -0.10067874 -0.13796318 0.09996033 0.08253216 0.03255663 0.073547654 -0.021188663 0.012629822 -0.13498767 0.073686995
R -0.14836304 -0.17463693 0.09011571 -0.115756854 -0.0934362 0.07872666 0.3709728 0.16373836 -0.07155519 -0.1670505 0.052951492 -0.0023923086 0.029779911 0.02022179 -0.17784609 -0.053453088 0.21892036 0.22438231 -0.118662015 -0.16830894 0.09780019 -0.021026576 0.12523045 0.22758035 -0.16300896 0.18341267 -0.18334855 -0.18340366 0.04487798 0.13599208 0.27620402 0.116360724 -0.05138099 -0.05374174 0.14977272 -0.2260544 -0.24010488 0.11810104 0.056711204 -0.22789976 -0.014122685 0.32812136 -0.45820442 -0.24663824 0.16513135 0.3146502 0.108910695 -0.17848979 0.007396975 0.28268474 0.094732046 -0.23357326 0.014419919 0.17605112 -0.095007665 0.33903855 0.052966353 0.1558376 0.14539014 -0.27933154 -0.28919393 0.021899577 0.21037911 -0.15629503 -0.0773909 -0.14758636 -0.06818908 -0.24340077 0.05725459 0.330724 0.09144186 0.108959325 0.15877126 -0.11829604 0.0030159154 0.28500652 -0.05801075 0.103893414 0.03367337 0.034622084 -0.20800735 -0.0066291243 -0.11559803 -0.09378801 0.25765175 -0.17216295 0.15414867 -0.10524094 -0.028257173 0.1081017 -0.23380376 -0.14031976 0.17431019 0.03594075 0.044070538 0.15420991 0.048397817 -0.16018425 -0.1631528 0.016955702
上 -0.16867888 -0.14353845 0.009447985 -0.13412122 -0.10116391 0.04286504 0.2791385 0.13439302 -0.027242197 -0.11931718 0.0111835115 -0.08529695 0.0533044 0.016659796 -0.101169914 -0.092314735 0.085812986 0.19743097 -0.17191239 -0.0839984 0.04375535 0.049482815 0.1354566 0.23542544 -0.16494447 0.122180596 -0.1613819 -0.1725009 -0.045704745 0.103557676 0.17911285 0.029232062 -0.030962018 -0.079173826 0.12928903 -0.22436143 -0.25904354 0.033096787 -0.038314242 -0.18849392 -0.0896542 0.26206988 -0.45547977 -0.25930068 0.15546487 0.30889127 0.16574192 -0.16082747 0.0505077 0.2382254 0.0989233 -0.25766662 0.03370925 0.10447647 -0.08651556 0.2546651 0.046222948 0.14471178 0.08454203 -0.28653586 -0.27231947 0.068180285 0.14753285 -0.12575221 -0.09040522 -0.08941241 -0.053759694 -0.17794828 0.03605899 0.25811553 0.11100189 0.07187667 0.14648946 -0.040524326 0.080188 0.22745062 -0.050288163 0.06362037 -0.05845675 -0.015277679 -0.10578103 -0.09056861 -0.025777105 -0.011378455 0.21534199 -0.07777472 0.1387501 -0.06774991 -0.066870116 0.09406726 -0.18765028 -0.11680874 0.1115751 0.08845503 0.03644058 0.12086038 0.029026283 -0.10373729 -0.15030187 0.02368546
ar -0.124892905 0.06304725 0.14422338 -0.065450504 -0.018797573 0.038582183 0.2944535 0.043165646 -0.11954989 -0.17572547 0.01024238 -0.021751093 0.028946372 0.05883766 -0.18158667 0.0966215 0.2727536 0.29929087 -0.09940242 -0.21519537 0.05291876 -0.035014927 0.028428249 0.19996594 -0.037225023 0.1576822 -0.403334 -0.21806869 0.04563711 0.23459429 0.37291622 0.17542355 -0.16851234 -0.18870012 0.17444184 -0.20701924 -0.30974486 0.15669547 -0.051120486 -0.22443265 0.048223592 0.30359942 -0.4143233 -0.34366414 0.1981391 0.33080047 0.030636344 -0.17951259 -0.018116433 0.27059537 0.12184531 -0.19693218 -0.016774016 0.2334714 -0.010218022 0.29746485 -0.06757385 0.20239021 0.13206774 -0.20028806 -0.28846434 0.01061176 0.33373505 -0.15570258 0.049410608 -0.082503796 0.0821349 -0.16687956 0.012334805 0.29350367 0.14211786 0.095768414 0.0160796 -0.12266725 -0.0014628283 0.28506103 -0.11054374 0.20175903 0.13012357 0.12153402 -0.12845819 0.032919902 -0.15416689 -0.02936208 0.3487916 -0.16553332 0.24042375 -0.10489434 0.037912518 0.08269991 -0.38419712 -0.11428091 0.24615481 0.07299474 0.08437267 0.026271459 0.18009833 -0.21941999 -0.2109889 0.033826113
运算 -0.09695161 -0.014617109 -0.14838977 -0.11474382 -0.043152343 0.042278048 0.25858703 0.07731933 0.013739522 0.003761304 0.03276284 -0.25470883 0.16611083 0.042682197 0.13665271 -0.18135475 -0.21152027 0.22847517 -0.2934491 0.20760843 0.008954542 0.1508227 0.18043363 0.24535578 -0.16189195 0.073997736 -0.21955585 -0.07516514 -0.21763426 -0.014670898 0.03935307 -0.13677795 0.064876914 -0.095435075 0.09394993 -0.24335815 -0.28209344 -0.114910536 -0.23517361 -0.11223483 -0.2658502 0.19456723 -0.45589915 -0.24992391 0.10677615 0.26185814 0.34479636 -0.2446783 0.1884273 0.22359273 0.19249159 -0.3231644 0.08158637 0.029612843 -0.055383507 0.10477747 0.04829481 0.116590746 -0.03325614 -0.27744237 -0.24666433 0.13755733 0.050673973 -0.12268026 -0.2132803 0.004318321 -0.0635271 -0.072430186 0.06689929 0.19546366 0.19265173 0.138297 0.10727925 0.048326872 0.28812987 0.09429404 -0.065146364 0.008619568 -0.32562244 -0.11689551 0.16276504 -0.18835618 0.15191646 0.16424789 0.06103451 0.040571257 0.12261901 -0.035093985 -0.065521464 -0.013549432 -0.06619655 -0.118268944 0.060841266 0.15077959 0.017487306 0.040003307 -0.05365456 0.027191054 -0.15571694 0.07832914
语言 -0.041732166 -0.039609265 -0.05373691 -0.0068801846 0.047923274 0.06870561 0.3154481 0.045038853 0.01023909 -0.07000916 0.08942357 -0.25052765 0.00047908124 0.06398804 0.104840085 -0.11141795 -0.0131226815 0.29322734 0.033731673 0.052404683 0.1615647 0.09650495 0.109054744 0.17104721 -0.14303422 0.23450993 -0.19283141 -0.054507386 -0.18802777 -0.032060884 0.16950887 0.05560934 0.032529898 -0.09403089 0.15718806 -0.13247286 -0.17704752 -0.030027656 -0.25237375 -0.047758844 -0.22325657 0.23657633 -0.27674875 -0.18593703 0.0616299 0.11129741 0.2673775 -0.23346229 0.1715773 0.20092951 0.08525066 -0.32897067 -0.0086158225 0.14868751 0.031155763 0.13603942 0.025472289 0.026884815 -0.013636025 -0.21812075 -0.2624996 0.045248255 0.080196545 -0.032288704 -0.18163815 0.0112768 -0.07977688 -0.14945681 0.14808756 0.17358065 0.13921225 0.28765234 0.13420321 -0.16356893 0.24285166 0.047706995 -0.039481476 -0.031258952 -0.2359485 -0.07355527 -0.02316355 0.020924333 0.065852806 0.039414942 0.09457403 0.052138004 0.14408916 -0.07456051 0.12609516 -0.031851195 -0.018266557 -0.1532036 0.09134762 0.040556245 -0.003832392 0.106418274 -0.044098318 0.061757974 -0.08094221 -0.0407576
两个 -0.11965838 -0.05095693 -0.0033804823 -0.09644663 2.1303858e-05 0.08629699 0.34873784 0.13505541 -0.0099822935 -0.068835616 0.14843068 -0.12669487 0.13086455 0.08023589 -0.052340917 -0.023856932 0.06381567 0.25266957 -0.13758206 -0.030033885 0.021540664 -0.028739072 0.13631919 0.24336433 -0.117959246 0.20204337 -0.21785997 -0.1376238 -0.10743523 0.06137979 0.1752701 -0.014540404 -0.010125259 -0.1458426 0.1103139 -0.20029259 -0.28458717 -0.029149741 -0.068771616 -0.09782231 -0.15574701 0.25420475 -0.3773597 -0.23582876 0.16565719 0.24655686 0.23525985 -0.12009004 0.119997025 0.23794803 0.14821821 -0.3141094 0.08957247 0.1363476 -0.016095318 0.19819367 -0.012472884 0.1257626 0.100927696 -0.24285023 -0.20203947 0.071668245 0.15174742 -0.09428626 -0.07101308 -0.04071348 -0.07006518 -0.17963633 0.08055919 0.19172491 0.17885846 0.18180807 0.07226365 -0.053525105 0.107246555 0.19589232 -0.036015403 0.058570348 -0.10520595 -0.049709763 0.00734957 -0.056215532 0.015165849 0.007166623 0.1476774 -0.059597496 0.14647232 0.008984387 0.0017998533 0.05726416 -0.18268405 -0.12140889 0.12858503 0.09986232 0.030917848 0.068988696 0.01604131 -0.02143223 -0.19460033 0.101529986
每个 -0.078349315 -0.13120227 -0.03529998 -0.07482744 0.027449202 0.11428349 0.41888466 0.14552091 -0.015846668 -0.091128476 0.13287391 -0.0895667 0.10202866 0.07561779 0.03681181 -0.065865435 0.011617077 0.2737873 -0.062059544 0.014015904 0.12233408 0.002124096 0.16065699 0.20301025 -0.16073196 0.27032796 -0.1988066 -0.057776075 -0.08192238 -0.0014393713 0.19049726 0.04602675 0.015000742 -0.06967811 0.1181734 -0.18842973 -0.21232781 -0.014266205 -0.058026236 -0.07925765 -0.16468363 0.26192588 -0.35160717 -0.21038266 0.10127023 0.18684462 0.23060513 -0.1875902 0.11724622 0.24689366 0.09877169 -0.2931932 0.035106532 0.19903772 0.0100403745 0.20217776 0.041473337 0.085437976 0.08743237 -0.20624565 -0.22079907 0.084695734 0.15509862 -0.111352645 -0.1108249 -0.089336015 -0.12120297 -0.19858886 0.13406703 0.22889078 0.10723143 0.2066285 0.1098287 -0.10524445 0.13353817 0.14718565 -0.060775112 0.028296059 -0.15941964 -0.082380466 -0.021919059 -0.010168113 0.01243623 -0.03431865 0.11285191 -0.087655984 0.1285084 -0.0696021 0.0278881 0.019605124 -0.08973899 -0.16533124 0.09165322 0.069152415 0.038882773 0.1409941 -0.0005634855 0.01502178 -0.11871977 0.056538068
r -0.14055055 -0.10569411 0.06373766 -0.20481674 0.0023353163 0.16458823 0.34363365 0.1166475 -0.041634735 -0.16917458 0.09612706 -0.053863566 -0.0134364115 0.065913565 -0.18806368 0.010612088 0.2793289 0.1774537 -0.035831545 -0.2276863 0.09035462 -0.03719663 0.11634382 0.2307027 -0.15332243 0.30764687 -0.2666526 -0.20803757 0.031992454 0.08417783 0.33947226 0.161708 -0.029413145 -0.119274266 0.17446384 -0.18737966 -0.20135881 0.098498456 0.035695814 -0.17626922 -0.00052614335 0.26946047 -0.42738828 -0.17478219 0.24325912 0.28865904 0.09985226 -0.11558632 -0.017910024 0.28005525 0.13437858 -0.25270233 0.027991746 0.22258224 0.018616488 0.40981314 0.0058525284 0.13245939 0.20116927 -0.2439701 -0.32025304 -0.057821263 0.25011277 -0.0858171 0.025745677 -0.1358135 -0.054084554 -0.25520238 0.104136 0.2906804 0.09544001 0.13879772 0.16113222 -0.1628125 -0.03371501 0.28043285 0.010014705 0.08675428 0.045254953 0.06488958 -0.22374281 0.04546598 -0.08312166 -0.19791278 0.22207654 -0.19386797 0.17219292 -0.0774235 -0.027126858 0.15293898 -0.18366736 -0.18590243 0.12677628 0.014237729 -0.013401155 0.20235993 0.109489 -0.17037433 -0.14103644 -0.025707953
e -0.065302275 -0.2798277 0.2794039 -0.005593896 0.03927179 0.15644653 0.5868456 0.26853547 -0.14939497 -0.27343142 0.20763434 0.1532843 -0.04577334 0.02013307 -0.17909299 0.040910482 0.4598343 0.34362003 0.07494155 -0.2774711 0.20009798 -0.22416042 0.059951976 0.21421905 -0.2283108 0.3058661 -0.1889303 -0.17959313 0.13842402 0.15262361 0.36880967 0.22446793 -0.16845271 -0.0039556604 0.18755853 -0.22154704 -0.22839689 0.1651096 0.15161681 -0.32229185 0.06701167 0.42263037 -0.36871812 -0.25699162 0.10657962 0.16576621 0.10975641 -0.21252665 0.03912626 0.34296247 0.042209886 -0.29361817 0.040461767 0.19342066 -0.099634394 0.41079712 0.08182761 0.11722788 0.23301765 -0.24067491 -0.32493678 -0.06799073 0.22829536 -0.16263713 -0.028373033 -0.17827868 -0.10549825 -0.34991348 0.1381968 0.42353344 0.09234751 0.29926768 0.20488104 -0.29498023 -0.05009544 0.36398074 0.017045902 0.19071816 0.060316905 0.049956962 -0.37461233 0.20840259 -0.18307489 -0.2218369 0.20047523 -0.26660508 0.20473176 -0.1279333 0.09506835 0.10489731 -0.20484294 -0.19341731 0.250851 -0.03828189 0.07268869 0.21918572 0.009485956 -0.114490196 -0.19488096 0.07754595
B -0.17193834 -0.06839196 0.020046443 -0.17722815 -0.10349718 0.0133177135 0.24971658 0.09051997 -0.036630552 -0.11422961 0.0013991776 -0.116787545 0.10165941 0.044586703 -0.12701479 -0.042326473 0.09650482 0.18645081 -0.1799187 -0.12157896 0.018936101 0.033721607 0.10927989 0.23369168 -0.08390977 0.12886086 -0.22616126 -0.2105785 -0.044862602 0.13888584 0.21740416 0.020303795 -0.031829957 -0.14022397 0.1205608 -0.21429932 -0.2952922 0.04573832 -0.06963395 -0.15835784 -0.062831156 0.2279935 -0.4746487 -0.3090369 0.229078 0.34460023 0.15643981 -0.15783201 0.024554418 0.22077513 0.11177232 -0.22732846 0.03179709 0.1230291 -0.056286085 0.2644466 0.0018022406 0.17146625 0.08614114 -0.27186906 -0.25000492 0.09481757 0.21880326 -0.14675881 -0.0554904 -0.08414152 -0.023224795 -0.15611984 0.031089569 0.24902436 0.117196575 0.03857154 0.0713785 -0.009196808 0.0727314 0.2079522 -0.10164219 0.0755119 0.0071823043 -0.0005176872 -0.025332678 -0.09733469 -0.046307024 0.0058117844 0.24571288 -0.07830504 0.1591187 -0.070959285 -0.053659964 0.07449327 -0.24065246 -0.122909136 0.1546978 0.10310275 0.06438624 0.043423645 0.1045606 -0.15208954 -0.17118065 0.04802872
所有 -0.15430284 -0.12748249 -0.107959576 -0.10530501 0.043584816 0.09110868 0.3790683 0.1784524 0.005537164 -0.06757309 0.17128834 -0.1861853 0.11945178 0.037919085 0.08458775 -0.14000584 -0.07142241 0.2625334 -0.16710429 0.094920166 0.046926707 -0.037118603 0.1768825 0.21433218 -0.20856243 0.200868 -0.17909339 -0.077859946 -0.16968882 -0.040026456 0.118941054 -0.058258057 0.014765041 -0.1307252 0.113849044 -0.23594727 -0.30695876 -0.077633746 -0.15022218 -0.052883606 -0.29665124 0.3054175 -0.39958683 -0.2584782 0.12776774 0.22185121 0.35938978 -0.15688127 0.20885603 0.2232423 0.12899706 -0.3347402 0.16605411 0.0618379 -0.06285831 0.12501493 0.021412782 0.10181808 0.07019614 -0.29503843 -0.19840865 0.11050964 0.05118876 -0.11968821 -0.14756858 -0.010397321 -0.13569562 -0.14117543 0.068191655 0.19906878 0.18174481 0.19603406 0.109095305 0.00969552 0.14982724 0.13843353 -0.04824803 -0.0133619215 -0.21970442 -0.1801647 0.03320535 -0.06977168 0.104834825 0.050691996 0.034075737 -0.029201744 0.06694928 -0.01834446 -0.05122982 0.042381167 -0.11261256 -0.118936926 0.07175129 0.09855579 0.0069188196 0.12030253 -0.03653153 0.04266176 -0.18538983 0.112506375
存在 -0.158197 -0.2152363 -0.04563857 -0.16006605 -0.09117902 0.051646527 0.32560107 0.1758588 0.010718423 -0.1136525 0.111289084 -0.060145997 0.056458294 0.03606839 -0.0664512 -0.122700304 0.07775135 0.20636396 -0.14710446 -0.07263854 0.09199466 0.014234922 0.1997739 0.2762287 -0.14934324 0.18621083 -0.15723275 -0.15387382 -0.11443711 0.06873432 0.13409163 -0.06585896 0.021503408 -0.09897578 0.08340802 -0.27031243 -0.22868183 -0.017562047 0.024724633 -0.1227842 -0.122837 0.20791131 -0.44413474 -0.20808949 0.1487068 0.26219726 0.21318573 -0.13029796 0.15026852 0.21983695 0.05386954 -0.33081424 0.0492404 0.061600327 -0.053902663 0.23087989 0.06252583 0.08695404 0.16140233 -0.2772158 -0.2635587 0.06893687 0.11197618 -0.052425433 -0.062122 -0.11342694 -0.10857697 -0.21983667 0.0470483 0.23788984 0.12104249 0.07994302 0.12650116 -0.036466524 0.09459662 0.22816311 -0.037248068 0.03920875 -0.14299786 -0.08643029 -0.095057584 -0.09271837 0.013061644 -0.04915606 0.19714896 -0.044014964 0.115236714 -0.03355072 -0.11895852 0.09321217 -0.10915686 -0.15348321 0.071195886 0.13442485 0.0076734014 0.1454849 -0.012345213 -0.033225454 -0.09951817 0.067695044
性质 -0.18708146 -0.29135627 -0.06410788 -0.19754872 -0.09970516 0.077034995 0.4071364 0.21470422 0.028925287 -0.08277667 0.15792577 0.0051719407 0.07179823 0.03751167 -0.04136536 -0.03280317 0.12802811 0.16359185 -0.12686945 -0.13495737 0.13521114 -0.051820774 0.21139634 0.33618432 -0.20172043 0.24309626 -0.14676759 -0.06358622 -0.090136 0.10173591 0.19162978 -0.13261966 0.022785332 -0.11653851 0.110117905 -0.27827123 -0.26035663 -0.019688679 0.10821211 -0.0477228 -0.13726066 0.20777166 -0.464517 -0.14936332 0.17614037 0.20942558 0.118625574 -0.08196541 0.08619811 0.1676092 -0.02411847 -0.2634738 0.055061955 0.1154865 0.057478245 0.24866523 0.049580667 0.10211404 0.2153791 -0.27698693 -0.25631472 0.13304779 0.14634417 -0.028371131 0.046769533 -0.15930615 -0.17463076 -0.22140492 0.056864135 0.29942328 0.078107595 0.10354959 0.13571994 -0.11149358 0.052372653 0.21684965 -0.054491054 0.06161861 -0.08744402 -0.069579944 -0.11289509 -0.016514672 0.027535606 -0.12180735 0.24647564 -0.13329077 0.09426215 -0.056793254 -0.18779363 0.15008286 -0.067423336 -0.19921775 0.064281665 0.20240346 0.017727077 0.21517938 -0.0208904 0.019395608 -0.061753843 0.027653169
y -0.274894 -0.35934988 0.12585837 -0.19817853 -0.25136822 -0.03638264 0.36040783 0.3318565 0.026124401 -0.23878571 0.11967407 0.11095068 -0.011518455 -0.06237032 -0.36570233 -0.037585016 0.40998846 0.22149816 -0.1515368 -0.3366796 0.10922939 -0.110444985 0.3035846 0.4050188 -0.2298283 0.15541567 -0.034386758 -0.34735495 -0.008929432 0.28847086 0.19421479 -0.10451108 -0.07405657 -0.12913385 0.13312137 -0.28716022 -0.29416326 0.05221986 0.22215801 -0.2511993 -0.017807223 0.28892246 -0.6113121 -0.25062254 0.19944888 0.39939126 0.08854576 -0.004786787 0.15164962 0.29458496 0.015847264 -0.37855977 0.059982385 -0.021913681 -0.13720778 0.41467673 0.03061463 0.20548564 0.3231313 -0.36890584 -0.3197023 0.014913744 0.13445173 0.009071211 0.02156519 -0.11084902 -0.15223616 -0.32222727 -0.0501466 0.28781173 0.14726949 -0.007881708 0.24643539 -0.058851745 -0.060572553 0.4394713 0.05251569 0.13049066 0.059257902 0.008985967 -0.41955987 -0.11311943 -0.052208595 -0.07419449 0.41703278 -0.08394852 0.16795537 -0.002976627 -0.1827951 0.31614915 -0.25746614 -0.09204432 0.105100855 0.22132996 0.052190457 0.19177042 0.063549705 -0.103434175 -0.17451274 0.088554785
T -0.15585692 -0.093938425 -0.019636212 -0.110060155 0.085147254 0.11109598 0.32998484 0.1379725 -0.028058492 -0.09061769 0.18884389 -0.16804893 0.09673977 0.063369565 0.028437693 -0.09323017 0.010527283 0.29517755 -0.08258141 -0.0014132352 0.009247754 -0.064407416 0.12574007 0.17733906 -0.18701221 0.23678905 -0.17822234 -0.1296132 -0.16463284 -0.043475498 0.14989005 0.016565785 -0.032059588 -0.17182887 0.15243876 -0.21061906 -0.25139862 -0.056128226 -0.1526348 -0.118866205 -0.22163168 0.2851864 -0.33141205 -0.23643023 0.14184617 0.21232262 0.33086646 -0.14961526 0.19400615 0.20353737 0.1364441 -0.36318916 0.17269911 0.082814604 -0.06982714 0.18593746 0.008981228 0.05369336 0.08371143 -0.28728586 -0.22542496 0.03843946 0.10199777 -0.090672776 -0.10633716 0.007323566 -0.10750178 -0.16521221 0.082946315 0.19715677 0.1842121 0.21075441 0.1306252 -0.054590486 0.096174456 0.169321 -0.0035131075 0.0025521626 -0.15524563 -0.124216594 -0.06172224 -0.037583526 0.07752559 0.0068939324 0.02688098 -0.028654521 0.11553106 -0.041724786 -0.0015607809 0.06640621 -0.12577547 -0.115639746 0.07574294 0.05163486 -0.01687443 0.10105861 -0.018418595 0.0069337403 -0.21685436 0.10765568
给定 -0.15188494 -0.07030409 -0.08890863 -0.13723055 -0.060580067 0.04409061 0.25779086 0.0991026 0.013406967 -0.06888477 0.038682777 -0.19598375 0.13135408 0.044831302 0.028988406 -0.15052384 -0.09686573 0.22149228 -0.23601633 0.07521984 0.017084256 0.08811412 0.15265615 0.24670239 -0.14590748 0.117530756 -0.19207387 -0.12204787 -0.16774511 0.044987537 0.10010933 -0.06994686 0.02280635 -0.11886373 0.10781295 -0.25175267 -0.2979063 -0.05913642 -0.15855373 -0.1254214 -0.21047729 0.23259778 -0.46385026 -0.28067952 0.16168621 0.2908216 0.26680753 -0.18741979 0.12827466 0.21519098 0.13066508 -0.2882278 0.06845493 0.06872295 -0.06826266 0.16046773 0.023572119 0.12611769 0.0249414 -0.29335552 -0.24582568 0.12573862 0.1063354 -0.12938274 -0.15005258 -0.048794053 -0.06254813 -0.12007696 0.048731085 0.22436251 0.16877002 0.10384284 0.109247826 0.017471045 0.18602368 0.15835899 -0.0894099 0.029272338 -0.1931655 -0.1043276 0.05281507 -0.1631125 0.067206174 0.07827453 0.13736601 -0.004868564 0.12286881 -0.044949528 -0.069762684 0.03479094 -0.13956304 -0.12445529 0.08153874 0.12427696 0.033895936 0.063475594 0.00060846726 -0.023437371 -0.15134133 0.066507794
D -0.1739186 -0.124954976 0.090794854 -0.074023806 0.004520125 0.11652545 0.44681686 0.13871896 -0.07314911 -0.11264348 0.22137024 -0.00531903 0.089300066 0.08767817 -0.11474562 -0.0075161364 0.16191354 0.2630309 -0.040570203 -0.14555655 -0.0021847717 -0.069470264 0.1753143 0.1912214 -0.18334344 0.22112465 -0.20324223 -0.18938541 -0.012738403 0.041578148 0.22596455 0.062165402 -0.09931888 -0.16293031 0.121115394 -0.21058825 -0.3172709 0.01663989 0.0013598842 -0.13074005 -0.09790662 0.32361415 -0.29901424 -0.2732449 0.15151635 0.2555485 0.17149462 -0.079379536 0.071534485 0.22283287 0.05972046 -0.3020211 0.06495214 0.16945492 -0.002364926 0.24018103 -0.046391085 0.05440234 0.16254818 -0.24360229 -0.20147379 0.06534271 0.26038146 -0.14730607 -0.015193602 -0.14961071 -0.04887658 -0.25200036 0.07212892 0.21998444 0.17760557 0.21417983 0.09335643 -0.11123441 -0.02260741 0.22843175 -0.075948164 0.057017364 0.012465135 -0.05364637 -0.11454322 0.016765272 -0.08560252 -0.077431366 0.16720413 -0.12957777 0.1392912 -0.024006594 -0.0028339196 0.10412333 -0.21810456 -0.15435505 0.14665465 0.109162316 0.084499046 0.07797653 0.07818629 -0.060084768 -0.20013526 0.14199014
群 -0.13892023 -0.20773241 -0.015463664 -0.12514208 -0.101936005 0.086418256 0.34357893 0.15753567 -0.037992742 -0.095793195 0.1532342 -0.051831257 0.045737196 0.0218579 -0.06867574 -0.13741462 0.09425631 0.17956579 -0.17494254 -0.05788581 0.0631307 0.012823827 0.22744492 0.2801589 -0.18328933 0.16470441 -0.19763099 -0.19353093 -0.10220145 0.024484541 0.12792628 -0.06900685 -0.0038032457 -0.03419895 0.08514015 -0.30860296 -0.20601963 -0.005168858 0.008554828 -0.14568259 -0.08490098 0.22390182 -0.43335557 -0.21216173 0.14558469 0.2697418 0.25906584 -0.15779722 0.21030512 0.2629285 0.1179575 -0.35329938 0.07214964 0.059413943 -0.1157989 0.20427212 0.08664593 0.07967238 0.16988362 -0.27993703 -0.29005262 0.029534023 0.12786093 -0.0976964 -0.11144039 -0.113020964 -0.051063668 -0.24739899 0.041160733 0.25625727 0.103525214 0.12011699 0.13168055 -0.06177552 0.05940396 0.19470637 -0.0181552 0.05375808 -0.17382811 -0.077881366 -0.090608105 -0.12545136 0.024542287 -0.003470903 0.113232315 -0.055323895 0.095525414 -0.09815489 -0.11278564 0.106813446 -0.09857844 -0.1289667 0.11606903 0.11010693 0.027645534 0.14406331 -0.013431718 -0.04171331 -0.1365684 0.10755388
i -0.009183764 -0.3402923 0.30043402 -0.060109697 0.013091645 0.2057938 0.75621235 0.28437003 -0.16653232 -0.30917 0.1405888 0.23219697 -0.07639613 0.057823405 -0.24579957 0.09183337 0.58988166 0.34532914 0.13101277 -0.34232026 0.3515565 -0.16666272 0.052618243 0.2594602 -0.24575351 0.4392226 -0.27477738 -0.12535577 0.26224416 0.2010932 0.5471614 0.38860497 -0.12157231 0.089288555 0.21190563 -0.2126158 -0.18085697 0.28218904 0.26909518 -0.36386725 0.15779951 0.48851478 -0.48455858 -0.21925175 0.13447921 0.18828703 0.00044299106 -0.3409327 -0.09148582 0.43897262 0.0034507774 -0.2487902 -0.093189046 0.42320028 -0.0092710415 0.56788546 0.16581033 0.19481967 0.25767753 -0.17992821 -0.41300017 -0.0682435 0.35067317 -0.18227673 -0.032151125 -0.34537777 -0.1569017 -0.49166 0.24207854 0.53684765 -0.018080425 0.33316377 0.21448106 -0.44415545 -0.029776283 0.39772794 -0.05142022 0.21337733 0.1334082 0.15210056 -0.42871422 0.31391132 -0.30948403 -0.38561967 0.32474488 -0.43553576 0.24761128 -0.25030085 0.13831513 0.07606333 -0.1708438 -0.26351398 0.28124103 -0.088297084 0.12232928 0.35414487 0.041974 -0.21457724 -0.1121558 -0.033805225
个体 -0.19471635 -0.18956107 -0.2930793 -0.16819876 0.0023158938 0.07390967 0.44708312 0.15637161 0.12626144 0.0061163045 0.18326293 -0.19848008 0.23233065 0.06097908 0.20084059 -0.08332861 -0.2012054 0.22532633 -0.25281715 0.15109164 0.08354059 0.037322972 0.24623217 0.32338294 -0.28455466 0.2821657 -0.20470181 0.13056019 -0.32149205 -0.032395072 0.10594373 -0.3309284 0.0932158 -0.22090116 0.107590094 -0.30697596 -0.3735497 -0.15351589 -0.11453075 0.1728659 -0.42634752 0.1888659 -0.4876214 -0.18792099 0.21184078 0.20336021 0.2600038 -0.054924246 0.21585341 0.06755693 -0.018346233 -0.28240147 0.0839569 0.09850198 0.1653839 0.04987605 -0.05104634 0.086333044 0.10698367 -0.35064104 -0.1931043 0.2866605 0.10197301 -0.057198737 0.015037711 -0.039907873 -0.18406384 -0.03662397 0.09943577 0.27000815 0.15018028 0.13950425 0.03569704 -0.013895048 0.22607629 0.080452114 -0.16562547 -0.025472198 -0.2785141 -0.24326591 0.17656708 -0.07039898 0.21530372 0.08338327 0.15674058 -0.043440655 0.087166846 -0.023118053 -0.16661072 0.066570215 -0.02709827 -0.22142214 -0.01974043 0.30178577 0.041352347 0.15162288 -0.06937698 0.21466124 -0.0549363 0.06955017
| -0.27949604 -0.47680315 0.10928001 -0.19647275 -0.16067566 0.098223455 0.5247153 0.22720897 -0.10549432 -0.3265262 0.14991549 0.27355587 -0.030246045 0.10728214 -0.41650063 -0.1170628 0.4685644 0.19656579 -0.040985413 -0.40529594 0.15999117 -0.05050269 0.3235518 0.35517493 -0.10274304 0.28145453 -0.2216878 -0.4407792 0.19454472 0.2357927 0.37578687 0.19388346 -0.19030707 0.03490954 0.11911993 -0.2940557 -0.14210619 0.09929077 0.1750183 -0.3689616 0.16261981 0.34008676 -0.5871419 -0.25101998 0.17541482 0.44336078 0.09885318 -0.14084242 -0.0044782297 0.4282005 -0.057475176 -0.33938465 -0.060053445 0.15538135 -0.057918943 0.52855736 0.0324084 0.18637931 0.39972547 -0.24044293 -0.37771118 -0.054203648 0.38751256 -0.19560874 0.08186217 -0.40146768 -0.020946596 -0.45412192 0.09145769 0.3966026 0.08464436 0.032232944 0.13881698 -0.3060205 -0.18198717 0.46994516 -0.020880638 0.048484784 0.054242875 0.040033676 -0.39361435 -0.1225614 -0.20040756 -0.35017362 0.40110934 -0.21512452 0.20405574 -0.19761969 -0.13419633 0.27068672 -0.3047806 -0.31443158 0.21905658 0.08233264 0.081006736 0.27235594 0.21219413 -0.28189933 -0.05811513 0.14233707
4 -0.06632716 -0.048577774 -0.10943201 -0.083199926 -0.0056368886 0.064446576 0.31184497 0.09155096 0.010904772 -0.0423573 0.08475176 -0.1912963 0.11579123 0.08045637 0.08386922 -0.10674371 -0.0922354 0.2522439 -0.12628785 0.118982956 0.1052501 0.06291108 0.14595829 0.21061076 -0.13049573 0.16208757 -0.19486353 -0.033791598 -0.16129234 0.014745148 0.12431337 -0.033882346 0.0502037 -0.08624323 0.10481867 -0.18370292 -0.21227519 -0.04962945 -0.16424546 -0.059496686 -0.21232869 0.20966709 -0.37311992 -0.20576516 0.09247798 0.18038358 0.26755387 -0.19958305 0.15586722 0.20200534 0.10923264 -0.29051745 0.024824575 0.13565204 -0.002875446 0.1431386 0.031815518 0.09259058 0.0027957 -0.21799913 -0.21700467 0.115439124 0.080783345 -0.08962557 -0.1520722 -0.032936685 -0.10369997 -0.13160066 0.10192689 0.19011968 0.13104615 0.1624752 0.09788842 -0.03982528 0.22305302 0.08832211 -0.06644472 0.008296974 -0.24902539 -0.091793455 0.068020634 -0.079156704 0.07217549 0.07071084 0.102381386 -0.00774086 0.12944578 -0.05600534 0.011516196 0.0030222626 -0.07118688 -0.13398571 0.07359637 0.09746581 0.01319556 0.09640976 -0.027490167 0.03744497 -0.09867265 0.04899396
关系 -0.13125987 -0.07897868 -0.073060125 -0.13347067 -0.058152467 0.0576148 0.29172426 0.1232063 0.020780368 -0.053839482 0.03511432 -0.16111103 0.11488204 0.064190805 -0.006660986 -0.10363037 -0.042984348 0.22876774 -0.20409374 0.045690414 0.049565572 0.054922607 0.12990938 0.25087914 -0.14076595 0.13223746 -0.18750611 -0.08422816 -0.10867767 0.053675264 0.1443455 -0.04954648 0.032642882 -0.10217464 0.11950613 -0.2116256 -0.26354322 -0.01815988 -0.08939628 -0.12365685 -0.18486011 0.24287812 -0.44862655 -0.22388855 0.14196038 0.2538426 0.23228946 -0.18331225 0.084561564 0.20803624 0.11957068 -0.27003485 0.039086323 0.119138576 -0.04694712 0.18833242 0.03084174 0.13391477 0.026711972 -0.26508826 -0.23068014 0.11655297 0.111100174 -0.10505681 -0.115891665 -0.075903125 -0.10809491 -0.15076318 0.068603694 0.23419257 0.13234876 0.13310216 0.104780495 -0.024457509 0.1833276 0.16602029 -0.080202036 0.03542764 -0.1594898 -0.05673346 0.033889517 -0.09214766 0.01679689 0.04276379 0.17311478 -0.058845725 0.1306757 -0.040770173 -0.06492462 0.01590098 -0.1395412 -0.1248193 0.10680946 0.110148706 0.031890478 0.112923205 -0.014097148 -0.042168777 -0.12462137 0.040645484
M -0.020139417 -0.23076886 0.1806457 -0.04411413 -0.054344065 0.12524876 0.51275885 0.16290165 -0.13929133 -0.24229486 0.11651753 0.10921137 -0.050666336 0.057237577 -0.12073454 0.07497532 0.35713273 0.32014608 0.09465957 -0.18096317 0.22379905 -0.027190154 0.06333046 0.18829793 -0.14406443 0.31049496 -0.25680068 -0.15662195 0.08298428 0.13656616 0.3859553 0.29996225 -0.06191408 0.049077496 0.13682334 -0.19970864 -0.13203545 0.16587925 0.086790554 -0.23058367 0.11632538 0.35862294 -0.3506418 -0.22772904 0.09502091 0.22193694 0.06633509 -0.28726384 0.012872113 0.33221567 0.019874623 -0.23331267 -0.07048387 0.28027654 -0.01279234 0.33290476 0.12923978 0.13025685 0.20005329 -0.16576062 -0.3135115 -0.010914059 0.29422295 -0.1430067 -0.049368367 -0.22278975 -0.03911633 -0.32188496 0.1578408 0.39670113 0.051819555 0.25087294 0.15126115 -0.27900353 0.014931645 0.29010534 -0.079566605 0.12487679 0.036947116 0.10099586 -0.27323574 0.14820708 -0.16798836 -0.19021069 0.26713702 -0.23404828 0.20475629 -0.20207505 0.099105515 0.08085317 -0.19236034 -0.17875822 0.2076057 -0.03391635 0.08924055 0.20386137 0.08731246 -0.1555321 -0.117787726 0.043723654
无向图 -0.10385586 -0.12693246 0.026307488 -0.04110062 0.062047154 0.12761852 0.45234758 0.13835002 -0.070055045 -0.0892998 0.20090559 -0.05565606 0.089391716 0.118387714 -0.012464823 -0.08311534 0.04493888 0.30502895 -0.007908191 -0.008745136 0.027621923 -0.0643536 0.1444804 0.18188953 -0.14752853 0.22596498 -0.18477914 -0.13256873 -0.037640512 -0.02408404 0.16974993 0.081281334 -0.06830613 -0.09033705 0.109351024 -0.16676463 -0.258053 -0.016988818 -0.08491892 -0.13445327 -0.11562928 0.29903814 -0.25920692 -0.27124175 0.07734025 0.20028888 0.27616525 -0.16285667 0.13136362 0.24337082 0.08784443 -0.35067162 0.10031029 0.16463363 -0.053698163 0.19257946 3.6222413e-05 0.027357293 0.070334345 -0.20655599 -0.19022168 0.065925404 0.17840248 -0.12543704 -0.102596834 -0.13517736 -0.08966287 -0.24628648 0.13450329 0.17469738 0.15209861 0.25714967 0.085302904 -0.13090096 0.09881915 0.18452057 -0.04020544 0.013253274 -0.1392614 -0.10912875 -0.05300952 -0.011809245 -0.05218892 -0.044079702 0.045812894 -0.055429555 0.13446528 -0.043637842 0.060700476 0.031849038 -0.1376047 -0.16045122 0.13903219 0.048292994 0.052792456 0.07732987 0.0026057449 -0.004139233 -0.17437442 0.14556637
a -0.13971975 -0.14318778 0.115594864 -0.098513514 -0.060453236 0.11069643 0.3543515 0.1399367 -0.07891333 -0.1720394 0.15612657 -0.004718416 0.023700342 0.05627075 -0.16712739 -0.005221074 0.23130673 0.2635211 -0.058977585 -0.16629256 0.12040513 -0.022595014 0.13823602 0.24374555 -0.13695924 0.23927331 -0.23152411 -0.23576035 -0.025982862 0.1531245 0.29687968 0.08429397 -0.041524462 -0.12250145 0.135817 -0.24811465 -0.21172279 0.07798741 0.029418688 -0.17895646 -0.031853583 0.30756453 -0.39736184 -0.23532797 0.16645889 0.28119624 0.18163891 -0.14536695 0.092917696 0.23514257 0.0720748 -0.30911538 0.0082364185 0.15450634 -0.065951146 0.28670758 0.04881952 0.14016363 0.19485013 -0.25145254 -0.2798632 -0.0016771905 0.2180171 -0.14220501 -0.043361075 -0.10047416 -0.017806092 -0.26369676 0.04801539 0.2781704 0.107392475 0.13682668 0.12769696 -0.12656905 -0.0078120315 0.25766072 -0.04054497 0.09504019 0.0034002801 -0.0059782034 -0.1915721 -0.016229754 -0.051338576 -0.07431115 0.2520535 -0.12920697 0.16680601 -0.101817824 -0.0015480957 0.14936416 -0.20697737 -0.13385731 0.18050921 0.056339867 0.023098325 0.13608295 0.079921626 -0.11470782 -0.1874528 0.06366319
right -0.13651724 -0.10715111 0.18323618 -0.096582144 -0.08071285 0.05013689 0.37371612 0.077424504 -0.13031738 -0.2526912 0.002405658 0.09393598 0.0017562862 0.045783382 -0.2537517 0.086708665 0.39194205 0.25487888 -0.07681018 -0.30544838 0.13874355 -0.028566323 0.102267146 0.21575458 -0.09768995 0.1999118 -0.3685517 -0.2296234 0.12811182 0.2380207 0.42220604 0.23103285 -0.1678804 -0.08874844 0.1799725 -0.22184776 -0.25671732 0.1900091 0.07795621 -0.29195508 0.148493 0.32644242 -0.45758265 -0.31214175 0.19862276 0.35215506 -0.00067985273 -0.20750982 -0.07266995 0.3289844 0.07260296 -0.2079253 -0.0823052 0.24613862 -0.024547135 0.41759628 -0.0066446373 0.2044883 0.20772919 -0.17785196 -0.3624976 -0.0011234785 0.38050443 -0.18026593 0.06881876 -0.22126955 0.016621724 -0.25363865 0.059109777 0.36691555 0.07593253 0.09891741 0.09435686 -0.2191939 -0.064167485 0.32778585 -0.09828651 0.19524647 0.1412609 0.13338067 -0.24700132 0.047246568 -0.2144458 -0.16733353 0.37801853 -0.24465255 0.24382395 -0.17715926 0.01227885 0.11227504 -0.33988503 -0.16485281 0.24927615 0.047663018 0.124122776 0.14574534 0.20311652 -0.24988094 -0.14848518 0.038297687
函数 -0.17433764 -0.082922615 -0.008690875 -0.15119223 -0.07904607 0.034156375 0.29097408 0.09219989 -0.0027320902 -0.10871307 0.04191761 -0.11010606 0.11303511 0.017010106 -0.04960379 -0.02827326 0.055271015 0.22476326 -0.1931437 -0.064298876 0.05339309 0.026756205 0.1395236 0.24504842 -0.15214783 0.13828659 -0.23111717 -0.14083844 -0.1097284 0.11797758 0.19873773 -0.033962805 -0.029643575 -0.16462436 0.12733744 -0.24833696 -0.29025334 0.006692251 -0.05730156 -0.11970335 -0.13331424 0.24038154 -0.45711344 -0.2617827 0.17514795 0.29726902 0.17336488 -0.12200924 0.08008223 0.19204283 0.084765285 -0.25571364 0.03491462 0.10257954 -0.012045054 0.21468894 -0.002649243 0.14009473 0.11191765 -0.26262584 -0.27281034 0.10483654 0.19090396 -0.09197972 -0.021975366 -0.0747988 -0.04605586 -0.13702771 0.02772165 0.25695175 0.14767791 0.08016997 0.090744965 -0.02767437 0.104752034 0.21174586 -0.07860732 0.08656966 -0.064850844 -0.05526609 -0.034726467 -0.07687151 -0.008025367 0.015063599 0.21471553 -0.08216157 0.16739546 -0.063595966 -0.059385594 0.086915635 -0.20450109 -0.12719037 0.11453594 0.14460276 0.053764354 0.08660543 0.082189776 -0.044458732 -0.15253767 0.05537993
命题 -0.03915951 0.13646515 -0.12763129 -0.13643798 0.043336842 0.061594862 0.33290347 -0.0047720494 0.031085292 -0.0024313268 0.08520498 -0.26614356 0.21439281 0.13294037 -0.0013067315 0.036562547 -0.08283294 0.28122112 -0.2010038 0.11464363 0.036821272 0.047427464 0.06266335 0.24267198 -0.041910704 0.20338315 -0.36655352 -0.003711972 -0.18275969 0.05819548 0.21159108 -0.045997456 0.046111085 -0.19580047 0.090818346 -0.1587146 -0.27389234 -0.02487147 -0.15218824 0.009465721 -0.23136987 0.20140746 -0.38108164 -0.20673111 0.20162642 0.24556263 0.24125168 -0.17927542 0.10362599 0.18256764 0.18967329 -0.2896917 0.016807577 0.1970917 0.06347708 0.12949444 -0.080223374 0.17487217 -0.028339887 -0.18593098 -0.20666228 0.1241883 0.14243518 -0.07006418 -0.0771732 -0.008920792 -0.05864198 -0.07792812 0.10870106 0.18485229 0.18614426 0.20280588 -0.030602703 -0.08810494 0.25502196 0.1189747 -0.06851297 0.04292266 -0.19358598 -0.031103175 0.22231983 -0.055413447 0.049064603 0.103314504 0.1620361 -0.049089503 0.22595625 0.023047032 0.05561493 -0.06709248 -0.17232643 -0.11039278 0.13548487 0.10113608 0.044608418 0.04812994 0.01968719 -0.006663728 -0.17515689 0.06420516
cdots -0.027396409 -0.22612025 0.16068022 -0.114278585 -0.02610998 0.15133432 0.5802705 0.1842698 -0.12163192 -0.24093834 0.057537872 0.14721702 -0.0126594445 0.08892324 -0.22994061 0.0894691 0.4135255 0.23873128 0.050041914 -0.2620688 0.2703401 -0.07175147 0.06857758 0.24624443 -0.14789507 0.34635144 -0.30006856 -0.120703384 0.20313598 0.19181326 0.46941957 0.30328307 -0.050078698 0.052799355 0.15308253 -0.19206311 -0.14549683 0.21561755 0.22158568 -0.26016662 0.14549798 0.3527207 -0.4474643 -0.20094429 0.17659393 0.24383932 -0.017806701 -0.27091601 -0.12107576 0.35119253 0.032000523 -0.19706865 -0.11140481 0.40223235 0.038814563 0.49637124 0.109832525 0.2233452 0.18576756 -0.12640052 -0.33081028 -0.018993203 0.3562423 -0.15851621 0.0010142064 -0.32550067 -0.1211502 -0.3734896 0.18923567 0.42549902 -0.0405463 0.218083 0.13247241 -0.31632775 0.020445561 0.31253445 -0.08293355 0.14397377 0.089261614 0.13924165 -0.27392787 0.17515093 -0.25833046 -0.3037986 0.33230567 -0.34033132 0.22388132 -0.20301278 0.08504679 0.072699726 -0.17288144 -0.21685332 0.2355518 -0.05348179 0.086699255 0.2808747 0.09951898 -0.21282233 -0.06317618 -0.028023757
不 -0.10154937 -0.11736919 -0.05227061 -0.11842707 -0.019288752 0.076109655 0.35998315 0.143145 -0.02910232 -0.07651439 0.12392272 -0.114079356 0.104222536 0.056838877 0.011379626 -0.10590182 0.008379199 0.25530532 -0.16249888 0.025178565 0.06315066 0.002144456 0.16145095 0.23714256 -0.16847059 0.18100771 -0.21824977 -0.09562034 -0.14560208 0.019867053 0.15666415 -0.030495103 0.008197095 -0.11546543 0.0983227 -0.25115153 -0.2516394 -0.019263187 -0.07916639 -0.14118686 -0.17410626 0.23222233 -0.3996428 -0.23935114 0.124439135 0.22736965 0.2808487 -0.19635145 0.15816063 0.22716445 0.11813775 -0.35030252 0.07396694 0.09756196 -0.060006194 0.20470278 0.040556557 0.095150605 0.09208695 -0.25190926 -0.26519033 0.065275006 0.10528419 -0.10860944 -0.12000318 -0.085189655 -0.10190257 -0.16866258 0.099123016 0.24006249 0.14413922 0.16400717 0.10532458 -0.052768096 0.16125633 0.17352952 -0.048596922 0.049527276 -0.19683054 -0.077113844 -0.019349635 -0.070896745 0.047524672 0.0067812623 0.11355011 -0.06609119 0.1314434 -0.036517028 -0.034482952 0.03544216 -0.12102089 -0.13661496 0.10779014 0.09609055 0.014068273 0.12385605 -0.033179138 -0.00396398 -0.13186723 0.09575603
阶 -0.14894702 -0.2001073 -0.01055916 -0.12076409 -0.027730238 0.097264856 0.3745498 0.1455014 -0.047809143 -0.10835198 0.12638952 -0.00035705545 0.05862549 0.111582935 -0.1049103 -0.095353566 0.11259581 0.20820034 -0.071895584 -0.113043256 0.10870777 -0.016640238 0.20803551 0.23483157 -0.12229217 0.20239918 -0.18047783 -0.16891429 -0.029224122 0.049208917 0.18451868 0.038668294 -0.016509535 -0.069169946 0.09588251 -0.2246048 -0.18362616 -0.007598016 -0.013614766 -0.1416273 -0.08935726 0.24999286 -0.36993915 -0.18498287 0.115326785 0.2417722 0.1710783 -0.13551216 0.09255015 0.24126095 0.037788864 -0.318148 0.027380306 0.13543288 -0.011952225 0.27443334 0.045548577 0.10201185 0.17162918 -0.19602278 -0.22533944 0.023675583 0.17332445 -0.121750094 -0.049979154 -0.16005148 -0.092059985 -0.23777233 0.065675214 0.23998268 0.09303776 0.115631536 0.097053714 -0.11039726 0.028735934 0.21096885 -0.041994937 0.017956978 -0.09268495 -0.05531384 -0.11128741 -0.06202009 -0.017259462 -0.11192118 0.16375706 -0.09702609 0.102481395 -0.087190576 -0.068192214 0.10704082 -0.12534708 -0.16266885 0.109119974 0.08005837 0.032936614 0.13161366 0.036687486 -0.052119054 -0.08755005 0.08588187
L -0.08621411 -0.12273736 0.08696031 -0.041175045 -0.02029335 0.0775501 0.3560371 0.10016432 -0.06188013 -0.13509715 0.110879265 -0.044482153 -0.004762239 0.0556669 -0.1022291 -0.025077416 0.19741243 0.2654478 0.01103447 -0.1382961 0.15147905 -0.0042425613 0.10212423 0.17299761 -0.119329296 0.24413903 -0.2106608 -0.14997965 -0.016261535 0.060508173 0.24558659 0.12294668 -0.033357278 -0.06881224 0.14533472 -0.1493478 -0.1722336 0.06236376 -0.013747843 -0.13920513 -0.02966896 0.259893 -0.2967826 -0.20326214 0.11002873 0.17191434 0.13752323 -0.1758056 0.05509316 0.21935171 0.061318636 -0.27110294 -0.03957045 0.17196342 -0.012924847 0.24503684 0.032744754 0.0805701 0.13016552 -0.1862791 -0.2526112 -0.022529729 0.1921899 -0.08831652 -0.057994936 -0.12978572 -0.05380591 -0.21600224 0.08859379 0.21676171 0.09208071 0.19912289 0.123493746 -0.20207307 0.07503349 0.20310245 -0.032410488 0.053760633 -0.038454868 -0.0070086755 -0.17025001 0.08109904 -0.07285547 -0.0957097 0.20488466 -0.08583807 0.17330024 -0.092647254 0.07455656 0.056375813 -0.12566257 -0.15676191 0.14942189 0.01097386 0.026435267 0.12522334 0.012728708 -0.064349465 -0.11447934 0.0032954237
基本 -0.10002852 -0.020484997 -0.13547136 -0.10313254 0.060840312 0.0669856 0.30460444 0.10462035 0.015027996 -0.027678832 0.13714819 -0.26318035 0.15537602 0.06876928 0.14668736 -0.13230227 -0.18772875 0.28853622 -0.17732327 0.19632879 0.03594796 0.07156642 0.13745502 0.2011814 -0.14592788 0.1564393 -0.22893357 -0.052130762 -0.24882093 -0.02060978 0.08549772 -0.08621338 0.057637636 -0.13710582 0.11466578 -0.21548937 -0.27271807 -0.081026725 -0.24192326 -0.06432341 -0.30747548 0.24780723 -0.39314052 -0.2462877 0.11471622 0.20811382 0.360734 -0.2322361 0.19849397 0.19009411 0.15524898 -0.322874 0.11446336 0.06874615 -0.055449825 0.10506584 0.01616247 0.09608121 -0.02552136 -0.27031878 -0.21527767 0.1362442 0.054968476 -0.09805512 -0.19074267 0.026605405 -0.11501283 -0.100483626 0.07980591 0.18300432 0.18816143 0.20212413 0.08766028 0.019136164 0.26696402 0.068083614 -0.06495542 -0.010255585 -0.30967948 -0.16021058 0.1275638 -0.120255 0.15411893 0.12765309 0.051520877 0.01813383 0.11762889 -0.036212727 -0.008173416 -0.011732417 -0.074678324 -0.110762805 0.070284635 0.10197136 -0.0157611 0.068408415 -0.053315014 0.046110272 -0.16890265 0.07279077
时 -0.10954321 -0.16046144 -0.06723641 -0.13128898 -0.038253114 0.07685686 0.36896706 0.14410576 -0.005628575 -0.07934421 0.08037518 -0.07465462 0.08742426 0.051215798 0.012303149 -0.091728136 0.012862139 0.21213967 -0.14601916 0.0070953723 0.11863574 0.02400028 0.1824866 0.2524043 -0.16711284 0.18314265 -0.17581514 -0.08328911 -0.080416314 0.03921062 0.15960811 -0.022319196 0.022631275 -0.062817976 0.09724696 -0.22080283 -0.19901022 -0.028126044 -0.07564716 -0.11763351 -0.16814247 0.23124692 -0.426964 -0.20204102 0.11294111 0.22459702 0.21994647 -0.18089412 0.11737623 0.23006113 0.0809695 -0.30167094 0.031410772 0.11539741 -0.007948038 0.22582228 0.058268916 0.1287859 0.091932476 -0.20413484 -0.25450265 0.079186104 0.1268198 -0.11210992 -0.10559273 -0.109739855 -0.12041404 -0.17131513 0.08463845 0.25485873 0.121603265 0.1280907 0.11645825 -0.07390896 0.13840765 0.15460618 -0.04641653 0.024251318 -0.19038095 -0.05848839 -0.03162342 -0.0688842 0.03420602 -0.02519328 0.13617207 -0.08797767 0.119576156 -0.08227171 -0.065453075 0.07041121 -0.083593324 -0.16407976 0.08761658 0.1074979 0.024205064 0.13556975 -0.0018317838 -0.0042912825 -0.08219484 0.07516099
图 -0.064375535 -0.004685952 -0.10159978 -0.05682718 0.060172316 0.08478112 0.3441533 0.09270418 -0.014020987 -0.02461061 0.12227079 -0.21989152 0.13711071 0.095762044 0.13203411 -0.08118262 -0.12487538 0.28734997 -0.10510284 0.1594472 0.09140126 0.03740075 0.13531248 0.1824033 -0.15004304 0.18621671 -0.22205505 -0.025666773 -0.16604863 -0.02654236 0.14479044 -0.009195347 0.03139514 -0.12961338 0.10545821 -0.17010348 -0.22757195 -0.063688666 -0.2037309 -0.030146584 -0.2409402 0.23928568 -0.32026076 -0.22984406 0.08536446 0.17312534 0.31678748 -0.19477388 0.1809166 0.20152146 0.14235553 -0.3258222 0.06854405 0.15008013 -0.0206354 0.10747704 0.010253366 0.07508397 -0.010860835 -0.2041985 -0.19213878 0.10694207 0.08736911 -0.108135246 -0.15789928 -0.016050756 -0.09192924 -0.12591556 0.13068618 0.19643481 0.16227451 0.21519214 0.071545824 -0.05640138 0.22722687 0.069149874 -0.052151762 0.0040805573 -0.2587473 -0.10467912 0.09447648 -0.054432377 0.07045774 0.08001882 0.041887563 -0.006931922 0.13577192 -0.030814992 0.0662168 -0.012682803 -0.07411594 -0.12317974 0.10059991 0.08848315 0.024076432 0.06229243 -0.032802578 0.05629176 -0.15701227 0.09229694
构成 -0.11446623 -0.12814943 -0.03876608 -0.10728835 -0.04329633 0.092866294 0.34692845 0.13144282 -0.018602218 -0.09695074 0.105796106 -0.11071533 0.08631668 0.0360075 -0.026590222 -0.09518941 0.039189883 0.23350476 -0.16891465 0.006202445 0.084596954 0.031656273 0.1618706 0.2536151 -0.1716324 0.18579285 -0.22138876 -0.119393244 -0.12022325 0.042070422 0.17228283 -0.02423715 0.017115088 -0.07108919 0.10523303 -0.24966833 -0.2315117 0.0091615785 -0.05369703 -0.12147758 -0.1428095 0.25991172 -0.4309593 -0.22803137 0.14950256 0.2543446 0.23378526 -0.17442162 0.15496372 0.23582628 0.10133092 -0.30633074 0.056752544 0.10253077 -0.054075237 0.1906621 0.05270482 0.11174251 0.10827349 -0.2710748 -0.26601252 0.06404922 0.11799099 -0.11701088 -0.117446065 -0.07963815 -0.06515185 -0.18704177 0.06592385 0.25676233 0.123147234 0.14709887 0.10855678 -0.061584163 0.11442939 0.18140654 -0.05830877 0.04982601 -0.15384135 -0.070722334 -0.048595466 -0.06989672 0.032615222 0.023129072 0.13212425 -0.07418718 0.13555387 -0.08146117 -0.056022074 0.06517119 -0.11834099 -0.134275 0.10530271 0.10504674 0.029066393 0.12900826 -0.009436346 -0.025587633 -0.14074495 0.06603757
u -0.09284767 -0.25226247 0.32829055 0.07462598 0.13228987 0.13703047 0.5788613 0.31163067 -0.16954336 -0.28170493 0.28257307 0.14929648 -0.019722892 -0.005790256 -0.12903845 0.050361175 0.46156284 0.39856702 0.103983805 -0.24727772 0.14113966 -0.34758365 0.0050579654 0.19161 -0.209287 0.24940433 -0.14585531 -0.20329688 0.11509239 0.12915199 0.34682545 0.18991087 -0.26199302 -0.060099628 0.19485867 -0.19896272 -0.31780088 0.1026981 0.06785321 -0.30574593 0.0044070296 0.48710942 -0.3012416 -0.3074314 0.05800795 0.12904589 0.17772977 -0.13804413 0.07669894 0.34459615 0.06477881 -0.3285379 0.18084078 0.10186431 -0.14079282 0.3125651 0.02815052 0.09832219 0.21222933 -0.26841727 -0.25436708 -0.0474173 0.16517891 -0.18637143 0.0020003293 -0.08239027 -0.11041724 -0.28121117 0.12301189 0.40619344 0.178147 0.3543158 0.18175215 -0.22824223 -0.08769939 0.40143535 0.067621596 0.20710154 0.06815133 0.0030614596 -0.37739593 0.2137317 -0.15683925 -0.15473796 0.12975365 -0.23353298 0.21632461 -0.04474432 0.14938472 0.09212221 -0.27995747 -0.17325054 0.28507406 -0.05411479 0.08703453 0.14433224 -0.0150481565 -0.033012364 -0.29996 0.17100166
回路 -0.09540451 -0.020842373 -0.13323005 -0.087620944 0.09762464 0.0914567 0.39951998 0.13030557 0.0023021328 -0.038807604 0.17305994 -0.26402086 0.15812358 0.055380963 0.14913811 -0.12571138 -0.15092357 0.3189611 -0.1529202 0.19362909 0.0638128 -0.010366241 0.14217459 0.20750262 -0.18968104 0.20985101 -0.24869072 -0.023746438 -0.21187225 -0.055327963 0.14046395 -0.048505634 0.03080784 -0.15489946 0.13598017 -0.20261042 -0.28927416 -0.061298113 -0.24839987 -0.027708497 -0.3318164 0.30022904 -0.38875723 -0.27220187 0.1081482 0.17724131 0.41176695 -0.22764583 0.23370445 0.22592017 0.17727835 -0.34735295 0.16247414 0.10004181 -0.06881211 0.110910244 -0.007931989 0.115375616 -0.006692064 -0.29741573 -0.21199676 0.10770722 0.04518235 -0.121927515 -0.19573498 0.022757266 -0.13387747 -0.09577307 0.10591848 0.19803901 0.21101695 0.2470093 0.08980057 -0.016700407 0.26381353 0.07707043 -0.029719917 0.0062431735 -0.29560187 -0.16521284 0.11389083 -0.069661856 0.12894219 0.10973201 0.015943626 -0.018325 0.10470184 -0.015522604 0.025144143 -0.019702476 -0.09832009 -0.11922362 0.0824242 0.08060561 -0.011370839 0.1085997 -0.067445464 0.06989024 -0.2041622 0.09150477
文法 -0.04080964 -0.021543546 -0.11730475 -0.021165177 0.04373795 0.057319276 0.30321756 0.05485639 0.020375049 -0.03311274 0.095584966 -0.2604108 0.05849609 0.07130358 0.13012247 -0.12950702 -0.102294765 0.28344786 -0.030612456 0.107289225 0.1406834 0.088300265 0.12511341 0.18763056 -0.1384038 0.21213882 -0.1957672 -0.036369067 -0.21106102 -0.0286495 0.123055644 -0.014346141 0.04661029 -0.10106736 0.13972175 -0.14650108 -0.19657244 -0.06577771 -0.25881374 -0.021650722 -0.25938258 0.20435035 -0.30623683 -0.20677659 0.06121889 0.12925147 0.29262152 -0.22634378 0.18779968 0.19039753 0.10943254 -0.33193296 0.013787278 0.1388186 0.030600352 0.10072121 0.010619473 0.042269066 -0.022781 -0.20638023 -0.23568675 0.07425697 0.06340706 -0.040262777 -0.18663171 0.01000237 -0.087271795 -0.115792245 0.13736238 0.14045602 0.13676803 0.24323452 0.10856904 -0.097457804 0.26419294 0.030419903 -0.046748318 -0.043371145 -0.28709447 -0.10332207 0.059208445 -0.02714702 0.090358205 0.07762173 0.07081508 0.062207118 0.13549809 -0.060951807 0.09517809 -0.038250864 -0.019929877 -0.14746052 0.07506473 0.07247013 -0.0059041 0.08345335 -0.045180235 0.08539782 -0.080614276 -0.005308162
仅 -0.12544711 0.11840183 -0.014082555 -0.089808516 0.056913268 0.09491298 0.37298152 0.053194933 -0.00628056 -0.032008827 0.1598642 -0.21847512 0.14529277 0.12476133 -0.08055294 0.033605315 0.0017048563 0.3098639 -0.13727279 -0.026969776 0.03149781 -0.0052069896 0.08518719 0.20891456 -0.07777994 0.27360094 -0.3524233 -0.13190748 -0.12391887 0.024385333 0.25350234 -0.0022327402 -0.0024534948 -0.25119123 0.16576125 -0.15620747 -0.3428689 -0.03325285 -0.16173124 -0.02681899 -0.23053548 0.2421053 -0.33957452 -0.27942985 0.20262873 0.23759902 0.25761706 -0.11073226 0.09787115 0.21111451 0.19530782 -0.34981176 0.07588194 0.2310233 0.03794098 0.18160518 -0.079176486 0.10916015 0.07274654 -0.2779907 -0.15328096 0.07665542 0.2186504 -0.0776036 -0.049358357 -0.011403688 -0.0058806986 -0.15420945 0.09919311 0.17719015 0.2273737 0.24244432 0.017320411 -0.114921935 0.13204463 0.16248879 -0.04063175 0.022463245 -0.06242216 -0.026118916 0.08957365 -0.014591317 0.025229188 0.0576271 0.1802749 -0.040273663 0.16201942 0.01658853 0.050402816 0.009104684 -0.21987322 -0.09600633 0.14141108 0.09481467 0.035980742 0.00016737574 0.05163439 -0.038053233 -0.27635744 0.06796147
定义 -0.09209761 -0.097793825 -0.027929394 -0.1003017 -0.053093936 0.058134463 0.3297689 0.10937135 -0.01915457 -0.084595464 0.08475353 -0.10031998 0.09042261 0.044985186 -0.0129973125 -0.068944186 0.032647226 0.22401677 -0.1277214 0.011828874 0.0996894 0.034532655 0.14571689 0.23554619 -0.13622563 0.16641214 -0.19563374 -0.095226936 -0.09515136 0.05863869 0.16454875 -0.008029531 0.015775496 -0.07736756 0.104939476 -0.20376843 -0.21001731 -0.010583008 -0.06668381 -0.10376196 -0.12253977 0.21511154 -0.39594567 -0.22131489 0.11820501 0.23581997 0.20338668 -0.17745815 0.10861882 0.21031462 0.08896899 -0.27186778 0.025627684 0.117222294 -0.030497838 0.18519986 0.034479003 0.11999786 0.07560686 -0.2236796 -0.23696105 0.09092625 0.12522551 -0.0985076 -0.09712774 -0.078951165 -0.069683634 -0.16196798 0.09001525 0.24610107 0.12336234 0.13763328 0.102543704 -0.05986735 0.13566104 0.14926897 -0.05153898 0.059521344 -0.14448461 -0.038477905 -0.016036501 -0.060542334 0.018663855 0.0023610883 0.15463206 -0.061569754 0.13800472 -0.06671484 -0.015285512 0.059895277 -0.119030684 -0.14341153 0.113405585 0.093560494 0.04247861 0.10689257 0.024262147 -0.01719668 -0.10743709 0.0704768
E -0.14495267 -0.32405844 0.21103165 -0.05121798 -0.034021102 0.14641987 0.584103 0.18542628 -0.16175409 -0.25076813 0.17907384 0.19783191 -0.021567127 0.114662826 -0.24760032 -0.027959371 0.37899336 0.27704182 0.09148774 -0.2824986 0.10658484 -0.0929617 0.15661909 0.23723733 -0.13868321 0.28863946 -0.20753852 -0.26046923 0.16486067 0.13550037 0.34471068 0.25490773 -0.15296914 0.02615087 0.11744902 -0.21942045 -0.22161086 0.13577168 0.17019445 -0.29663688 0.15471487 0.39348167 -0.36451533 -0.29751223 0.119261764 0.30145508 0.07484913 -0.19869901 -0.020054998 0.3391595 0.0013166394 -0.29408377 -0.029079834 0.23684035 -0.055763558 0.40881702 0.054376468 0.08618795 0.21755539 -0.19780439 -0.27790388 -0.020851905 0.3598023 -0.18725063 -0.009936487 -0.34498617 -0.05550682 -0.41781214 0.1332495 0.3280656 0.05660081 0.21170184 0.11600607 -0.28983897 -0.06053834 0.36673605 -0.081878565 0.0946266 0.05736538 -0.007002684 -0.31854993 0.061613157 -0.27002814 -0.27236882 0.22519146 -0.21304594 0.20723924 -0.16301711 0.054665226 0.13369778 -0.23149398 -0.25373834 0.2366869 0.0077259648 0.12094035 0.17417693 0.108922645 -0.18748356 -0.1263919 0.12567553
f -0.17410901 -0.037625693 0.050788194 -0.1515906 -0.08482867 0.0132566 0.2468651 0.05452477 -0.03060691 -0.13206023 -0.024119178 -0.07747555 0.090760775 0.012493243 -0.11288787 -0.014929358 0.1300845 0.22051227 -0.21119572 -0.1303416 -0.0013417925 0.028260814 0.100856274 0.22412716 -0.10348103 0.09972459 -0.2892319 -0.19567324 -0.034314264 0.14820598 0.22367105 0.046982594 -0.09132415 -0.17627643 0.14350295 -0.21975201 -0.30018118 0.05851751 -0.06676859 -0.19665825 -0.044777766 0.254034 -0.4549102 -0.31959713 0.19880092 0.33173153 0.111482255 -0.1442815 0.026790084 0.22716664 0.10418428 -0.22246166 0.030690707 0.112266004 -0.05614887 0.26498875 -0.0325331 0.16217944 0.109469816 -0.24983574 -0.29096514 0.059346914 0.23510368 -0.124704845 -0.008254539 -0.089729965 0.0008576133 -0.13078924 -0.0067236624 0.24008138 0.13898923 0.035129342 0.076650836 -0.038901724 0.06209044 0.24251541 -0.09182652 0.13460732 0.020286009 -0.00085402594 -0.069870934 -0.075457454 -0.078282826 -0.011702841 0.24777581 -0.10319602 0.19412075 -0.082809664 -0.06535988 0.09411247 -0.28370628 -0.1081797 0.15491167 0.110561736 0.07856608 0.040943168 0.13760276 -0.14841378 -0.1785275 0.047086608
有向图 -0.07894287 -0.09193745 0.03387836 -0.005816 0.06965213 0.10142426 0.44152212 0.14718159 -0.068659246 -0.10515836 0.1623823 -0.06816831 0.07812258 0.09103245 0.02888176 -0.056787133 0.050541755 0.3109768 -0.01810547 0.015881792 0.07631852 -0.05805347 0.103097 0.18090887 -0.16429251 0.19857663 -0.19220567 -0.09647613 -0.051051233 0.0063364473 0.19848454 0.08362175 -0.07387027 -0.083805524 0.12059014 -0.1834007 -0.26024076 -0.0018233802 -0.096493475 -0.13898055 -0.13777795 0.30757362 -0.28762537 -0.26776692 0.06597163 0.19185558 0.24610265 -0.17723353 0.12328209 0.24210666 0.09000447 -0.3196986 0.07321837 0.14772794 -0.040830616 0.17605947 0.017791465 0.059351128 0.044427592 -0.19853805 -0.20289898 0.084523045 0.15928294 -0.13299687 -0.11371347 -0.08645302 -0.09038813 -0.21427324 0.13577938 0.22918996 0.1574473 0.2596906 0.103089705 -0.10788278 0.11449111 0.18101104 -0.053432286 0.06155476 -0.14094634 -0.076544724 -0.048191328 0.008609144 -0.050793555 -0.022195475 0.064131655 -0.08208938 0.15581465 -0.04485367 0.09147741 0.023563419 -0.14399655 -0.15435421 0.14717948 0.043770917 0.06489197 0.08161598 0.0010198131 0.015176807 -0.1728114 0.1304911
元 -0.11873004 -0.22336844 0.015301506 -0.108538896 -0.06774178 0.09456466 0.38575387 0.15960744 -0.05246594 -0.14118752 0.0898765 0.009753637 0.029468587 0.03921037 -0.09693122 -0.057656094 0.17039412 0.20065798 -0.12690552 -0.119421095 0.13256967 -0.012023282 0.1735725 0.24553849 -0.17712714 0.20861562 -0.21529423 -0.14453842 -0.021231383 0.08402487 0.22284172 0.02706385 -0.017030962 -0.03853368 0.105235696 -0.26990741 -0.21885104 0.055144217 0.070300244 -0.16144246 -0.06307347 0.25527626 -0.43693262 -0.19618164 0.13672471 0.2673529 0.12725078 -0.16684748 0.08300413 0.24470359 0.041414756 -0.26926312 -0.00058933545 0.11860189 -0.027424464 0.28217268 0.071558066 0.13253258 0.18889895 -0.23210302 -0.29575953 0.027670909 0.18453534 -0.12005036 -0.046349563 -0.15397196 -0.07742526 -0.21678314 0.04085457 0.31320667 0.075904444 0.114753045 0.11712973 -0.11429905 0.0334438 0.24300532 -0.06329175 0.078917734 -0.06195226 -0.032680165 -0.15107621 -0.0009256161 -0.014447037 -0.08852459 0.20262644 -0.14183901 0.12338289 -0.09865223 -0.08951382 0.09984734 -0.12828532 -0.14627548 0.119599305 0.090923615 0.045748062 0.18651558 0.027275966 -0.06610272 -0.09735539 0.036979336
状态 -0.093391664 0.021270916 -0.00726668 -0.081238896 -0.010468479 0.05429694 0.2958958 0.062571295 -0.030111918 -0.06787843 0.075725056 -0.15634407 0.09573214 0.05536785 0.020921899 0.016700562 0.010186242 0.26671124 -0.07839951 0.022578768 0.11293736 0.054928444 0.10364398 0.20032734 -0.10416258 0.17233989 -0.25323325 -0.094532415 -0.125761 0.09321063 0.22785315 0.037735496 0.007358346 -0.13898629 0.12484995 -0.17824052 -0.21283685 -0.005647299 -0.1359619 -0.07486993 -0.1273371 0.20377396 -0.33138406 -0.22414143 0.13214722 0.23214929 0.22316448 -0.17315933 0.092938095 0.1973987 0.11225917 -0.26460359 0.012419825 0.15987246 0.019522935 0.14495027 0.0009840364 0.11829333 0.04845712 -0.20334773 -0.2117619 0.100182354 0.17956892 -0.12063666 -0.07660532 -0.030743992 -0.020067625 -0.1332842 0.09912559 0.23382582 0.15662067 0.15541816 0.08729552 -0.056757126 0.13805933 0.10514311 -0.06882188 0.055884223 -0.11126043 -0.02414185 0.018099315 -0.029471256 0.013411436 0.055590514 0.14820631 -0.062339153 0.18538435 -0.042000774 0.068824045 0.03654503 -0.15008834 -0.12798297 0.12673435 0.110591866 0.03456771 0.07103013 0.054204233 -0.00927935 -0.15666755 0.076429546
5 -0.062231567 -0.08415176 -0.031489648 -0.06999169 0.0010649286 0.08132534 0.35153374 0.1143794 -0.030942183 -0.08029916 0.07881202 -0.10473197 0.08332235 0.080668174 0.012558852 -0.06260943 0.023950083 0.24564785 -0.081543066 0.025120279 0.12089161 0.033926222 0.11901916 0.21142124 -0.1315 0.19018158 -0.20792878 -0.06659989 -0.080186725 0.04993535 0.19068111 0.04576233 0.01266451 -0.06791164 0.11526799 -0.18746006 -0.20388515 0.010676501 -0.08306314 -0.10070158 -0.1259627 0.23828556 -0.364869 -0.19911124 0.10179221 0.18618391 0.19689542 -0.20911892 0.08640271 0.22546895 0.083834566 -0.25705716 0.012627496 0.17144169 -0.0040092077 0.20052183 0.050406296 0.1096751 0.043774575 -0.18960543 -0.2333968 0.07298741 0.13037828 -0.11108987 -0.10987989 -0.094053894 -0.08423114 -0.17362192 0.11059257 0.23960173 0.094827585 0.17151487 0.09468236 -0.099139735 0.14960657 0.13790265 -0.059697457 0.04550968 -0.14658798 -0.038603928 -0.013922567 -0.02347896 -0.0070680873 -0.01166456 0.14499235 -0.07454729 0.13939357 -0.08390319 0.030767296 0.014803934 -0.10064886 -0.1392773 0.11935537 0.05303069 0.035782557 0.118493825 0.006672953 -0.011652629 -0.10645794 0.036257777
出现 -0.1436944 -0.05158585 -0.17438196 -0.11599205 0.01667597 0.04960845 0.39102817 0.11297976 0.03749745 -0.037445653 0.13097934 -0.20682326 0.19118229 0.062278394 0.115459256 -0.08743958 -0.16413182 0.2680555 -0.1952423 0.14630918 0.07027704 0.058678664 0.18055409 0.23906672 -0.1785089 0.2389959 -0.25109968 0.019971339 -0.2301165 -0.007938944 0.1324881 -0.1209871 0.04605384 -0.17910638 0.118705764 -0.23591334 -0.30726045 -0.1006375 -0.18293835 0.04151127 -0.33074513 0.23452547 -0.41858262 -0.24640359 0.15988135 0.22985609 0.29292706 -0.14276154 0.17287123 0.16841125 0.10735775 -0.2998694 0.07542447 0.1394887 0.039408866 0.083606176 -0.029079037 0.11290065 0.03062991 -0.29250038 -0.1858796 0.1781097 0.119170114 -0.09978802 -0.076810986 -0.015125372 -0.10487731 -0.07029605 0.10240371 0.20708132 0.16475849 0.16816534 0.05574179 -0.027855782 0.20635329 0.06494793 -0.108110845 -0.0046520787 -0.21625054 -0.15285076 0.14756806 -0.08761312 0.13990948 0.102847725 0.11525705 -0.029204424 0.11404706 -0.026312342 -0.037988786 0.010190436 -0.09167966 -0.15018731 0.05479186 0.15641458 0.030700615 0.0836739 -0.013010959 0.0980297 -0.13558823 0.07175749
符号 -0.14623417 -0.060778715 -0.10316712 -0.10951579 -0.019614961 0.06987716 0.36927187 0.094327964 0.00080590125 -0.054640993 0.11571897 -0.16658975 0.14655174 0.056066096 0.056289658 -0.04396632 -0.054405082 0.26373747 -0.15460512 0.059244677 0.08749926 0.058361202 0.17661135 0.23340599 -0.17290698 0.22108348 -0.25585705 -0.045840133 -0.19552451 0.05330342 0.19333144 -0.06038002 0.018220412 -0.17730585 0.1283272 -0.23942551 -0.28678635 -0.056599382 -0.138375 -0.017594038 -0.23510073 0.23870489 -0.41872254 -0.24987209 0.15650274 0.2644195 0.24024293 -0.1456748 0.14199936 0.18003927 0.079008274 -0.2807588 0.028508732 0.15380791 0.047701158 0.126224 -0.014151081 0.114206105 0.070226066 -0.27186626 -0.23448655 0.1532277 0.16648106 -0.10841477 -0.04964802 -0.033810418 -0.06498041 -0.10231865 0.08415607 0.2496168 0.161015 0.15083952 0.084998995 -0.043409623 0.15633033 0.1281907 -0.11151694 0.040922247 -0.15071936 -0.11204399 0.07092147 -0.054537952 0.079672836 0.06332214 0.16062132 -0.05929658 0.15343484 -0.051717278 -0.00843104 0.054120712 -0.13760504 -0.15427668 0.081951044 0.15413584 0.04904694 0.09011025 0.04205624 0.05359347 -0.13649027 0.07417353
不同 -0.08224352 -0.0882049 -0.063943535 -0.10895277 0.023311999 0.0996444 0.37484685 0.12596694 -0.008674423 -0.08585892 0.087453164 -0.13132 0.10712365 0.07388449 0.031327695 -0.060945045 0.009612123 0.25987303 -0.12428404 0.024554327 0.09651499 0.0118169235 0.14565806 0.21889639 -0.17073792 0.21270286 -0.22849421 -0.05408175 -0.09032562 0.023571845 0.20431986 0.019358411 0.0075745787 -0.09914631 0.11452892 -0.20525539 -0.23434931 0.00381977 -0.103679895 -0.08715084 -0.17568131 0.2547096 -0.38840243 -0.21295337 0.12437837 0.21635246 0.22230572 -0.19768798 0.11076717 0.23630337 0.11889621 -0.28359765 0.050119273 0.16898149 -0.0049994197 0.2072576 0.02092147 0.1253491 0.070142835 -0.22704524 -0.2682663 0.08521526 0.14284979 -0.12640059 -0.1080317 -0.076191455 -0.10554601 -0.15206939 0.12135197 0.25786865 0.13702165 0.17064787 0.09890179 -0.078570865 0.14869909 0.1449615 -0.057865243 0.04331406 -0.18148427 -0.046927124 -0.007866631 -0.029043326 0.022594012 -0.0061030327 0.13419473 -0.08548299 0.14528209 -0.052890334 -0.005035091 0.02884719 -0.11148209 -0.17090812 0.112104945 0.070654996 0.026506947 0.14083628 0.00244904 -0.016713487 -0.11383936 0.05816193
通路 -0.07543598 -0.07602438 -0.00870609 -0.03324549 0.1121428 0.09485452 0.45182592 0.16872711 -0.047642194 -0.11313622 0.19363002 -0.13106701 0.08592551 0.03515225 0.08972217 -0.052717272 0.033624567 0.33616465 -0.054904133 0.07365982 0.108061 -0.100631185 0.08638797 0.1798475 -0.18169096 0.23557933 -0.22393098 -0.045725558 -0.098343655 -0.009370754 0.22005367 0.051418733 -0.059119493 -0.112843975 0.14572544 -0.17025751 -0.26562756 -0.01977736 -0.16393732 -0.08380551 -0.22485343 0.33510193 -0.33421472 -0.2658859 0.08736383 0.14264631 0.30802798 -0.18389033 0.16113713 0.2565959 0.13082151 -0.32010588 0.14190857 0.13091142 -0.052016016 0.15909569 0.0056841252 0.11421506 0.05705583 -0.24912116 -0.19818838 0.052365836 0.07632894 -0.13879155 -0.13619772 -0.018729554 -0.11589727 -0.14756735 0.11516434 0.24324015 0.18294476 0.28760397 0.09026523 -0.08356491 0.14982948 0.15293877 -0.0060571223 0.039736956 -0.17717776 -0.0964811 -0.012868614 0.04998176 0.04193324 0.016393652 0.039633136 -0.07519902 0.124846585 -0.03736646 0.073738135 0.016759515 -0.13596325 -0.13827889 0.1382347 0.027776873 0.02647635 0.11374774 -0.034790844 0.034623582 -0.21284442 0.10367233
式 -0.087848395 0.0089587 -0.024234798 -0.10135781 -0.010861643 0.06399061 0.29421604 0.061910175 -0.024816198 -0.075838394 0.08915183 -0.14133506 0.10637207 0.094397366 -0.06495955 0.0055550667 0.05615534 0.23269515 -0.095706865 -0.029675778 0.07811368 0.021166459 0.087407015 0.22376205 -0.06977962 0.18746977 -0.2661346 -0.11716678 -0.088713944 0.09482282 0.21852633 0.023090485 -0.0038993268 -0.13751689 0.1152624 -0.16926134 -0.25734437 0.0052315975 -0.109669454 -0.07386832 -0.11936981 0.21354704 -0.3692835 -0.2310882 0.17764157 0.24239358 0.18098785 -0.15454552 0.08459315 0.21755354 0.14156365 -0.25871843 0.009429951 0.18656678 0.017427584 0.19500305 -0.02718158 0.1496619 0.06527485 -0.2129027 -0.21730785 0.0757912 0.18327196 -0.095440276 -0.06352905 -0.027248362 -0.03201077 -0.13858724 0.07736777 0.21412991 0.13161287 0.14393336 0.03320841 -0.06994389 0.11962589 0.15417527 -0.059620984 0.06569734 -0.065076366 -0.0009697235 0.040554065 -0.048942044 -0.0030048692 0.034622155 0.1962225 -0.054743543 0.17090611 -0.036207322 0.037433106 0.031474944 -0.18492113 -0.10751472 0.1404162 0.07871351 0.0354453 0.05577289 0.065186545 -0.06174051 -0.16677648 0.05681211
分别 -0.09465983 -0.122508064 -0.009140924 -0.09416642 -0.022385154 0.098109804 0.3808803 0.1247677 -0.03629365 -0.116841756 0.10966675 -0.059693348 0.056425896 0.060980894 -0.042571742 -0.044544954 0.105827615 0.23219165 -0.09231931 -0.04881814 0.12442727 0.00032874176 0.13747543 0.2189095 -0.15871209 0.21580234 -0.23212743 -0.09108816 -0.051341098 0.065547295 0.22589144 0.0402076 -0.018273747 -0.070086524 0.11698072 -0.21030438 -0.21823625 0.029548535 -0.027498696 -0.11390016 -0.08773946 0.2640478 -0.39136776 -0.2028362 0.12846819 0.22019614 0.16630132 -0.17596392 0.079200596 0.23530506 0.08426952 -0.26028678 0.015111472 0.1637938 -0.010370852 0.2252711 0.030228233 0.108947545 0.1073627 -0.22324015 -0.25493217 0.059422996 0.16832218 -0.1043097 -0.056693472 -0.10370792 -0.08167217 -0.19364886 0.0842449 0.26667827 0.10475725 0.16441296 0.11028199 -0.1100823 0.09457614 0.18967317 -0.056592602 0.0697293 -0.094231695 -0.030409092 -0.080999725 0.00604683 -0.023006082 -0.051867317 0.17112671 -0.104309596 0.14883919 -0.08218402 -0.00682617 0.06731851 -0.13089825 -0.16278328 0.12647735 0.06743473 0.03779741 0.13629004 0.02826329 -0.03630745 -0.11814224 0.04729831
