899 300
$ -0.00017917322 0.087370865 0.17812514 0.013336583 0.16560024 -0.010238815 0.12677324 0.16522855 0.2357264 0.048039842 -0.085062936 -0.0874075 0.020575527 -0.1028218 -0.033308696 -0.014775448 -0.08418787 0.13315262 0.23859583 -0.029996505 0.17675664 0.1373524 0.056348797 -0.18128517 -0.16297807 0.06192875 -0.042976275 0.058633164 0.03247568 0.039030008 0.22203955 -0.12945217 -0.08431716 0.070605144 -0.09839369 0.046240196 0.041351087 -0.2681547 -0.23445302 -0.11522838 -0.016342562 -0.16907494 -0.059272017 0.04461427 -0.06739557 0.3112468 0.17005314 -0.005496004 0.14409795 0.015570764 0.024937727 0.1982512 -0.050872196 0.017668955 0.12294993 -0.28455 0.06973111 0.022448516 -0.04335862 0.010364454 -0.13157797 0.08205814 -0.15016177 -0.032874264 -0.05350532 -0.11112246 0.10739691 -0.007277831 -0.20100543 -0.15282224 -0.053625844 -0.03285983 -0.082110524 0.04679569 -0.024296138 0.042054877 -0.17150383 -0.14238116 -0.2154594 -0.01226904 0.17367837 -0.0041300245 0.09718648 -0.007274989 0.191098 0.30390775 -0.11492834 0.016937986 0.104671404 -0.06342533 -0.066731654 -0.1990406 -0.09458272 -0.075715825 0.16182531 -0.10261247 0.037575305 0.11107746 0.015007782 -0.11872906 0.030201988 -0.2599671 0.12685435 -0.051341698 0.012246932 0.018634573 0.010211501 -0.13150927 -0.07911972 -0.021884505 -0.18749928 -0.033971068 -0.06315575 0.077994734 0.17642145 0.25626746 0.06450822 0.05004648 0.21802637 -0.037355393 -0.035840113 0.0895107 -0.31798092 -0.052521553 -0.12840278 -0.05740895 -0.23236498 -0.097203396 -0.04773589 -0.09572939 -0.1287237 0.015520911 0.4005961 -0.21791677 -0.17245045 -0.0028431138 0.052700393 0.0048850775 0.04939698 0.24831125 -0.109918185 0.16184476 -0.14488928 0.009925716 -0.03213151 -0.11403241 0.19190788 0.1761118 -0.013767622 -0.107951425 -0.028139066 -0.058733817 -0.066797316 -0.22518183 -0.07341377 -0.008624617 -0.07192651 -0.2483702 -0.038093008 0.014290722 0.23455401 -0.021731038 -0.22223695 0.11821682 -0.106433295 0.084552296 0.052779518 0.05150229 0.26553836 0.07454742 0.007203292 -0.087016605 0.19273284 -0.21784024 0.14253618 -0.0835066 -0.20818458 0.027163925 -0.15761495 0.13887493 0.13340034 -0.09118495 0.0031857064 0.030655518 0.010070167 -0.020264797 -0.039044663 -0.02840739 0.01534672 0.07158275 -0.058239065 -0.06407607 -0.14799064 -0.10820526 -0.21313736 -0.037510246 0.17813127 0.16900799 -0.0031975182 0.067495935 -0.013510514 0.11116693 0.024775308 0.10822954 0.047149543 0.16688633 0.09907956 0.024841415 0.09146469 -0.124707565 -0.2435303 -0.14201364 0.07524998 -0.024964072 0.113873534 -0.29763013 0.025976868 0.16976851 0.11940103 -0.19673339 0.034532208 0.037819672 -0.01078414 -0.0057074013 0.08277599 0.011727021 0.17305428 0.2262945 0.19733827 0.0011686969 0.0591374 -0.032728482 -0.055608172 -0.066151865 0.07279029 0.14222163 -0.08070305 -0.024431238 0.023837192 0.02886696 0.120433845 0.057323918 -0.09560668 0.06424378 -0.22408041 -0.035816584 0.075706 -0.04001549 -0.11267929 -0.04907747 -0.013554887 -0.11126742 -0.179371 -0.044021353 -0.015018355 0.14376947 -0.11514654 -0.005363631 -0.033420466 -0.10488135 0.1066564 -0.04531602 0.13098152 0.09901542 -0.21830039 0.004130361 0.037389006 0.21555333 -0.33857754 -0.0608714 0.086545266 0.19746545 -0.05952078 0.14610745 -0.11430618 -0.09620351 0.14429396 0.11910938 0.13945605 0.17279859 -0.048943933 0.102749765 -0.018457899 0.08543596 -0.016600216 -0.29201236 -0.047590166 0.35029703 0.15152428 0.18567537 0.23995225 -0.2697228 0.35316375 -0.17270952 -0.26346043 -0.0050753886 -0.035512503 -0.11186278 -0.04318614 0.045047384
\ 0.037378304 -0.04511427 0.16291304 -0.017034706 0.1606961 0.1266045 0.13569622 -0.3482556 0.3292746 -0.12489767 -0.0720514 -0.047250096 0.110951185 -0.2261731 0.011553048 -0.4779641 0.010507552 0.050876413 -0.09281728 -0.30363357 0.03196336 0.30899757 0.15271363 -0.077653125 0.09563484 0.067627266 0.04156922 0.30933622 0.29361555 -0.1145763 0.07499268 0.031414855 -0.18111789 0.0022310168 -0.31183568 -0.08856082 0.0027976586 -0.25101727 -0.14678556 0.123677194 0.063756816 0.20112774 -0.2665353 0.29788774 -0.18305832 0.3912146 0.18807022 -0.23190612 0.09479001 -0.12754267 -0.05572474 0.039806455 -0.29926643 -0.17731884 0.2345002 -0.04641585 0.06394853 -0.047722314 0.21470995 -0.33561212 0.14425065 0.05762327 -0.18974964 -0.010384986 0.08436865 -0.07155609 0.06940843 0.09412784 -0.12882756 -0.081293225 -0.15780751 0.07321994 0.18445103 0.12051836 -0.08366637 -0.19571145 -0.07815881 0.29997465 0.1984733 -0.05836517 0.15750086 0.01572709 -0.06381818 -0.03368146 0.09568948 -0.21015574 -0.10094734 -0.1097614 0.045089368 0.08748706 -0.0751282 -0.19543798 -0.06897949 -0.20232081 0.03356793 -0.0778361 0.07909693 0.095582314 0.1508129 0.06305337 0.17557526 -0.19996701 0.25659996 -0.4593926 -0.0559653 -0.34356463 -0.17949934 -0.08775915 -0.2121535 0.1903619 0.0048853047 0.047652833 0.035044912 0.20931116 0.35968173 -0.028904364 -0.07708339 -0.097320706 0.31914297 0.044074304 -0.1496214 -0.037093114 -0.0052377298 0.035096984 -0.10863223 -0.035268534 -0.23207138 -0.12260115 -0.0046989634 -0.28561217 -0.102523446 -0.10140329 0.48214954 0.13043891 0.050979853 0.15069069 -0.008024637 -0.02041749 -0.0504307 -0.013915341 -0.47063565 0.032957055 0.14533105 -0.2280664 -0.11627992 0.15372668 0.11797787 0.04706469 -0.22675696 -0.14653084 0.23760034 -0.2505582 0.055602394 -0.069103085 0.22027689 -0.24322395 -0.10633796 -0.018775111 0.037188042 -0.08274103 0.109759904 0.23819588 -0.37841043 0.021273127 -0.11706895 -0.02802189 0.074321836 -0.085598566 0.2752228 -0.13406716 -0.114848025 -0.06282884 -0.056369204 -0.09018289 0.036679633 0.11894814 0.024162639 -0.18851684 -0.15964863 0.20352522 -0.094935 0.15994377 0.16723336 -0.118531264 0.11625944 0.05550357 -0.12197191 -0.02521203 -0.08977762 0.26861992 0.007813457 0.20670252 0.100284256 -0.19745593 -0.019035289 0.06701948 0.4087675 -0.108458914 0.02228023 -0.16465554 0.119056895 0.21283843 0.09512237 0.29790148 -0.009390282 0.09734025 -0.11603287 -0.0006845615 0.08329772 0.12478525 -0.0033018682 -0.24317428 0.19042782 -0.016497023 0.16517283 -0.33983517 0.14613171 0.096749045 -0.1467355 -0.14319849 -0.018908277 -0.11758356 -0.063412845 0.13327119 0.38436902 0.12433618 0.019243723 0.19070062 -0.07695502 0.0012406509 0.08934627 0.027047746 0.06988797 -0.022771182 0.18743204 0.108811796 -0.020192696 -0.33754358 0.09746733 0.27965793 0.30977097 -0.033804975 -0.16804539 0.03910675 0.025992068 -0.007697699 0.2124249 0.078588285 0.09845659 0.14878353 -0.07163587 0.021108054 -0.02127864 -0.13973989 -0.0811967 -0.1656602 -0.050579447 -0.0244065 -0.17183435 0.05232652 0.2993708 -0.0885047 -0.17831352 0.07953888 -0.36893943 -0.0847482 -0.080130465 -0.02618855 0.05350863 -0.30761448 0.12007039 0.37196872 0.077515386 -0.009034807 -0.06429449 -0.019255307 -0.1194537 0.290398 0.42613277 0.54449356 -0.1375286 -0.15184906 -0.10066629 0.1498554 0.16465223 -0.2698408 -0.0018190088 0.42590925 0.21746176 0.011548665 -0.052591465 0.1610996 0.3460844 -0.23405387 -0.25434837 0.0619922 0.060520448 -0.19851226 0.21927775 0.06504287
{ 0.03692827 0.41411576 -0.12237524 0.075224616 -0.09520859 0.07049122 0.04415742 0.11646491 0.0036810997 0.0638662 -0.13603824 -0.057503927 0.46095663 -0.03588455 0.037298974 -0.14419374 -0.049597256 0.10711516 0.16228043 0.073747404 0.35089776 0.06498086 0.14711937 0.027188206 0.326034 0.07779964 -0.113538735 -0.07119857 0.11152243 -0.08838584 0.2209866 -0.36283216 0.035860844 -0.18899135 -0.27564755 0.0014827065 -0.06257569 -0.04075327 0.089757115 -0.08851094 -0.062781 0.26034206 0.03217597 -0.14768955 0.00984416 0.15464905 -0.11558382 0.14862402 0.20420237 -0.118693724 -0.12931351 0.03939028 -0.32427722 0.07673797 -0.36214772 -0.22562382 -0.049394436 0.1849579 0.07240208 0.057456937 0.043018118 0.0058412733 -0.16529782 0.082287066 -0.0597589 -0.07382408 0.102208085 0.0035245784 0.09404987 0.03395373 -0.20639643 -0.08179293 -0.011845068 0.15387483 -0.13181208 -0.14688325 0.07566448 0.078626834 0.009123992 0.2713914 0.10344664 0.2016212 -0.11441502 -0.11274966 0.20140767 -0.13104585 0.08881579 0.07359959 0.020810023 -0.08530088 -0.30223358 -0.031169748 -0.04753935 0.15003936 -0.011119506 -0.24536002 0.18911706 -0.04028758 -0.20012563 0.28611538 0.1926064 -0.26142284 0.3772346 0.04437035 -0.15589336 -0.09326653 0.1882596 0.056742247 0.29908922 0.22199996 -0.063619636 -0.29956844 -0.067873865 -0.092808366 0.004406237 -0.22247104 -0.11163726 0.11628114 0.198765 -0.20180021 0.3035884 0.15686738 0.032770026 0.16768117 0.15842137 0.0017778178 -0.2746158 -0.14115311 -0.19598958 -0.25556034 -0.2964859 -0.0024550578 0.42873588 0.004983349 -0.02972781 0.41690317 0.016849611 0.27119783 0.11801166 0.04967663 -0.33622035 -0.04481019 -0.04121782 0.11336775 0.00767781 0.1941504 0.07849729 -0.1396732 -0.13201928 -0.6023306 0.10224023 0.075085826 -0.071347326 -0.12366551 -0.40475926 0.08345182 -0.3331246 -0.011789438 -0.22313508 -0.12311436 -0.12702556 -0.103458464 -0.32639042 -0.0951378 -0.12165684 0.14803803 -0.12816288 0.17332214 0.26182854 -0.22341573 -0.0064656464 -0.09419113 0.060426794 -0.14368851 -0.10214814 -0.0026921367 0.10212388 -0.030745752 0.35097504 0.12460089 0.17448018 0.27604914 -0.16609979 0.285796 -0.25910097 0.2026029 0.040696416 0.3843044 0.305885 -0.10765637 0.055421047 -0.09093729 0.16091685 0.33752763 0.01682672 -0.35640076 -0.029172532 0.035288047 0.08334526 -0.2370775 -0.06783629 0.17181562 0.38843483 -0.015159367 -0.17503645 -0.0074630524 -0.076951064 -0.039505433 0.046579424 -0.059508227 -0.08974405 -0.014408279 0.01947221 -0.23418273 0.0066152434 -0.42703354 0.2263246 -0.19138937 0.09979748 -0.18232797 -0.04643357 -0.16923442 -0.3006352 -0.07640918 0.06543324 0.18609388 0.09209649 -0.020973243 -0.19706191 -0.07441887 0.14719434 -0.14655548 0.13493632 0.033771962 0.23736583 0.07010215 -0.28937685 -0.11578666 -0.034693107 0.28068358 0.38220853 0.24738307 -0.65186596 -0.2871373 0.23675534 -0.13446885 -0.26745737 0.2245342 -0.10267036 -0.14006628 -0.1195781 0.008787208 0.3112077 -0.10403732 0.19680502 -0.1462279 -0.008832184 0.0056737997 0.0017991433 -0.019808695 -0.009962555 0.057707075 -0.122182705 -0.030687166 -0.46859825 -0.03868059 0.08155334 0.28141195 -0.14676502 -0.101704665 0.3174144 0.15815865 0.3516785 0.40729138 0.022546245 0.12207062 0.21107543 -0.41309667 0.16568798 0.17326996 -0.012600924 0.179789 -0.12720576 0.11678487 -0.030770024 -0.33702704 0.17899925 0.26157334 0.07193074 -0.13921273 -0.12616737 -0.051674884 0.08292886 -0.30959883 -0.009016683 0.012039497 -0.23554616 -0.052153084 0.017540222 0.2333516
G -0.061949477 -0.07903402 0.31576267 0.07963255 0.2883969 0.02519886 0.21876125 0.07215637 -0.041569848 0.097889006 -0.16062276 -0.36839667 -0.10448102 0.33036017 -0.2903857 -0.116704874 -0.023011874 0.12166485 -0.07185321 0.03923314 0.13989638 -0.21418013 0.2993633 0.33536097 -0.115120925 -0.19524431 0.041192565 -0.06940835 -0.26167136 0.4926992 0.1771463 -0.37286937 0.008706624 0.27590176 -0.10316238 0.15329823 -0.0606493 -0.47097126 -0.3376858 0.08483065 0.18831322 0.13011007 -0.028070802 0.0757183 -0.06847856 -0.4723032 0.17936279 -0.041834958 -0.2790449 0.111581825 0.1963275 -0.024082128 -0.38199 0.0077662077 -0.20269015 -0.17707701 0.49111307 -0.12934794 -0.10272476 0.26444954 -0.4475602 -0.019286644 -0.23200846 0.13691226 0.35427377 0.1127234 -0.07125353 -0.18176039 0.11006255 0.29860702 0.13089702 -0.12115101 -0.15346341 0.008770205 -0.16972731 0.19144851 0.053461794 -0.22447072 0.028133934 0.057256464 0.37783337 0.45875782 0.15829672 -0.20456696 0.10695124 0.49658942 -0.05182638 0.2619832 -0.020743629 -0.35943872 0.04669561 0.06507851 0.21693502 -0.14894646 0.084677674 -0.011948539 0.075420074 0.1385894 -0.32971674 -0.016685866 0.08246403 -0.21427141 0.12593167 0.04442854 0.070748776 0.28951046 0.1397133 0.109972455 -0.03133792 0.3804712 -0.29967472 -0.039367273 -0.028721664 0.49157226 -0.39723626 0.011323395 0.008565617 0.34477475 0.22787195 0.18648642 0.36604246 0.15246251 -0.05129984 -0.3485361 -0.16510472 -0.0894632 -0.029967967 -0.2959103 -0.2642072 -0.25745615 -0.02657732 -0.0046706796 0.3838258 -0.17448187 -0.004146549 0.3561883 0.20393576 0.22198749 -0.094666936 0.0486811 0.19310416 0.15613239 0.24557444 -0.013805848 0.03131016 0.048325967 -0.32857263 0.024852272 -0.1670228 -0.4096372 -0.032571234 -0.28561237 -0.011481828 -0.33882454 0.0062478795 0.15293708 0.20710886 -0.3973776 -0.18307513 -0.29325175 0.093979284 -0.43756115 0.4144542 -0.18829742 -0.045845408 0.15349366 0.010805181 0.2379252 0.24974024 -0.12400233 0.102181 -0.24476843 0.049951803 -0.18269387 0.41497377 -0.7286521 -0.4377314 0.019445185 -0.08746245 0.6199393 0.32916686 0.23065546 -0.098074704 0.23229292 0.23629737 -0.2444854 -0.054306887 -0.1430211 -0.40616417 -0.15477583 -0.28507188 0.18170917 0.547864 0.14210321 -0.15283595 -0.025804924 -0.17785819 -0.044493962 0.36554208 -0.15063886 -0.056563493 -0.17825374 0.058551036 -0.12976287 0.39265138 0.28108853 0.12223782 -0.08822805 -0.37545612 0.084714375 -0.5741423 0.2208927 0.31146565 0.2321477 -0.11417823 0.027490947 -0.04760638 -0.17733762 0.007839422 0.28484854 -0.1331186 -0.057628028 -0.016399473 -0.17603494 -0.20243302 -0.31886804 -0.13090287 0.10524752 0.33118632 -0.102121614 -0.4340988 0.042184576 0.07206751 -0.34124964 0.29753962 -0.1329881 0.037227873 0.18313047 -0.2434429 -0.065443896 0.48394236 -0.11036785 -0.50089765 0.034945875 -0.12540321 0.027058782 -0.21017523 -0.41305137 0.16365084 0.14279196 0.004611397 0.20564015 -0.1477742 0.29451072 0.3117589 0.4903982 0.2004702 -0.024926707 0.3995505 -0.38341868 0.5480322 0.12830077 -0.30816627 -0.13507457 -0.23727393 -0.3267015 -0.25331587 -0.1572125 -0.29192618 -0.25447088 0.10443496 0.051973313 -0.0006576454 0.16446006 -0.056725755 -0.35139844 0.28709275 0.018610308 0.30110756 0.57310784 -0.10058839 0.12080997 0.603092 0.1954368 -0.3614964 -0.14255902 0.13440415 0.44432795 0.0830568 0.13256869 0.037496384 0.07553678 -0.0015458243 -0.43202293 -0.3008061 -0.18129936 -0.34169927 -0.5716958 -0.03362616 -0.113329686
称为 -0.18621998 -0.10663106 0.032409992 -0.25736827 0.51052207 0.06561563 0.24964173 0.14866959 0.019492175 0.046313398 0.024659991 0.34525555 -0.13961953 -0.102674164 -0.1218427 -0.38409644 -0.1856084 0.32176346 0.114306584 0.18259673 0.22120576 0.06728278 0.11613262 0.039955862 -0.12293947 -0.06659355 -0.0031115848 0.2207106 0.30211157 0.0037713684 0.26587543 0.0055779675 0.32181492 0.1824877 0.058549263 0.09168664 -0.2054646 -0.027018204 -0.08226216 0.09359823 0.5769107 -0.2105957 -0.251078 0.22583936 -0.22328486 0.49334678 -0.12944771 -0.013670546 -0.07489573 -0.24250734 -0.12632251 0.06597019 -0.16280952 0.037660457 0.13882633 -0.64329815 0.2806522 0.13166685 -0.009345647 -0.18934304 -0.29114583 -0.02675332 0.15104097 0.059483312 0.12616147 0.27973595 0.095886536 0.1773551 -0.22487238 0.054908667 0.1343652 -0.13098876 -0.37104958 -0.06257446 -0.0368041 0.029261284 -0.2646081 0.16993308 0.0085712345 -0.015235554 0.103968516 -0.07187269 0.029115325 -0.46504962 -0.14533833 -0.09321807 -0.11877487 -0.05204058 0.18076086 0.107641235 -0.20484015 -0.17275202 0.20699817 -0.035916466 -0.23691042 -0.29858407 -0.02320087 0.06804221 0.23835385 0.08536949 0.03787916 -0.13326305 -0.030245354 -0.18763521 -0.3061282 0.21917519 0.07360382 0.18374106 -0.1525634 0.008244115 0.028930908 -0.03679915 0.42020413 0.054751027 0.2938221 0.1435577 0.06607571 -0.02645372 0.2867983 0.3663644 -0.23418558 0.3334102 -0.29888088 -0.057063606 -0.10505321 0.21016349 -0.36640355 -0.21672927 -0.1070836 0.09342228 0.35261646 -0.28030956 0.22989255 0.042338617 -0.25267476 0.084171236 0.14782108 0.24785334 -0.16999379 -0.016406413 0.33551675 0.2050528 -0.38776043 0.11845848 0.13348056 -0.25653931 -0.2540933 0.06015771 -0.2949609 -0.0761816 0.11155028 -0.26344746 0.14569353 -0.29534543 0.049395233 0.17010233 -0.012727955 0.22476688 0.014719066 -0.2980278 -0.34744424 0.21727195 -0.29432693 -0.015169161 -0.14980334 -0.15757135 -0.019399386 0.09185238 -0.03867079 -0.062454887 -0.34637564 -0.13592595 0.083426945 0.38983372 -0.36000645 0.14048155 0.044513956 0.3538112 0.19045328 -0.07795655 -0.17601682 0.096984856 0.18165705 0.35268342 -0.11441808 0.30086166 0.23617278 0.26332593 -0.19243732 -0.16746268 0.07064018 0.004647511 -0.17696375 -0.43142864 -0.38553447 0.18622346 0.14516833 -0.1272495 -0.22515778 0.37054777 -0.13673215 0.1515365 0.19261529 0.09698247 -0.055066332 0.3399337 -0.105448216 -0.28904697 -0.00029585525 0.040584765 0.18449754 -0.3246146 -0.059007395 -0.090651326 0.023104627 -0.4170593 -0.47930512 -0.14536591 0.40766734 -0.016854012 -0.11904683 0.1720393 0.15081511 0.13886082 0.037681814 -0.55511403 -0.5755315 -0.410033 0.053106405 -0.122704394 -0.34109905 -0.15179133 0.26749337 -0.14841932 0.36067456 0.11661709 -0.1884761 0.14493053 -0.31606743 -0.061449945 0.14819585 -0.39905766 0.3638695 0.17527372 -0.2271969 -0.14503108 0.3838547 -0.23977642 -0.02891281 0.13990162 0.13354856 -0.32318163 0.21433672 0.020851508 -0.09894367 0.09895891 0.3291831 0.010249341 0.1254261 -0.20973729 -0.14293565 0.12600279 -0.42179263 -0.25320035 -0.14039001 -0.011445237 0.06756278 -0.0882464 -0.16436926 0.020832738 -0.2503257 0.21435449 0.14186436 0.21069074 -0.027883248 -0.09847523 -0.025860481 -0.32770625 -0.33694845 0.16092972 0.04106547 0.18625666 -0.29006293 -0.04070082 0.0035125564 -0.20082372 0.34239602 0.18965322 0.17397551 0.32335678 0.31939533 -0.2696662 -0.03930062 -0.2558834 -0.62703395 0.009674445 -0.10870829 0.13731481 -0.01178919 0.23769294
中 0.27230662 -0.07901041 0.11291837 0.09107898 -0.027838033 0.19720855 0.16493523 0.14908345 0.16241528 0.08305603 0.09581153 0.025314206 -0.41622022 -0.16804384 0.057479024 -0.11940995 0.09690678 -0.29163003 -0.026931025 0.018833926 -0.028403264 0.10343407 0.06513943 0.24209589 0.13089071 0.09534079 -0.010340953 0.37899023 -0.110584736 -0.13380113 -0.31217787 -0.22024736 -0.1748079 0.036218885 0.05566686 -0.020164588 0.21735312 -0.39807743 -0.088196985 -0.072933644 0.055474192 -0.22204565 0.18069732 0.11855013 0.30191842 0.1258931 0.29751155 0.084760636 0.5834105 0.06818095 0.120783366 0.015594425 0.06756852 0.07330828 -0.049652055 -0.1801741 0.12450902 0.27990708 0.03242549 -0.14287002 0.07175817 -0.079563186 -0.033959344 0.21522635 -0.31002495 0.30318174 0.23319297 -0.064815305 -0.15299341 0.28570116 0.18519174 0.0052508875 0.254205 -0.13868819 -0.13954373 0.6332696 0.4444356 0.07450512 -0.7310311 -0.3231892 0.09546795 0.049554825 0.06636594 -0.467639 -0.045640547 -0.08956396 0.32372183 0.28784955 -0.036483135 0.1769951 0.047058575 0.0047715935 0.02858054 -0.26158848 -0.34697112 -0.25458288 0.3280871 0.0705764 -0.03348091 0.20270103 0.15178876 0.27547607 -0.04386438 0.14859353 0.38623455 0.49501124 -0.18024227 0.20160878 -0.12058925 0.0024198708 -0.32304725 -0.2292065 0.1112145 0.1845456 0.08133481 -0.022161467 -0.06132385 -0.077814974 0.31745094 0.2860032 0.09604379 0.06339511 -0.0066554523 0.083044484 -0.04729318 -0.3292682 -0.11010237 -0.21474545 -0.18279025 -0.055712916 -0.3670909 0.095156394 0.3866303 0.09596978 -0.33668286 0.24799165 0.14598465 0.31356257 0.20282902 0.49253625 -0.3264345 -0.20300299 -0.07783676 0.20344836 0.057354193 0.15541504 0.17279752 -0.30620176 -0.43925902 -0.30489534 0.2280106 -0.013093263 0.08451851 -0.25951526 -0.21218826 0.14244427 -0.3361208 0.047578517 0.057233356 0.17587443 0.27597225 -0.12342653 -0.06864847 0.03976602 0.31079593 0.5656469 0.15333001 0.1619945 0.3253263 0.019394716 0.22833571 -0.19976978 0.03306072 0.0011436045 0.08141936 0.23330738 0.08315888 -0.18856163 0.20832455 -0.11641056 -0.007917722 -0.3870807 0.4960854 0.061836477 -0.10203578 -0.17250417 -0.09224343 0.41339523 -0.16390087 -0.18774484 0.106899716 -0.2775192 0.14532147 -0.0910051 0.36461106 0.19058353 -0.13415511 -0.008247589 -0.32683593 0.2767854 0.12995157 0.19402573 0.09751697 0.1769435 0.51024103 0.5816107 -0.17442283 0.030712403 -0.24478462 0.023498371 -0.10658327 -0.0051167062 -0.09271828 -0.044026617 0.19493768 0.45943445 -0.15945387 -0.11353561 0.26535457 -0.12689994 0.0033569895 -0.30469576 -0.12660146 0.05712393 -0.2812097 -0.21048795 -0.49218017 -0.07974354 0.028922258 -0.17038687 -0.4491804 0.032905858 -0.08912343 -0.12233627 0.19052693 0.10662249 0.035627384 0.062433757 -0.12651989 -0.08238729 0.056720972 0.13565485 -0.013740172 0.18099555 -0.2614418 -0.18632904 0.044413704 0.26311734 -0.15415618 -0.037731834 0.2417731 -0.06321045 0.015024565 0.283155 0.018705312 0.38652858 0.28263882 -0.028948173 -0.1539008 -0.022040272 -0.0348636 0.017559493 0.18721284 -0.034953613 -0.15732267 -0.32122627 -0.17701283 0.07769944 0.2818226 -0.13887052 -0.09388736 0.1373022 -0.019519674 0.18272853 0.23685001 -0.20391564 0.072410904 0.18857482 0.1767299 0.30894792 0.06743242 -0.12750784 0.022104757 0.21486616 -0.082406044 -0.2444672 -0.39300373 0.22859189 0.038869422 -0.05823646 0.20125282 0.00015639196 0.23613632 -0.16952755 -0.110676095 0.016802398 -0.17967215 -0.14839812 0.02928762 -0.22543342
1 0.13401367 0.18616223 -0.08633133 0.10047911 -0.52628314 -0.1747448 -0.07614337 -0.097453706 0.19193904 -0.11491778 0.1415072 0.2009886 0.44071743 -0.1904411 -0.11641673 0.12710214 -0.17821042 -0.004806418 0.20026253 -0.28993934 0.5014763 -0.1365953 -0.0055411737 0.13303664 0.114730544 0.09604894 -0.014669433 0.07152263 -0.31367078 0.015808152 0.08135719 -0.43384236 -0.21329646 0.04668346 0.022150064 0.017213354 0.19119456 0.13016486 0.049369447 0.1699953 0.3502317 0.32372564 -0.035402574 -0.047808502 -0.13889213 -0.33800814 -0.18959397 -0.19523822 -0.23233826 0.11415045 0.42313713 0.2087037 -0.16060115 0.20858261 -0.42880684 -0.5061637 0.009771442 0.23409839 0.07307695 0.28276396 0.40313852 -0.10725003 -0.3521049 0.28108823 0.03429547 0.28786972 -0.19471104 0.45831475 -0.08867519 -0.1369636 0.34982938 0.012279949 0.24218075 0.13559443 0.0039746915 0.05421809 0.22880019 -0.21286108 -0.13347022 -0.24826652 -0.010668251 -0.07641188 0.11728081 -0.15693046 -0.256229 0.00041234732 0.346694 -0.32351887 0.14526191 0.3688266 -0.14305946 0.124308586 0.42764944 0.08846206 0.40608922 0.14889988 0.101614274 0.060089335 0.23508914 -0.04145569 0.39393982 -0.37206906 0.106977165 0.12615912 -0.2605127 0.47042263 0.12953609 -0.08564209 -0.34700003 -0.34540913 -0.2899615 -0.17213547 0.20837922 0.14422436 0.25603265 0.47450843 0.050613936 0.08676275 -0.12116389 -0.23998079 0.40368158 -0.01997144 -0.048714716 0.024642054 0.033354286 0.13023403 0.07935289 -0.22277439 0.0059465687 -0.24393757 -0.03738374 0.06837008 0.4011729 0.075585224 0.33237544 0.19879073 0.2563267 0.14435731 0.033367645 0.3083798 0.21606357 -0.15101057 0.010654485 0.02227243 0.017658198 -0.29357356 -0.27912134 0.09294808 -0.17667022 -0.0063688178 0.29780224 -0.028838601 -0.19475552 -0.011409617 -0.22657791 0.26620737 -0.45119044 0.1113147 -0.35086915 -0.017997514 -0.1952062 -0.10321338 -0.20688167 0.42564127 0.3760717 -0.43363085 0.14442183 0.015000215 -0.04011005 -0.26129404 -0.07557471 -0.40583146 0.23884769 0.2455057 -0.024041964 0.16185667 -0.2747205 0.33743948 -0.18616386 -0.15313642 0.10171524 0.4521981 0.19725102 0.11426581 0.19726618 0.2813017 0.063892245 0.19318639 0.11618142 0.12473355 0.11524083 -0.0069624595 0.07336078 -0.01635159 -0.12963837 -0.31273362 0.23217286 0.091243386 0.32915977 -0.13908038 0.014863806 0.15571055 0.19085999 0.36128965 0.1217797 0.14924571 -0.1194358 0.056904905 0.18853822 0.10748201 -0.20225692 -0.24859056 0.1324243 -0.51981133 -0.14378847 -0.35829395 -0.17984897 0.07271515 0.050086424 -0.25452268 0.6038317 -0.1901441 0.0142494105 0.05517237 -0.044879667 -0.049786277 0.04605331 0.15618588 0.19635741 -0.058566533 -0.12208135 -0.13283494 0.0011582839 0.3036815 -0.19493152 -0.16692135 0.035839044 -0.2896443 0.09324487 0.12831703 0.5766244 -0.2403639 0.017002488 0.13076034 0.2254391 0.023055617 -0.15509346 0.015386674 -0.24433295 0.052424934 -0.14965858 -0.0251522 0.1503768 -0.07816084 -0.13311775 -0.08246038 -0.0028625585 0.11101445 -0.12240339 0.13486461 0.22458862 0.13638517 -0.120879956 -0.20307396 -0.81813985 -0.14754699 -0.2510614 0.014241542 -0.26977614 -0.47279832 -0.051881235 -0.14495555 0.2570739 0.12704901 -0.43009377 0.17615105 -0.36787793 -0.34161547 0.27544707 0.21653841 -0.0073037813 -0.04614724 0.3189207 0.08018471 -0.2686115 -0.20853502 -0.016685499 -0.062873125 -0.4121368 0.020856546 0.17663778 -0.07753256 -0.096705034 -0.3873507 0.056982413 0.16209109 0.26327717 -0.25504372 -0.17030907 0.4911889
A 0.51521015 0.03796338 -0.23757221 0.33815426 -0.10531083 -0.16721587 0.2032318 0.10955627 -0.031290255 0.14380673 -0.12200579 -0.33909827 0.26082158 -0.03704605 0.25107652 -0.49790642 0.27606577 0.23844753 0.16714527 -0.38071573 -0.10590104 0.013314463 -0.14214209 -0.26718003 0.0384101 -0.31811753 -0.12036163 -0.018463945 0.28151447 -0.38228795 -0.0063250465 0.039954316 -0.40473616 -0.24615468 0.027103297 -0.043298032 -0.23611672 -0.05327233 -0.25850603 -0.10877638 0.17074269 -0.0055647003 -0.25159732 0.08040242 -0.10571938 -0.043171976 0.17992164 -0.25354993 -0.1098851 -0.3794935 -0.45517632 0.1572108 -0.28359208 -0.21234997 -0.29493457 0.22189206 0.32688233 0.17943151 -0.1509596 -0.038545422 0.102772765 -0.043153908 -0.08269429 -0.059450958 -0.049709283 0.2775808 0.25761813 0.06942635 0.30504155 0.5740849 -0.082097284 -0.13350308 -0.32988155 -0.0393086 -0.0108817285 0.27668235 -0.34547293 0.024859363 -0.01010665 -0.2551547 -0.07619797 -0.17096774 0.18977657 -0.11584757 -0.01567797 0.26934737 0.1744939 -0.2049205 -0.3294612 -0.14880677 -0.026178943 -0.2511376 -0.33402452 -0.2214007 -0.060587086 -0.029481007 0.09491366 -0.16089198 -0.018740667 -0.010015984 -0.63651216 0.35626152 0.019374296 0.14861125 -0.5005596 -0.5080136 -0.6172837 -0.46846744 -0.12310117 -0.1473506 -0.50655204 -0.17331548 -0.5116029 0.45734197 0.6665563 0.6595511 0.09532634 0.4055366 0.2638838 -0.09297479 0.22118843 -0.06214392 -0.56281 0.20522827 -0.39790136 0.04423155 -0.039896235 0.1445769 0.2519907 -0.05789331 -0.18339518 0.13259311 0.5568088 -0.41393936 0.345689 0.39354163 -0.068528906 0.14087704 0.024418034 0.38066384 -0.18571971 -0.12283179 0.19516623 0.11353662 0.07346619 0.114548385 0.13508879 -0.06604645 0.07152088 0.15833345 0.5630414 -0.33949912 -0.25216722 -0.117236 0.25175813 0.098989904 -0.059823357 0.54452336 -0.2503553 -0.41381094 0.04228043 -0.044870283 0.2597682 0.048239216 -0.030731056 -0.067762144 -0.05086914 -0.045807537 0.050446555 0.09592459 -0.08416776 0.3339984 -0.040671628 0.06543149 0.13494396 0.026894253 0.015083962 -0.32953689 0.11241712 0.27560043 -0.36492863 -0.06747827 0.049413007 -0.06891595 -0.034820873 -0.052903578 0.12997632 -0.05247615 -0.09494861 0.00033519676 0.13456976 -0.13166861 -0.24145916 0.3860332 -0.20630062 0.22635064 -0.31108126 0.033073984 0.36529168 0.2602905 0.06963521 0.14012359 0.22856571 0.21336544 0.2172196 0.20797873 0.55689865 -0.28808418 0.5033175 0.06713874 -0.17928244 -0.3313378 -0.4922386 -0.22624476 0.2881245 0.45261985 -0.42559123 -0.36846527 -0.03251911 -0.052344102 0.19848666 0.06646957 0.54237217 0.012867196 0.3775233 -0.15887222 -0.15956695 0.37719932 -0.23759396 -0.08152417 0.05915074 -0.020194657 0.10510565 -0.08810715 0.18934266 -0.34772646 -0.30605114 -0.2195091 0.245175 0.010721796 0.3583742 -0.5702857 -0.15582976 -0.28169647 0.028763762 -0.112754375 0.08474195 -0.3356061 2.873064e-05 -0.01014807 -0.024868848 -0.28117004 0.025366409 0.12678622 -0.058339737 -0.0827424 -0.06444095 0.19799663 -0.24848625 -0.3062153 0.24846238 -0.07533182 0.47217843 -0.10852709 -0.46070096 -0.10317028 0.007385837 0.3688628 -0.07409966 -0.078009225 0.10578274 0.21872184 0.22909516 0.33161384 -0.044224776 0.20718285 -0.3252934 0.088925816 0.020159544 -0.2503699 -0.05483426 -0.120962515 -0.04668286 0.06706559 -0.13329996 0.3319319 -0.06347912 0.40100697 0.23146622 0.097550385 0.0068568476 -0.1937184 0.5792501 -0.2657019 -0.17022999 0.028650014 0.3541065 -0.409242 0.3462715 0.0664811
_ -0.18440005 0.52363414 -0.15853217 0.019296959 0.09573087 0.12768872 0.08484507 0.021278892 0.05995033 0.007726919 -0.18877856 0.17170641 0.3661411 -0.07595678 0.34288013 -0.2420846 -0.000120680466 0.036656737 0.19377169 0.12961915 0.21509892 0.076630406 0.370081 0.1836779 -0.11379313 0.14748338 -0.017373681 0.058511037 -0.02671014 0.14373559 0.3027973 -0.4090221 -0.101424865 0.19411002 -0.00897597 0.27005097 0.28363308 0.074901864 0.31965485 0.20542102 -0.2972539 0.38071647 0.3017321 -0.04775668 -0.044067442 0.14033704 -0.060628705 0.24079724 0.19365944 -0.17198317 0.17546995 0.3651223 -0.29907998 -0.06574477 -0.051414873 -0.1646411 -0.082166895 0.1492902 -0.15403295 -0.3295454 -0.085913874 0.053854097 0.024857158 0.3588031 -0.2112337 -0.11697494 0.24992608 0.04469221 0.065549605 0.010599717 0.11120081 -0.14367603 -0.056828793 0.04163348 -0.061344117 0.13318948 0.116035864 0.26783112 -0.08100453 0.4243872 -0.071530566 -0.14327836 -0.04677771 -0.0066254893 0.3037022 -0.11704791 -0.123341106 0.10377258 -0.18955855 -0.13059781 -0.4912307 0.40286478 0.10971502 -0.15894055 0.035170596 0.05092481 -0.12889776 0.092739984 -0.13667442 0.12994015 0.20702702 -0.31336233 0.2222288 -0.005169108 -0.0902555 0.1266266 0.32664922 -0.24212651 0.5285938 -0.04548745 -0.41446918 -0.113667995 -0.28935367 0.16134825 0.30934456 0.010987124 0.10536802 0.64237154 0.3056481 -0.22455971 0.1460733 -0.06211204 0.12639654 0.5296919 0.25979346 -0.07605715 -0.4031416 0.016840154 -0.02648001 0.3330247 -0.2891293 0.23393871 0.260525 -0.060483105 -0.258737 0.27563214 -0.16539042 0.1306081 0.039061226 0.19002043 -0.23167042 0.16452944 -0.17871846 0.28800288 0.22606729 0.2328012 0.035876602 -0.48154303 0.13304369 -0.29158205 0.298202 0.030061359 0.22109836 0.019864243 0.05061494 -0.18062066 -0.21588194 0.30672482 -0.09350941 -0.265323 0.062358666 -0.19397092 -0.532845 0.087859005 -0.13866211 0.13004753 -0.16346052 0.27172053 0.4714903 -0.042435568 -0.05851215 -0.119029246 0.2695967 -0.047707554 -0.3475998 -0.19604899 -0.26337084 -0.02025487 0.30941185 -0.14163338 0.15303667 -0.033412363 -0.1330803 0.14650972 0.18377411 0.3093228 -0.007178606 0.20627345 0.02867348 -0.063722804 0.2482499 -0.2589872 0.27151453 -0.041506313 0.03483552 0.09453398 -0.08888555 -0.32883158 0.05774655 -0.04345161 -0.22852522 0.062234875 0.20004457 0.0967762 -0.095884785 0.09874869 -0.007296081 -0.16595012 -0.16868109 0.2920485 -0.1769642 0.038899954 -0.03252526 -0.031126648 -0.22797114 -0.40789962 0.19455019 -0.08497582 0.06389621 -0.137774 0.22020246 -0.5335438 -0.22735085 -0.14804506 0.29646793 0.20433556 0.008839889 0.0380945 0.10435291 -0.3979651 -0.058616128 -0.23416334 -0.23765278 -0.23993854 0.5139295 -0.147589 -0.37980637 0.06311625 0.009363795 0.3303585 0.27640507 0.19916311 -0.62376827 -0.22849992 -0.24974635 -0.23723993 -0.2581715 0.13103631 -0.09016624 -0.23358278 -0.24670178 -0.019219382 0.27825248 0.11660162 0.4058785 0.004746484 -0.022635482 -0.11548505 0.118403226 -0.20315947 0.1350509 0.34453487 -0.3661909 -0.07636542 -0.35630128 0.14591704 0.5215887 0.24868678 -0.49185157 -0.25990874 0.20873432 0.23271075 0.24760598 0.70555776 -0.28016725 0.03770047 0.32127082 -0.53476083 0.34881127 0.42534098 -0.10804983 -0.041984838 0.3154725 0.08328719 0.050870333 -0.29925635 -0.14607741 0.2651453 0.18493459 -0.21726225 -0.101339 -0.37019673 -0.041237295 -0.15062536 -0.025703408 0.054466236 -0.1988549 0.11166654 -0.17107739 0.10007536
称 -0.14313346 0.21430892 -0.022482734 -0.00019932861 0.21535642 0.22099108 0.37763277 0.07668203 -0.07553568 0.4535958 -0.18422216 -0.036472116 0.19920851 -0.33576864 0.205257 -0.14110239 -0.06517119 0.03286522 0.1966139 -0.3474224 0.047788262 0.16078548 -0.123897195 0.17641406 -0.062096976 0.4432063 0.32792637 0.3260531 -0.052227676 -0.20401667 0.27276498 -0.5883769 -0.092487335 -0.24529178 0.021208216 -0.048375595 0.19799533 -0.19952455 -0.016907122 0.22212528 -0.042193912 -0.057368793 -0.10676378 0.1659348 -0.109930664 0.3209471 0.4636441 -0.045713246 0.35090774 0.25031805 -0.1597831 0.10487471 0.2061651 -0.21082161 -0.17042844 -0.07720462 0.3342442 -0.008759104 -0.27542084 0.019109178 -0.0023723084 -0.20234782 -0.40485784 0.3406264 0.21596974 -0.090903275 -0.22178197 0.28077263 -0.11661796 0.036561962 -0.15608135 -0.24033213 0.02504854 0.19543102 0.071480095 -0.010184167 -0.19467433 0.047447365 -0.25192016 0.05100824 0.07441781 0.28508967 0.08506193 -0.16246246 -0.37153748 -0.06286579 -0.021577846 -0.37575364 -0.09597241 -0.29257053 0.1725903 -0.27011955 0.15580972 0.39282084 -0.09321348 -0.09897643 0.28015646 0.12758715 0.10604275 0.25043583 -0.08070729 -0.35748526 -0.1318655 -0.10346866 0.333307 0.13046151 -0.014048153 -0.5071521 0.15799998 -0.11749232 -0.10304552 0.003105773 -0.22158404 -0.13084611 0.20696923 0.52499235 0.20800585 0.45699286 -0.041516412 0.07476339 0.25093368 -0.13452414 -0.2353625 -0.07490819 -0.1790289 -0.06728808 -0.4487965 0.07908934 -0.16013843 0.20066015 -0.17521612 -0.16811422 0.60252935 0.09701953 0.09777931 0.18088886 0.040231083 -0.4430926 -0.23464315 0.36650398 -0.18587744 0.28451952 -0.15113646 0.0006002011 0.020261588 0.20757511 -0.029035391 0.039929044 0.0721096 -0.11938365 0.12620176 -0.17026238 -0.65309083 -0.07064922 0.07057286 0.16236794 0.007171807 -0.084505945 -0.060443025 0.30384085 0.010501757 -0.047775347 -0.15387897 -0.13586657 0.13648589 -0.28877047 0.35047033 -0.10487578 0.18229908 -0.25525644 0.15049239 0.07388041 0.5568172 -0.40180072 0.1254407 0.30991444 -0.24476723 -0.4123677 -0.02487364 0.27977362 0.01380966 -0.37186545 0.07717968 0.38605937 0.22646081 0.11956966 0.25419617 0.11639418 -0.14700943 -0.03336306 -0.25680614 0.04077181 -0.28126347 0.12204727 -0.21601394 -0.2761683 0.079875566 0.16555047 -0.09080171 0.13491361 0.09442107 0.22026652 0.36041796 0.4450546 0.45613918 -0.097558826 -0.116750404 -0.006238287 -0.111438915 0.107911035 0.28666967 0.18600616 -0.13163881 0.22929174 -0.033594757 -0.010224973 0.10315703 0.113729626 0.28112015 -0.3027412 0.04812969 0.1750503 0.22302751 -0.2803976 -0.26787642 0.050225753 -0.10715227 0.0018614465 -0.0813094 0.3086885 0.21572198 -0.1533516 -0.061243847 -0.30532163 -0.036250982 0.1126453 0.035932895 0.3933755 0.08213752 0.35019118 0.7104475 0.13734116 -0.24001293 0.38617015 0.17610985 0.1337686 0.068893254 -0.023073178 -0.22458267 -0.18528593 0.04167602 0.21133153 0.38725334 0.16598545 0.08051755 0.30946022 0.050004166 0.26199412 0.17004223 -0.44995847 -0.13036267 -0.12116994 -0.2897197 -0.41992548 -0.017519886 -0.030591466 0.20905414 0.062353786 -0.027810935 0.13573721 -0.3364054 -0.09422897 0.29192045 0.13090797 -0.064474866 -0.096659385 0.052854862 0.26411274 0.06787676 0.59313047 -0.047059953 -0.2900066 0.5677862 0.34188205 -0.43195665 -0.37515506 -0.024303999 0.22406551 0.036300074 0.21194577 0.04445982 0.2575455 0.7005158 -0.0019115981 -0.38736716 -0.21770518 0.2412787 -0.044819634 0.13283977 -0.043039307
n -0.17520472 0.17825647 -0.34218335 -0.23383942 0.038693164 -0.16191366 0.12596262 0.34960815 0.40263566 0.067411646 0.16014872 0.2377008 0.0029320098 0.0991581 -0.13968927 -0.17304263 0.22597525 -0.056994867 0.50463766 -0.17567378 0.34774274 -0.6175347 0.19383593 0.19267814 -0.070496455 -0.31717822 -0.11731352 0.04437284 -0.36604857 -0.084739454 0.16887634 0.09735204 0.12241249 0.29662842 -0.2452814 0.08615588 0.1157965 -0.2174223 -0.04717033 0.02689288 0.08035351 -0.26667085 0.2443065 -0.02630338 -0.04903628 0.21395724 -0.24119397 -0.18933886 -0.08479267 -0.062381666 0.30473113 0.4230686 -0.088115 -0.12419954 -0.011616352 0.0042592925 0.5153641 0.42157012 0.09106914 -0.104903586 0.36191884 0.08458096 -0.24197668 0.014295878 0.22841549 -0.16507968 -0.03959817 -0.046669878 -0.17868733 0.26782775 0.22553025 -0.29971105 0.21534687 0.063847564 -0.17048758 0.15879421 0.034934614 -0.21345231 -0.21422291 -0.018677307 -0.17295758 -0.12921044 -0.30253205 -0.29474255 0.13940679 0.4623177 0.05948117 -0.29424626 -0.06102134 0.30429712 -0.3634469 0.0268082 0.17608869 -0.18589666 0.12717228 -0.062769525 -0.32415822 0.00087993615 -0.16575085 0.036771744 -0.0759591 0.1474509 0.20025729 0.3059716 -0.046165477 -0.27637425 0.14633635 0.375513 -0.14854774 -0.05964581 -0.04119405 -0.13147053 0.19292445 -0.092865765 0.4516771 0.2789507 -0.20317495 0.24577712 0.20176639 -0.009345293 -0.13172081 0.38660136 -0.2953979 0.025438135 0.056646626 0.15376599 -0.30484593 -0.17828853 -0.45924917 -0.2444346 0.066663794 0.14450908 0.5694529 -0.10796138 -0.24368475 0.051060647 0.14171411 0.10356411 0.3127715 -0.18185203 0.080005616 -0.061166286 -0.11241042 0.08203007 -0.054079615 -0.023835877 -0.13520233 -0.31665605 -0.5483262 0.055806957 0.15175848 -0.25061715 0.27794647 -0.38424456 0.18866561 -0.023838408 -0.34671932 -0.2679499 -0.5089615 -0.11987635 -0.13854702 0.18697527 0.20471694 0.40612015 -0.24705532 -0.40182543 -0.18594073 0.056761216 0.34606972 -0.21089466 0.099738926 0.34929082 0.2508081 0.3363744 -0.010595715 -0.25382692 -0.3322343 0.23056033 0.32858872 0.04028369 0.13384667 0.083614334 -0.12847073 -0.39640406 -0.11152941 0.07422952 0.17301245 0.30199742 0.10187528 0.47748592 -0.06603126 -0.043302648 -0.49373063 0.04688542 -0.08368581 -0.040612772 0.012104903 -0.1501415 -0.2357644 0.109745845 0.39382932 -0.22572629 0.0031858666 0.16179098 0.13203593 0.261514 -0.1322555 0.34667304 0.12388279 0.25798622 -0.03043723 -0.19026552 -0.02000911 -0.15898357 -0.26595342 -0.073840655 0.07340322 0.31318083 -0.26061943 -0.46425834 -0.13275139 -0.5804896 -0.026311893 0.26139265 -0.12527579 0.44783768 0.122909844 0.041467592 0.3961636 0.027448673 0.02215218 -0.09040418 -0.39330503 0.01830737 -0.17178544 -0.2734065 -0.37539765 0.16180778 -0.030512543 0.1507116 0.7704307 -0.07408152 -0.3736321 0.10916924 0.29588106 0.09815188 -0.007659979 0.08324743 0.09118054 0.13814442 0.12820044 0.36997274 -0.30960494 0.14108053 0.31073192 0.086097814 0.2057748 -0.343332 0.3265553 -0.37923735 0.4247001 -0.009858515 -0.21715662 -0.4478609 0.035794944 -0.059163813 0.13104701 -0.00027278502 -0.8634473 -0.27732822 0.276896 0.37968478 0.14805633 0.0044687605 0.119073726 -0.1089447 0.043472566 0.37446398 0.08726279 0.26244208 0.12969998 0.1423156 0.07225198 -0.3913737 0.11590915 0.18152818 -0.0865589 0.41253272 -0.3365213 0.25490537 -0.07378344 -0.09634752 0.19709428 -0.6336883 0.12328732 -0.2129498 0.05018658 -0.14199029 -0.2455559 0.044160236
x -0.17723049 -0.11896845 0.23100244 0.28326824 -0.05411093 0.20412818 -0.22636555 0.4008556 0.1344363 -0.12709107 -0.09550816 0.24544173 -0.044431362 0.08972468 0.056559503 0.004331347 0.0743941 -0.22690581 -0.03621456 -0.0489986 -0.17230973 0.2913732 0.7020603 -0.0139760645 -0.08961121 -0.25721225 0.0030349742 0.22662933 0.40172207 -0.011848171 0.246321 -0.46473253 -0.08594547 -0.017662978 0.17456248 0.31529453 0.54062694 -0.317718 -0.44508252 0.043418605 -0.07791891 -0.28709456 0.041975737 0.15419044 -0.104885235 0.048142068 -0.0644331 -0.47184187 0.107819185 -0.19051594 -0.15895018 -0.043895718 -0.022119237 0.07042548 0.10858137 -0.32745737 -0.15650265 0.25003955 0.18349156 0.0130244335 -0.07402303 -0.091530465 -0.019346697 0.052957073 0.18269157 0.40211293 0.048202023 -0.06900788 -0.06370956 0.05870162 -0.24234997 -0.18702634 -0.44188496 0.5437839 -0.057182316 0.4537169 -0.55062896 -0.1828402 -0.12461637 -0.22757904 0.051900413 -0.18910617 -0.17558004 -0.12079135 0.36665547 0.048866287 0.2791711 -0.11704361 -0.05713882 0.17089982 -0.21720634 0.112644814 0.027505724 0.15705685 0.20014998 0.09646966 0.21780007 0.045585908 0.34937862 -0.35162428 -0.26566714 -0.09426724 -0.055384394 0.45982733 0.16809224 0.02068022 -0.09794169 -0.1978171 -0.17611213 -0.15024562 0.13295045 0.15802167 0.035223026 0.2480661 -0.062042873 0.011264546 -0.34704444 0.35918713 0.4281615 -0.17561564 -0.12042327 0.2785068 0.013728375 0.16054408 -0.030127663 -0.3937171 0.05969031 -0.12752739 -0.26688248 -0.16408533 -0.050920717 0.30943215 0.6162523 -0.24990974 0.23694101 0.12474964 0.3226933 -0.24891292 0.00026136357 0.53377056 -0.30211684 0.08550998 0.08297693 0.13976927 0.34200463 0.060250845 -0.21061662 0.35793492 -0.19813024 0.06376118 0.25938728 -0.34896678 0.28637564 -0.17138582 -0.02650065 0.48763213 -0.34992334 0.16617121 -0.09307056 -0.3071622 0.04729193 0.20193064 -0.3999794 0.3914393 -0.21868235 -0.19375403 -0.07027608 0.4261388 0.04737633 -0.07195491 0.091379784 0.2490791 0.07986485 -0.15497045 -0.20453307 0.07638958 -0.015139896 -0.079055995 0.06560931 0.13510922 0.14207344 0.1515092 0.1611493 -0.09143358 0.33572483 -0.067179665 0.18929192 0.14991553 -0.06178324 -0.68259853 0.21277341 0.29796484 -0.22546785 0.39475176 0.39135173 -0.0066005215 0.03551934 0.34191433 0.067198284 -0.05341946 0.026249763 0.40496927 -0.02474419 0.1153137 0.65603566 -0.10798286 0.025315972 -0.00782913 0.12200392 0.35660225 -0.2394248 -0.29554856 -0.21805882 -0.12691188 0.18341498 0.10678362 -0.0681039 0.116315536 0.09200861 -0.14455464 -0.16053168 -0.110739 -0.12793337 -0.11370757 0.28269672 -0.04398985 0.10631527 -0.22360916 0.15011032 -0.059900466 -0.23140337 -0.09510318 0.3110163 -0.038893208 -0.2136973 -0.4533529 -0.49248573 -0.28801614 0.01603236 -0.010188474 0.8625342 0.041753735 -0.33353823 0.015951086 -0.39341176 -0.3618195 -0.2110255 0.077498384 0.38133153 0.1758306 0.12344284 -0.11937078 0.17651898 0.32278797 -0.46883062 -0.38843244 -0.037988327 0.27231467 0.44964787 -0.54839927 0.046503574 0.17991383 -0.11835384 -0.5277456 -0.4177247 0.066139765 0.21199791 0.39161807 -0.07310114 0.2330334 0.14846371 -0.26312932 -0.014062066 -0.03880139 0.27282038 -0.13942462 -0.35703146 -0.1976132 0.47806093 0.7002945 -0.44984224 -0.22243638 0.22311287 0.3173506 -0.06375235 0.37205124 0.24257219 0.82257986 0.39295182 -0.02946358 0.144323 0.2593574 0.009903534 -0.19397146 -0.33107084 -0.19156756 0.13486324 0.12960249 0.24609368 -0.2669123
2 0.5838827 0.18896616 0.039277114 -0.19382326 -0.1553657 0.024867533 0.36552897 -0.41777486 0.22517419 -0.06301977 -0.048812535 -0.39809507 -0.036868375 0.075137444 0.2938141 -0.23098598 0.25320673 -0.057988748 0.50514627 -0.17099917 0.17649469 -0.58296734 -0.42572495 0.31457892 0.24980485 0.29361492 0.3777024 -0.26178423 -0.32555726 -0.008773249 -0.1280359 -0.18894237 -0.1770962 0.026889175 0.24641834 -0.085793465 0.07031297 0.08388958 -0.20434634 0.20566335 0.18398085 -0.017724372 0.15056933 0.15629505 0.10296605 -0.2537805 0.13148673 0.6741941 -0.22935522 0.20773312 0.3685692 0.3889272 -0.4077976 0.4430556 -0.036138043 -0.16253887 -0.12115242 0.3022297 0.23872873 -0.022390006 0.31919414 -0.09572438 0.39019164 0.1458918 0.31799784 0.578372 0.4137617 -0.010229242 -0.22734131 0.14405483 0.3872299 0.19826372 -0.08389923 0.04652475 0.03824779 0.37282616 0.11470039 0.020288143 -0.13852029 -0.08434688 0.19537966 0.22295727 0.21979538 0.10822616 -0.012403967 0.002441385 -0.24352479 -0.07849832 -0.24061805 0.08952754 -0.11740297 0.28778756 0.27878216 -0.20377515 -0.22853753 -0.35321915 0.07912005 0.18375239 0.15469159 -0.11211637 -0.19711268 -0.14362642 0.045068417 0.00083032995 -0.17454626 0.32156906 0.034983452 -0.6155316 -0.06323141 0.06340212 0.10694879 -0.39505878 -0.31630293 -0.060418796 -0.19938844 0.48482785 0.14298144 -0.012932508 -0.084228404 -0.31736362 -0.29418984 -0.38978517 -0.3208282 0.2551308 -0.101375476 -0.114829 0.1591841 0.24446642 -0.16077326 -0.2806113 -0.13724922 0.009195964 0.3220911 0.2759855 0.13181493 0.12361733 -0.023924546 0.34475264 0.28789675 0.17637089 0.35834262 -0.32390425 0.020883506 0.10074159 0.2954169 -0.2545178 0.07454265 -0.60869557 -0.33061758 -0.064084835 -0.08003182 0.13055164 -0.3422721 0.4267191 0.045813613 0.5189434 -0.3484905 -0.08020657 -0.55788946 -0.03644881 -0.33452624 0.085640445 -0.14332014 0.30174473 0.190132 -0.0031796123 -0.21746948 0.1776978 0.2570277 -0.1915203 0.14427516 -0.00706913 -0.2738141 0.52372664 0.17857501 0.08252464 0.016948162 0.015907915 0.122730315 -0.48107752 0.10578701 -0.16126499 -0.17680179 0.5803743 -0.34410256 0.24932344 -0.056820888 0.42286944 0.56026334 0.07705985 -0.13361026 -0.51191956 -0.063093044 0.0100851385 -0.5459776 0.24833912 0.38687837 -0.19931482 -0.075672545 0.2697065 0.13121071 -0.020209707 -0.21845996 0.19163324 0.056261595 0.10159344 0.25294793 -0.25504586 -0.19643949 0.086339645 -0.11717569 -0.533922 -0.110649034 -0.59170353 0.03011786 -0.25061408 0.13031268 0.3064916 0.057191927 -0.120521575 0.24194284 -0.71510315 -0.11224045 -0.14053686 -0.18025593 0.0878816 -0.12996855 0.14788255 -0.18906972 0.1999651 -0.17153923 0.11438716 0.068667054 0.30821815 -0.024791617 -0.38853928 -0.15113351 -0.30168167 0.034581177 0.46659455 0.08339326 0.25991824 -0.49900565 0.11062049 -0.042232078 -0.094029754 -0.43061793 -0.26031035 0.015195327 0.037898533 0.097769566 0.20413296 -0.22478962 -0.096739754 0.11988027 -0.19601402 -0.069094345 0.061196204 -0.10272276 -0.3762265 0.10699706 -0.014367692 -0.22021568 0.21727921 -0.4683335 -0.028881157 0.029899703 0.054370478 0.015380989 -0.29486203 0.3036276 0.6508694 0.33987957 0.1382625 -0.1421984 0.36935195 0.018549267 -0.21255538 0.049455304 -0.010690549 -0.09826444 -0.17077 0.010012647 0.28029254 -0.30634087 -0.03265122 -0.16237378 0.5236506 -0.06907583 -0.06646895 0.49372423 -0.21471255 0.17104527 -0.17819253 -0.38324946 0.014578984 -0.09622763 -0.4277309 -0.30619317 0.2176691
^ 0.33235213 0.086271025 -0.43240565 -0.18380803 0.617616 0.03193536 0.18247841 0.3569409 0.23872675 0.18093476 -0.2713231 0.2784069 0.01734657 0.24253419 0.13564162 -0.18989462 -0.18409391 -0.008607822 -0.15813825 0.16621722 0.21423435 0.31761238 -0.025407134 -0.18874402 0.1698497 -0.058872268 -0.11693927 -0.14279267 0.065931894 0.055572025 -0.11359263 -0.38141933 0.43418294 -0.28188643 -0.47759297 0.048334647 0.0022609183 -0.2863241 0.16143817 0.13069734 -0.1376493 -0.08295847 0.16548105 0.29115805 -0.3299415 0.10970837 -0.28389123 -0.09130815 -0.08890005 0.16840228 -0.040600277 0.10783817 -0.13845995 0.20357464 -0.33752593 -0.5359494 0.056679413 0.4458352 -0.2458656 -0.057972424 0.3568665 -0.08652536 -0.3894269 0.2310941 0.07162183 -0.1849675 0.17111094 0.09068777 0.0706896 0.12664653 -0.08619785 0.36078712 0.18638553 0.26359776 -0.077883445 0.18607172 -0.026888106 -0.0792667 0.0017285005 -0.07091826 -0.034592878 -0.07911448 -0.31425917 -0.10517792 0.3754296 0.35956335 0.129212 -0.061042912 0.11986758 0.19617552 0.073471144 -0.16193078 0.22040619 0.20753928 0.12343034 -0.040371377 0.19575371 0.14621316 -0.079679124 0.34725416 0.21640797 0.027869474 0.19901401 0.09517542 -0.037698943 -0.150282 -0.022818886 -0.25776187 -0.066880874 0.0067744036 -0.46827674 -0.020469619 0.056089662 -0.11097578 -0.00092837657 0.26768553 -0.15033723 -0.03344457 0.27574006 0.021854289 0.24663426 0.40778992 -0.21064745 -0.12601013 -0.10688555 0.10519375 -0.17220736 -0.5218343 -0.2913238 -0.5423039 -0.23279673 0.10746468 0.3400863 0.121680886 -0.14225753 0.26716757 0.23400214 -0.14282931 0.23500939 0.09998308 -0.3479977 -0.14288877 -0.05932916 -0.18730608 0.4461263 -0.31238866 -0.2894373 -0.13829534 -0.102205366 -0.2359678 0.1443807 -0.2333072 0.048193812 -0.04411419 -0.059053317 0.12279501 -0.35070515 -0.06930277 -0.1643491 -0.2681657 0.018008642 0.108690456 -0.2882392 0.023775704 -0.22006412 0.024309896 -0.02155202 0.19092181 0.147492 0.041806027 -0.2260078 -0.44860452 0.01666961 -0.39098075 0.06336383 -0.27776462 -0.20802128 -0.08315424 -0.22225048 0.08245591 -0.050450124 -0.062307656 0.048604816 0.043346457 -0.5872603 0.5409975 0.4768051 0.23910898 0.2663306 0.100516535 -0.073041186 -7.0248345e-05 -0.23691805 0.5360743 0.05981763 -0.15047362 0.059375588 -0.05716522 -0.03225562 -0.09867996 0.5662658 0.07478011 0.18329199 -0.063860975 0.44539225 -0.40631795 -0.15643992 -0.30378646 -0.06541119 -0.4499175 0.1763061 -0.15804254 0.41247195 -0.009524305 -0.012180744 -0.6010352 0.070544235 0.23582385 -0.04854296 -0.119333446 -0.2989621 -0.14419617 -0.117074884 0.12522332 0.32364538 0.101535395 -0.022223458 0.16778192 -0.21895385 -0.080481455 0.18038681 0.2008878 0.112912916 0.18755637 -0.073354535 -0.004541585 -0.5280321 -0.14030139 0.043339014 0.30577436 0.21355529 0.06744755 -0.67845654 0.0066285124 0.2828583 0.2995075 -0.312579 0.0568022 0.08295219 0.0513886 0.046122804 0.26011208 0.29260987 -0.120332345 -0.12256814 -0.65165216 0.28244194 -0.22900069 -0.17986295 -0.21317694 0.18943487 0.1282906 -0.10656027 0.054356154 -0.61229557 -0.34596762 0.134963 0.38633227 -0.4065391 -0.18134953 0.09767428 0.16366121 0.051479004 0.1712844 -0.06333601 -0.13020852 0.32064065 -0.14851665 0.2516969 0.14260577 0.22447245 0.33980218 -0.6306651 0.38934028 -0.12896137 -0.27530292 -0.041467603 0.22044966 0.031140113 -0.4013182 -0.51412183 -0.17867701 -0.012421476 -0.36294666 -0.60660785 -0.13159405 0.079128616 -0.19809014 0.19002534 -0.14464287
v -0.27377996 0.104888946 0.19059092 -0.15953176 0.04973067 -0.012356827 0.039432812 -0.124816865 -0.21161248 0.16990742 -0.163201 -0.2565023 -0.19290541 -0.030505767 -0.21206643 0.29637504 -0.38525045 0.38574368 -0.028254667 -0.15249805 0.31594038 0.03213202 0.030603457 0.048831422 0.04833544 0.13388816 0.08044053 -0.011212736 -0.07262427 0.19149533 -0.05048305 -0.2645787 -0.20984805 0.17750229 -0.048063383 -0.09681432 0.22663347 0.043587893 -0.35615098 0.06399381 -0.09605732 0.36823565 -0.28638962 -0.071643315 0.44974056 0.2207169 0.17787498 0.0023954166 -0.17917532 -0.35721642 0.18764068 0.13717781 0.56967056 0.09602975 0.1316581 0.14433113 0.37445134 0.5336542 0.07609932 0.5877442 0.28039348 0.24881035 0.25295767 0.1027316 -0.051380534 0.158853 0.51590145 0.15584885 0.16729923 -0.30430532 0.30634767 -0.20314136 0.052389055 0.12560908 -0.3652501 -0.46000993 0.3620915 0.38367411 -0.21123119 0.084576234 -0.17009324 -0.12414835 0.3110816 -0.13300432 0.14660057 0.08554233 -0.43864688 0.16126968 -0.18726063 -0.19345932 -0.078656085 -0.046991702 -0.027280279 -0.045410376 -0.2933928 -0.29542238 -0.048942104 -0.09417466 -0.117161505 0.10643062 0.10490477 0.1052457 0.24450254 -0.037409343 0.24051546 -0.16428688 -0.32585263 -0.25089785 0.111575134 -0.08951838 -0.4377107 -0.3961352 0.025813356 0.44257095 -0.084082074 0.16722387 0.15691677 0.017535446 0.3463735 0.03537681 0.0012815675 0.112661615 -0.023726596 -0.47217295 -0.089715324 0.35131165 -0.10062442 -0.40934363 0.07372942 -0.0060898336 -0.17279422 -0.23605163 0.46709183 0.30277407 0.09082041 0.16395445 0.26294222 0.07567778 -0.19510436 0.09717649 -0.15158832 -0.29187742 0.17658754 -0.056702476 0.03899298 -0.08433988 -0.2690831 -0.34049365 -0.15234229 -0.410676 0.2539233 -0.02177755 -0.15073828 -0.26072896 0.080839716 -0.049852014 -0.2895633 -0.104528695 0.15091449 -0.03859437 -0.17313573 -0.013164798 0.0490475 -0.011189105 -0.073277585 0.11411931 0.3947508 -0.33656767 -0.044487193 0.0007601238 -0.10875394 -0.17902507 -0.040511034 -0.24435537 -0.27251485 0.09843261 0.1874213 0.23639469 0.076927274 0.30703545 0.28526095 0.1788467 -0.123405434 0.059712224 -0.13431592 0.15279464 -0.23976503 -0.441583 -0.15947269 -0.28139123 0.06924278 -0.15833236 0.09187902 -0.23388039 0.052896515 -0.3833758 0.24736072 -0.242509 0.105018616 0.1943547 0.03577487 0.06788031 0.07186444 0.20106642 0.0136739155 -0.2932871 0.17943558 -0.21432166 -0.105846725 0.32026967 0.22449988 -0.03071798 0.38034454 -0.22233188 -0.20392436 -0.17309685 0.2498365 0.29713833 -0.0074813124 -0.07719511 -0.17243832 0.12325757 0.28939706 0.05186698 0.04794458 -0.024157096 -0.013654457 -0.2990424 0.27919707 0.028347643 0.0056555946 0.16072482 0.16638315 -0.22023751 0.12748295 0.22479498 0.32871938 -0.23128329 0.040601462 0.17864612 0.5643663 0.0408399 -0.4879639 0.1313987 -0.4665191 -0.11545742 -0.64838386 -0.36933184 -0.1213004 -0.44449612 0.3073244 0.13873391 0.46610767 -0.18037172 0.026766537 -0.009706344 -0.16741465 -0.14401701 0.08053178 -0.2234815 0.2293156 0.268029 -0.83893 0.22642292 -0.35328525 -0.14717901 0.40792522 0.4361225 -0.38186285 -0.39835107 0.15902793 -0.4138131 -0.3918411 0.23550223 -0.488603 -0.11427525 0.15710588 -0.24112031 0.5236543 0.4243476 -0.2798352 0.0015469814 0.19814439 0.1966354 -0.20933011 -0.3260089 0.089318015 0.60710293 0.3628622 0.26445138 0.29292193 0.12466785 0.35790592 -0.36269712 -0.6761933 0.18483359 0.14247912 -0.282688 0.0709382 -0.18294963
p -0.29479277 -0.11306892 -0.2633831 0.057294004 0.49099547 0.25349256 0.24019822 0.1752139 0.16313212 0.23187487 0.01652717 0.25472933 -0.1118364 -0.46484342 0.06698711 -0.092752665 0.3684424 0.017940085 -0.08332464 -0.19014417 0.28035158 0.2691293 0.54758626 -0.014346908 -0.40184677 0.31175902 0.32395267 0.105661504 -0.16512437 0.37750185 0.16533516 0.11889011 0.36705634 0.19023025 0.20558913 -0.12464808 -0.2209766 -0.22076285 0.1330796 0.4182495 0.040061228 -0.09707298 0.014643642 -0.3582769 -0.37334666 0.4509446 -0.15063995 0.24029413 -0.083913945 -0.3681984 -0.45899814 0.4089623 -0.10880117 0.24276523 0.47681156 0.24151753 0.20937192 0.06135515 0.13763453 0.188909 -0.28223765 -0.22244701 -0.102685 0.3600403 0.21327847 0.11964008 0.33460826 -0.2457165 -0.06024359 0.26558948 0.11395766 -0.32092252 -0.046230055 -0.10256138 -0.684703 0.19443324 -0.11923514 0.39510822 0.23465362 0.17475645 -0.13756639 -0.09720014 -0.14921427 0.42393845 -0.2890734 -0.11608092 0.37298962 0.4423051 0.36456478 -0.43976164 -0.10008268 -0.37150195 -0.20728357 -0.041627627 -0.08621741 0.19232062 -0.3436662 -0.14074464 -0.2636981 -0.131612 -0.0048124855 -0.29179856 0.026770623 0.267433 -0.24513018 -0.41508842 -0.19411057 -0.2461963 -0.36511156 -0.13698588 -0.34698656 0.18742107 -0.17400463 0.28395218 0.8194475 0.36006367 0.0020427653 0.61541104 0.45046163 -0.21445002 -0.2307264 0.2600166 0.18593094 0.1829238 -0.22817694 0.11845072 -0.16391994 -0.48754814 0.4385773 0.12136668 -0.07223588 0.027044998 0.5307442 -0.27951092 0.37580907 -0.26753518 0.0018095818 0.4622709 0.39384642 -0.11618423 -0.18629266 -0.08774605 0.05594381 0.1939181 0.2155183 -0.2175499 0.2094576 0.03651682 0.2456703 0.17776512 0.08831841 -0.016106082 -0.17382854 0.06115445 0.2544126 -0.31738707 -0.23429625 0.519889 0.02637084 -0.207544 0.06456184 -0.352347 -0.0013624347 0.008060736 0.044625167 -0.3866323 -0.3571673 0.20395482 0.5454826 0.30273864 0.4743934 -0.18452506 -0.24913964 -0.0031305184 0.20399176 0.080622286 0.22586359 0.14462994 0.20905446 -0.02363349 0.18696196 -0.11528065 -0.17203426 -0.037482217 0.19321314 -0.31899095 0.1418111 0.044989686 0.19509864 0.16684128 0.01371976 -0.17642525 -0.16162483 0.26748097 -0.44157565 0.21378906 -0.2219719 0.23379174 -0.11856974 0.3187163 0.22951531 -0.1201722 -0.4095076 -0.011848919 -0.019799277 0.07757835 0.117475204 0.34061286 -0.009369299 0.24996088 0.30803278 -0.2527964 -0.07166934 -0.11913942 0.051401153 -0.3115254 0.43854475 0.15170349 -0.16199137 -0.05743483 0.28078347 -0.06770507 0.03250416 -0.34162384 0.022102311 -0.048873466 -0.020721508 -0.115675576 0.17624533 -0.18392129 0.112609394 -0.34373382 0.29419002 0.17444195 -0.0629125 -0.5813736 0.07842754 -0.3326966 -0.5600446 0.057046633 -0.17272434 -0.57231265 -0.7216463 -0.11280507 -0.26002046 -0.10685338 0.17594552 -0.21117714 -0.26687014 0.17142381 0.019131651 0.050772883 -0.030720862 0.20101172 0.15450537 0.23152958 -0.021572597 -0.29320398 -0.086963184 -0.36694628 0.80907565 0.2816399 0.12519933 0.11968133 -0.4533375 0.030401306 -0.059335433 0.22933218 -0.15382148 -0.20050003 -0.05312985 -0.005124724 -0.17584644 0.27239904 0.074309796 -0.05451482 0.003950367 0.09082255 0.39071438 0.00828633 -0.50095236 0.3217569 0.04729242 -0.21456419 -0.24731271 0.09932228 0.25101027 0.26656097 0.33200788 -0.24894273 -0.009391063 -0.24269617 0.40724835 0.1975233 -0.2982063 0.035538565 0.5597913 -0.10129077 0.24989031 0.33398128
设 -0.23682077 0.17999613 0.072632656 0.48342308 0.19900557 0.16169988 -0.00012826278 -0.18260022 -0.092805125 0.5305092 0.099551894 -0.19042666 -0.25932798 0.038555104 0.3199476 -0.03898839 -0.1556711 -0.30336732 -0.03692831 -0.051573016 -0.07813361 0.20006096 -0.026200868 0.1403473 0.21925993 -0.066618994 -0.2874001 -0.17039517 0.017974962 -0.06543684 0.3251333 0.21590607 -0.01431041 0.4441354 0.3179693 -0.117652565 -0.07475717 -0.34458825 -0.19419882 -0.19578011 0.04545474 -0.47095054 -0.09517712 -0.26644096 -0.7065164 0.61092 -0.35688084 0.3312674 0.2908107 -0.15988281 0.02873333 -0.10521668 0.21278112 -0.23229553 0.36632392 -0.035542414 -0.14584982 -0.117502294 -0.1519164 -0.104391225 0.32146204 -0.37134615 0.011304205 0.11789331 0.17071734 -0.8148286 0.25827864 -0.00045840617 -0.0063836654 0.13984142 0.17493649 0.0032797903 -0.325544 0.19541045 0.06419221 -0.010370007 -0.4028896 -0.04099799 0.11220491 0.32377163 0.26322585 0.03773602 0.20308018 0.1356924 -0.069026574 -0.12354743 0.049781527 0.02548295 -0.19460571 0.18879873 0.17263897 -0.3948485 0.46648735 0.13695614 0.03904657 -0.011924543 -0.13936496 -0.010327444 -0.079797246 -0.2148731 -0.06273459 -0.71542704 0.20070373 0.30024415 0.11828102 -0.53533083 -0.04091936 0.31712094 -0.34385595 -0.038669016 -0.35748953 -0.07045011 -0.068971284 -0.20998132 0.37645787 -0.1553257 0.38311827 -0.15229666 0.45189488 0.18358459 0.48770937 -0.18835497 -0.05814631 -0.12789379 0.05710629 -0.19785812 -0.3209446 -0.3935721 0.004506881 -0.1630052 -0.28682214 0.12412768 0.17699601 -0.17320628 0.085433125 -0.13801003 0.011597334 0.26994467 0.4556934 -0.02092351 -0.2779528 -0.1051368 -0.12356825 -0.06867648 -0.20823227 -0.2921685 0.004032399 -0.019272873 -0.2990654 -0.57690835 0.26401734 -0.2672616 0.15850422 -0.30171046 -0.39729017 -0.20452262 -0.06740083 -0.39552554 -0.03688114 -0.062160287 -0.6277038 0.023460997 -0.14250368 0.0651466 -0.33980238 -0.05770327 -0.13652858 -0.04527489 0.30263838 -0.09326631 0.44372138 0.0226928 0.38364643 0.2494586 0.6495968 -0.062160168 0.008565792 0.2539076 0.41833055 0.17303365 0.34282136 0.15640345 0.3340933 0.30604652 -0.17215014 -0.35529238 0.10536191 -0.24283315 0.33315912 -0.22804807 -0.10805478 -0.019300483 -0.34357476 -0.11170342 0.23661242 0.09643943 0.04694744 0.18978481 -0.09835837 -0.045725383 -0.030920502 0.41773912 0.39761823 -0.14886749 0.34391728 -0.09175975 -0.158217 -0.2260951 -0.070196904 0.106592745 0.0720506 -0.23988456 0.21854278 -0.13232131 0.17454076 -0.090002745 0.1519557 -0.24532665 0.47771695 -0.14039835 -0.046615914 0.20814613 -0.1573123 -0.2961595 -0.0369638 -0.6289638 -0.054458346 0.021981727 -0.28891194 0.016941836 -0.16907233 -0.21233396 -0.029364293 -0.2462666 0.4716027 -0.06684583 -0.08392226 -0.06020172 -0.45571357 0.11100176 0.38445136 0.3433851 -0.24288754 0.38168246 -0.4629411 0.14498675 0.020297434 0.031819407 -0.21603242 -0.20778072 -0.17048469 0.17294165 -0.59177464 0.19086017 -0.025728416 0.09786426 0.4472959 0.085368715 -0.22082607 0.2523528 0.16902104 0.078064114 0.158821 -0.1284276 -0.22774942 0.3721305 0.12601891 0.043189555 -0.21547467 -0.335666 0.44723085 0.2604913 0.095063806 0.20567256 0.0983896 0.14798328 0.25183746 -0.01851796 -0.09182994 0.05061342 0.38127112 0.20882072 0.45158678 0.25435323 -0.33737504 -0.13585809 -0.058468588 0.53852886 0.3330015 0.19918787 0.0013048213 -0.018381106 0.10378395 -0.47142372 -0.6928736 0.09824384 0.39841458 -0.28932276 -0.18468879 0.13763392
元素 -0.17666265 -0.1520202 0.6176349 0.47103557 -0.14706612 -0.033320643 -0.09110574 0.35523227 -0.057231013 -0.31918454 -0.32710236 0.61167264 0.118271485 0.24181429 0.23102225 0.20729026 -0.25010875 -0.09271357 0.3389672 -0.040701564 0.21907602 0.23762599 0.31681922 0.045550283 -0.10316148 0.48990503 0.01641487 0.09732847 -0.011571062 -0.105739266 -0.09185775 -0.31988373 -0.008111315 -0.084593326 0.30771214 -0.16359134 0.13785608 -0.36243308 -0.22939363 0.04554207 0.025020804 -0.19690505 0.063828856 0.02412121 -0.06248372 0.41910785 -0.057148196 0.03150524 0.22351368 -0.05789299 0.19011192 0.52875733 -0.0415789 0.2866948 -0.15882921 -0.009850192 0.11607543 0.06128714 0.48588932 0.28142515 -0.21372202 0.114706285 0.3603814 -0.44542715 -0.12093365 0.30577502 0.21055327 -0.00047652348 -0.10922958 0.27052838 0.07271717 0.08864931 -0.29296297 0.10404836 -0.07564513 0.38878947 -0.37091225 -0.25028753 -0.18844931 -0.16550522 -0.37801987 -0.12766993 -0.0960445 -0.04208534 0.22504653 -0.026767164 -0.07199545 0.40239224 0.07877178 0.3691677 0.019589337 -0.29429948 0.42669427 -0.2642372 0.09921512 -0.1119976 -0.25288808 0.055337165 0.31159994 -0.20273033 -0.18195471 0.12662284 -0.18734868 0.13008828 -0.3259179 -0.07036493 -0.13350648 -0.06273493 -0.32863763 0.174405 -0.3431234 0.10026517 -0.0320018 0.29320845 0.5362404 -0.114504844 0.19203809 -0.14490506 0.24168698 -0.28739098 -0.28944555 0.17771962 -0.122332186 0.055055413 -0.22473407 0.030804753 -0.26374313 0.0077243666 -0.39714652 -0.42088583 -0.5603912 0.22334608 0.4851405 0.08638693 0.150358 -0.052941322 -0.0983104 -0.06640585 0.13008943 0.24117689 -0.37912416 -0.05861893 0.20112133 -0.2591617 -0.18403324 0.044721354 0.18570282 0.09839453 0.31609836 -0.10921252 0.22890802 -0.005650112 0.23383884 0.03554318 -0.020459717 0.2197781 0.02907081 0.10713064 -0.022914022 -0.28255555 0.0027457755 0.33278415 -0.16573063 -0.2734405 -0.16555305 -0.008273619 -0.14729638 0.21985799 0.07875964 -0.32440314 -0.2037344 0.5987839 0.35742414 0.15687637 -0.23997715 -0.24674468 -0.26640454 0.30628768 0.35805535 0.14689195 0.3832325 -0.08764438 0.44402567 0.23625287 0.01906633 -0.036531046 0.253621 0.12508954 -0.112858765 -0.36884075 -0.3689326 0.30934826 0.18165797 -0.081831075 -0.0052007893 -0.47717226 -0.0051463167 -0.15531634 -0.019955015 -0.0369345 0.20568277 0.62084705 0.3757188 0.3066343 0.58508116 0.3372633 -0.19420022 -0.23000087 0.062200226 0.43052635 -0.311608 -0.272316 -0.013341674 0.007406602 0.13519265 -0.015516279 0.052944712 0.13997616 -0.05628393 0.057612892 0.06318792 -0.69532067 -0.116502516 -0.09276171 0.026303886 0.17157182 0.058954667 -0.11370791 0.42166793 0.09591353 -0.27152306 0.28648883 0.09788263 -0.099773906 -0.19880043 -0.7546869 -0.13965483 -0.22666097 0.3589534 -0.09873657 0.10343642 0.30467445 -0.15985897 0.08429531 0.0015435313 -0.5679919 0.009206298 -0.4078832 0.1873382 -0.099360935 0.15858945 -0.15051807 0.14142194 0.81386244 -0.43369958 -0.2153542 -0.18626396 0.23419918 0.2469386 -0.23410124 0.09010317 0.040410746 0.010742214 -0.0917145 -0.46114916 -0.37007883 0.021766756 0.3612309 0.020141598 0.14668109 -0.25478238 0.070422925 0.21556325 0.3591365 -0.06619434 -0.58291847 -0.17211883 -0.09784274 0.30372587 0.48921493 0.27895692 0.23615943 -0.27157307 0.39949855 -0.34824178 0.20695461 -0.35716745 0.3564081 -0.11662966 0.14610022 -0.12378684 0.2717431 -0.19697213 -0.2143224 -0.06407422 -0.257119 0.13771646 -0.1908299 0.07122465 -0.36197686
顶点 -0.6532506 -0.46486038 0.055430338 -0.45681304 0.47942036 -0.0777829 0.05163706 -0.0914502 0.111458845 -0.0026431652 -0.07704081 0.18815492 0.18711607 -0.30300185 -0.3329125 0.26094 0.53389406 -0.003626367 -0.27733794 0.044108294 0.19383952 -0.33148858 -0.34608507 0.5131798 0.27597412 0.36395797 0.61395824 0.26008222 -0.33176765 0.012486272 -0.22976083 -0.28026953 0.074690536 0.54466426 -0.057245485 -0.12991288 -0.13570781 -0.14642575 0.19948551 -0.048987333 -0.34452322 -0.055324335 -0.37407103 -0.30892175 0.019871807 -0.07907758 -0.034183145 0.0070724934 0.107308835 0.1823951 -0.12441989 0.347392 0.41089433 -0.04347217 0.029874 -0.020306952 0.6722552 0.005206931 0.15229125 0.5924556 0.08323296 -0.35452944 0.14126432 0.31166697 0.17140232 0.60422254 0.46395448 -0.0020309584 -0.30187047 0.12196331 0.2394408 -0.40021402 -0.15197927 -0.64685553 -0.4477514 0.15630265 -0.041329022 -0.10874419 -0.09030065 -0.20296866 -0.41688183 0.13190427 0.23944594 -0.7933291 -0.39281392 0.05336615 0.10012419 0.042443786 -0.252838 -0.22199708 0.2517739 -0.22569486 0.30792725 -0.35695562 -0.2689081 -0.44203627 -0.24457626 -0.10110584 -0.14605528 0.0042554038 0.2685832 -0.098199785 0.26499224 -0.25446644 0.029668253 0.37660876 0.03774502 -0.26009887 -0.077885754 -0.2914958 -0.14400735 -0.7449321 -0.32635927 0.23126063 0.019694114 -0.094370544 -0.15281259 0.29491377 0.3265478 -0.02001474 0.39950502 -0.05896996 -0.07081528 0.34087577 0.1586044 0.31966436 -0.23822255 -0.1358825 0.087489955 -0.3697073 -0.3409971 0.20797129 -0.06682265 -0.008363491 0.6108937 0.3356401 -0.23638214 0.24592738 -0.32687327 -0.3679394 0.029000292 0.03670001 -0.027563041 0.08848331 -0.23678671 -0.20368697 -0.3743238 0.12163997 -0.08507911 0.020667635 -0.37129924 -0.79209226 -0.5371683 -0.26655233 -0.1215622 0.120790936 -0.15501338 0.18972346 0.3756409 0.097391054 -0.14551134 -0.18980265 0.2466755 0.39954194 0.060582068 0.22260593 0.2549285 -0.13432723 0.25150263 -0.15976775 -0.1930002 -0.051529236 -0.050469927 -0.0905966 0.1210938 -0.22144216 -0.32826874 0.20296119 -0.044708457 -0.045616157 -0.09516986 0.14211258 -0.015017929 0.15533958 -0.11569384 -0.19369702 -0.15629381 0.07026729 -0.1431726 -0.47859114 -0.20885238 0.13490781 -0.05466408 -0.50221777 -0.0012456916 -0.102171026 0.06698913 0.15803455 -0.24232094 0.11838793 0.041692108 -0.083516054 -0.13791856 -0.23996997 -0.17035007 -0.33794606 0.37815484 -0.14738543 -0.24541439 -0.12267246 -0.06335881 0.40641743 0.4077689 -0.14243256 -0.17480876 -0.014479441 -0.13832441 0.35963425 0.20634349 -0.045850374 0.120746955 -0.2632123 -0.15560654 -0.05280461 -0.29589915 -0.13578644 -0.3285948 -0.08249231 0.65925497 -0.14699711 0.24885489 -0.07241568 0.12092075 0.07926149 0.3874272 -0.027426932 0.18433852 0.24133168 -0.051758427 0.1531091 0.50238967 -0.4128212 -0.36829007 0.43226048 0.032729026 -0.67674387 -0.45841858 -0.3963579 -0.2817552 -0.07354944 0.35350156 0.20936367 -0.15018012 -0.19104259 0.26215813 -0.2595661 0.2691273 0.17126822 0.26739496 -0.24987017 -0.07991406 -0.20243518 -0.95810765 -0.45213512 -0.31190637 -0.26190862 -0.31385514 -0.17351688 -0.7784087 -0.19256936 -0.14505078 0.032557365 -0.3767818 -0.11617629 -0.064425685 0.17359404 0.17204572 -0.18762824 0.60967916 0.5084014 0.05185479 -0.30326965 0.27420363 0.16216655 -0.106030874 0.010025597 0.32900035 -0.17581797 0.13971375 0.18831201 0.14680769 0.052919537 -0.07490985 0.05999854 -0.48383877 -0.27375662 0.08333673 0.047828216 -0.0030869138 -0.11286006
q -0.28662336 -0.37780756 -0.41499943 -0.22508761 0.53579694 0.12071661 0.46631682 -0.52357554 0.59154135 -0.0047886986 -0.13087544 0.17565188 -0.0027837814 -0.48001298 0.10415085 -0.0990157 0.10682701 0.20571318 -0.026454601 0.040580384 0.15649356 0.075354196 0.10540634 0.26509312 0.009904001 0.6525247 -0.11865693 0.5003121 -0.23788823 0.01818908 0.56210244 -0.25662494 0.23282216 0.13426617 0.42416736 -0.41171595 -0.41928995 -0.26568994 -0.09616348 0.23244576 0.18830998 0.36060968 0.17304637 -0.21491456 -0.29851583 0.5155628 0.17379855 0.24189916 0.048483312 -0.32349712 -0.38923767 -0.27403212 -0.4201207 -0.09819841 0.44301775 -0.08802028 0.13768406 0.20278281 0.042478357 0.11935443 0.048683554 0.08373329 0.2751847 0.16085406 0.18832436 0.16210452 0.49292526 -0.00687901 -0.021276679 -0.113321945 0.02801736 0.09016923 -0.013106544 -0.038671635 -0.6801201 0.06952426 -0.55230093 0.57877076 0.4955984 0.1131883 0.06862184 -0.28491685 -0.12230827 0.29703 -0.7658232 -0.2384043 0.10854134 0.55799884 0.09765254 -0.018123051 0.015086883 -0.13467106 -0.38476765 -0.107248954 -0.026903136 -0.1521777 -0.20830166 0.06524024 -0.019380953 -0.4830421 0.13656119 0.058871087 -0.09330171 0.23860998 -0.37411615 -0.4921124 -0.043564804 -0.04429148 -0.07091466 -0.08067004 -0.19873865 -0.04438389 -0.30628145 0.91592664 0.8492928 -0.0129606705 0.25344124 0.015003595 0.5800513 -0.41935927 -0.39330575 0.15805602 0.27060235 -0.060945228 -0.10511068 -0.16367334 -0.44314384 -0.3000904 -0.0931222 0.16986977 -0.057940666 0.17464575 0.6270031 -0.2722192 0.24878772 0.442906 -0.24761 0.2612561 0.5443967 0.099976756 -0.3808166 0.24183615 0.20502283 -0.30961612 0.1296984 -0.17725137 0.1474647 -0.16631937 -0.42151332 -0.038963538 0.1432547 0.006844146 -0.22965704 -0.042909052 0.3930703 -0.5815148 -0.057552505 0.5384356 -0.11745535 -0.20004898 -0.15591225 -0.19657078 -0.32638 0.25403276 0.031331554 -0.056013405 -0.23306987 -0.067223296 0.22901048 0.1344359 0.08850508 -0.68915004 0.108330905 -0.11398045 -0.12296823 -0.034586996 -0.2930996 0.2015979 -0.08551399 -0.10545065 -0.28857985 -0.10162478 -0.311097 -0.28979754 0.19780958 -0.0042135133 0.15131268 -0.083195604 0.53915894 0.13063087 0.20838669 -0.19617088 0.1998782 0.21060598 -0.4121948 0.19450672 -0.26860496 0.38133916 -0.03506378 -0.054435942 0.05480696 -0.19698139 -0.5529696 -0.14021875 0.1560955 0.2430241 0.09900377 -0.025950706 0.20095499 0.21117514 0.01651053 -0.12081326 0.29247785 -0.50837183 -0.049042344 -0.3147222 -0.12809883 0.255789 0.09473314 -0.09484775 0.15855147 -0.055186197 0.25239146 -0.23817371 -0.29199982 0.10174755 0.08014455 -0.0137738995 -0.070541784 -0.016716665 -0.012786607 -0.038051177 -0.29135916 0.051839266 -0.068090275 -0.18279387 -0.45750087 -0.46637976 -0.007989849 0.002342573 -0.21572423 -0.32660103 0.04117298 -0.117786445 -0.05953095 0.07676878 0.042356003 0.14073877 -0.30354065 0.1543959 -0.36397505 0.23343752 0.42002022 0.041366696 0.08915355 -0.005583381 -0.013122407 -0.36411512 0.19343483 -0.23720072 0.45517233 0.04062288 0.08689147 0.1114332 -0.11555203 -0.57279706 -0.059269726 0.16340002 0.028497927 -0.332053 0.22688259 -0.42891145 -0.19437481 -0.27372712 0.36308762 0.023852767 -0.052737992 0.03225386 -0.069988 0.28377557 -0.1730747 -0.343926 -0.29189998 0.07396114 -0.4342511 -0.21889427 0.07590203 0.36173663 0.24642104 -0.27120465 -0.020589028 -0.1388827 0.25066128 0.01928035 -0.14319415 -0.10868293 0.37974238 -0.08312077 0.33451158 -0.430911
S -0.08898448 0.02317764 0.044022877 0.30322093 0.20881784 -0.40273902 -0.98056614 0.074167326 0.50220084 0.34481505 0.067780964 0.8754428 -0.104839936 0.4322031 -0.4101916 -0.4827556 0.1239378 -0.22522604 0.018105512 -0.15898308 0.21698207 -0.23408686 0.23848054 -0.27509093 -0.07150637 0.009284396 0.29762593 -0.25424066 -0.06259742 0.17776877 -0.426047 -0.2827925 0.053656466 -0.19973485 -0.32440642 -0.033369295 -0.53364116 -0.007115844 -0.20736179 -0.07662166 0.020295218 -0.40801573 -0.20253876 -0.037808426 0.03415905 0.27186355 0.4191874 0.21956101 0.39498365 -0.4156855 -0.059180286 0.52571326 -0.23023482 0.21014771 0.1634968 0.16115981 0.6191499 -0.28634322 0.15879998 -0.23965783 -0.42838785 -0.079934835 0.09417226 -0.08767027 0.057168625 0.21911098 0.58264863 -0.31341413 0.02151006 0.15267158 -0.07388354 -0.51765996 0.2587796 -0.00096098724 -0.35020375 0.035347585 0.003822975 0.39381254 -0.19152147 0.32753754 -0.14765249 -0.10199754 -0.19033302 -0.09135493 0.18335974 -0.012247338 -0.38427258 0.06563222 -0.08082028 -0.03245752 0.43211725 -0.32760206 -0.11458662 -0.11334646 -0.025760582 0.2808094 0.25337517 -0.06235987 -0.043540463 0.1037229 0.06243238 -0.8078945 0.36001357 0.107126825 -0.44129863 -0.31263015 -0.20080224 -0.29423732 -0.3772628 -0.42930546 -0.29539937 0.2245166 0.039601374 0.14940143 0.418584 0.3334763 0.3721076 0.12125582 0.3254412 -0.5042692 0.27337602 0.19280587 -0.28726697 -0.19020823 -0.07712694 0.19507357 0.26807064 0.1099971 -0.1890261 -0.27391064 -0.21386823 0.30643067 0.45768476 -0.041162174 0.3573659 0.13112302 0.15010501 0.15633808 0.00660114 -0.025726346 -0.2932502 -0.050613508 -0.061468326 -0.42339462 0.11172186 0.1923575 0.066711016 0.043799262 -0.16641773 -0.13874765 0.07267708 0.17210053 0.33607987 -0.084933035 -0.16522588 0.25326934 -0.28715214 0.24932541 -0.084376425 -0.27876306 -0.20968297 0.051220406 -0.27019662 0.51058084 -0.3825057 -0.29163083 0.6170808 0.2022276 0.018923124 0.014927141 -0.22608735 -0.14238238 -0.18332833 0.09957441 -0.32278576 -0.11251676 0.49844515 0.26109746 0.33242813 0.2553675 -0.066732585 0.04723087 0.0047355085 0.11240687 0.12818387 -0.04908764 -0.14221683 -0.08238184 -0.18349418 0.24874665 0.04229323 0.43961042 -0.13358253 -0.1607357 -0.11516586 0.36241594 -0.21770573 -0.19420744 0.053283192 -0.11703828 -0.08330466 0.26700658 0.27716678 0.2698956 0.041035254 0.23228434 -0.10577196 0.1528104 -0.18402761 -0.2690607 -0.33857465 -0.23747848 -0.056255467 0.054442603 -0.12994511 -0.014043479 -0.037214786 -0.5154094 -0.34169066 0.01648678 -0.16403113 -0.46191242 0.076507285 -0.3570064 -0.006963226 -0.35519218 0.054339025 -0.087377064 -0.16945666 -0.2147858 -0.09526976 0.35356438 -0.024166007 -0.023704328 -0.28041634 -0.49853528 -0.12417803 0.06697333 0.13982433 0.17355391 0.5346922 0.3372261 -0.077059455 -0.20290841 -0.17048648 0.020567346 -0.1675143 0.12974459 -0.18050078 -0.23833482 0.0541786 0.30904543 -0.32046813 -0.29827324 0.2607788 0.2152414 -0.13303058 0.060388036 -0.13317348 0.092076674 0.097808145 -0.050171193 0.41559047 -0.2636065 -0.36603856 -0.06635181 0.13870895 0.36617306 0.06608389 -0.05815529 -0.28277335 0.34548056 0.014070055 -0.020683775 0.052639622 0.14937924 0.31104192 -0.122455396 -0.23269477 0.64635855 -0.19101326 0.22670822 -0.03372346 0.15684976 -0.17599733 -0.031789523 -0.55259603 0.30151647 0.04123134 0.5980454 -0.08909801 0.19047514 -0.0707141 -0.6080984 -0.3145723 0.18639685 -0.26167202 -0.21916525 0.2926408 -0.51538116
集合 -0.13570812 -0.41056234 -0.09489661 0.510308 -0.078411564 -0.08852102 0.080854364 0.40447527 0.0360864 0.3058356 0.0016624177 0.27071053 0.5304436 0.098777 -0.084571585 0.14211439 -0.27748165 0.03994736 -0.15137179 0.08834939 0.6202337 -0.12654355 0.05448899 -0.23599905 -0.11831809 -0.4424599 -0.0774866 -0.010473227 -0.17986482 -0.10997276 0.25132266 0.21844283 0.15192027 -0.10310104 -0.1925601 0.15411168 -0.08843067 0.17207855 -0.24850255 -0.30990022 -0.65897363 -0.7085615 -0.16305012 0.5054701 -0.18715298 0.12180695 0.32770187 -0.35859329 0.23522885 -0.42180747 0.20172445 0.48687553 0.09172523 0.38663277 -0.12873894 0.46228707 0.3548638 0.02587124 0.2511195 -0.39529514 -0.015563456 0.16453381 -0.3030292 -0.1736417 0.33500066 0.27381447 0.7385557 -0.46570396 -0.18469763 0.24700207 -0.21398368 -0.26207626 -0.17760904 -0.17700613 -0.18770339 0.3080348 0.059685983 -0.31767175 0.07268073 -0.44751737 -0.07079648 0.101977885 -0.1515332 -0.08126898 0.03681645 0.18421167 -0.36397353 0.24453256 -0.10059665 0.0061339065 0.4432042 -0.2683479 0.066715136 -0.08086601 0.025271112 -0.34421605 0.1515001 0.28043967 0.085658126 0.3831229 -0.5791909 -0.23028685 0.041475464 -0.13151914 -0.41172653 -0.25350252 -0.11051167 -0.69433594 -0.4994288 -0.24588925 -0.48085585 -0.12287372 0.15227775 -0.23350139 0.4280111 0.6530584 -0.005136893 -0.2091835 0.4570436 0.13190216 -0.21733283 0.4082818 -0.34901345 -0.23429695 -0.6580012 0.19118682 0.10535751 -0.018046966 -0.3176899 0.11691082 0.07234603 -0.10721176 0.38587573 -0.15300849 0.46616507 -0.22664341 0.2592633 -0.3788749 0.18474746 -0.053663034 -0.062455725 0.32726425 0.0060701766 0.02388229 0.051469676 0.20499404 -0.13561493 -0.23023151 0.16477486 -0.12181953 0.13073237 -0.36233196 0.21470018 0.046497684 0.11714416 0.21401924 -0.49122745 -0.09206857 -0.28464076 -0.0622358 0.21897784 -0.45611563 0.11201832 0.08825357 0.28114775 -0.43784556 -0.091512926 -0.09661314 0.32983497 0.12239662 0.17072363 0.40572673 0.08592113 -0.67247 -0.32884926 -0.12937897 -0.30782926 -0.15708172 0.120310284 0.18265657 0.60740787 0.12746514 0.15641911 0.1569207 0.306055 0.12654106 0.23052406 0.24426487 0.025825765 -0.2807009 -0.15454708 0.26892108 0.7818296 -0.26363885 0.08192501 -0.062129695 -0.16239698 -0.11017788 0.46443295 0.17360842 -0.13112864 -0.08578842 0.044418618 0.29527584 0.18326677 0.11232862 0.49555004 0.044802997 0.22574322 -0.12299781 0.21428303 0.0031740135 -0.08813304 0.3452491 0.025470143 -0.05054429 0.33450204 -0.07167506 -0.0061548795 -0.26919985 0.04535652 -0.3056415 -0.0334138 0.17549485 -0.16052514 -0.2662495 0.1572194 -0.27082536 0.09673867 0.10123161 -0.20102867 -0.12751399 0.09705021 -0.01254755 -0.2675451 -0.6038239 0.44663218 0.18820846 -0.45525515 -0.18920852 0.056516375 -0.19883348 0.119571954 -0.09878581 -0.04448329 -0.20550203 -0.23451683 0.3670037 -0.13495624 -0.0837475 0.068171896 0.04643898 -0.09198926 0.25164664 -0.2922102 -0.28980923 -0.3499804 -0.06879042 0.059893437 -0.1363793 0.4145097 -0.19342828 0.07842864 -0.16040403 -0.5969895 0.067536555 0.026013436 0.47420433 0.20217872 0.20080762 0.16320562 0.08917423 0.19499557 0.23812398 -0.09902706 0.05709918 0.45550767 -0.33860356 -0.062398195 0.2511681 0.020576803 -0.04330963 -0.10915409 -0.19607273 0.65358514 0.4208382 -0.15319358 0.63033193 0.35611317 0.18365799 0.23520924 -0.12458715 0.21468756 -0.43638226 -0.091849975 -0.10641527 -0.48476368 -0.59476566 0.17379883 -0.11209859
记 -0.2311051 0.20822597 -0.2409963 0.56821495 -0.19717708 -0.010702704 0.19404495 -0.07762732 -0.19072862 0.21300134 -0.08832721 0.18814912 -0.10237571 0.37171435 -0.2266113 -0.13179077 -0.30481914 -0.100121774 -0.32557303 -0.24294764 0.2730793 0.40239716 0.19650237 0.29720324 -0.2929905 -0.14977321 0.014448995 0.28079027 0.19908933 -0.5618651 -0.017855244 -0.11821638 0.18365158 0.059711035 0.1958757 -0.006089525 -0.12840755 -0.26970878 -0.16135305 -0.19477504 0.42374012 0.030208059 -0.102669455 0.20535326 -0.3005233 0.37667894 0.13607875 -0.17827117 -0.016041035 -0.24335358 0.09662113 0.08568383 0.0812243 0.115592405 0.079117775 0.05178984 -0.05826981 0.16781944 0.047296308 0.15575655 -0.4059273 0.1732303 -0.4733128 0.20657685 0.24719428 0.013602914 0.027388548 -0.13299564 -0.38255346 -0.17701901 -0.1797813 0.0035354795 -0.24922146 -0.066859856 0.14806575 0.051623803 -0.33238575 0.3717 -0.084752895 -0.05125431 0.23069203 -0.1538403 0.23239268 -0.32469645 0.07790973 -0.18489651 -0.4796242 0.049628623 0.29640868 -0.13464679 0.33966643 -0.005594462 0.2460962 0.12031438 0.13514857 -0.148267 0.28185946 -0.22177868 -0.042527653 0.09234283 -0.18334539 -0.27331555 0.15710333 0.17031543 -0.17177227 -0.17694896 0.22918914 0.24790165 0.09787299 -0.17865393 -0.5000405 0.2368986 -0.44749105 0.16209185 0.46020186 0.3048492 -0.117283046 -0.18906185 0.55404633 0.032648142 0.2755226 -0.18671143 -0.04636603 -0.45993003 -0.39833805 0.20297866 -0.28792545 -0.14733773 -0.13848302 0.08121457 -0.33572656 0.23667386 0.38076198 -0.3232794 0.029243471 0.1206715 0.08646954 -0.00077771343 -0.04178006 -0.06461003 -0.032425348 -0.04919119 -0.23950414 0.015466248 0.15873578 -0.10132806 0.23545465 0.029557621 0.062254157 -0.35605896 0.17878652 0.1428826 0.045345098 -0.29523107 0.2955672 0.07713021 -0.12576655 -0.09527849 0.18215019 -0.3158909 -0.29996866 -0.05620631 -0.40688527 -0.17545581 -0.25606933 -0.1591024 0.1636238 0.2940486 0.3924131 0.10377533 -0.21587507 -0.1643652 0.42133337 -0.2834614 -0.16712335 -0.33755586 0.30949324 -0.13854106 -0.054681655 -0.027022148 0.20914224 -0.06636719 0.29699856 -0.06880416 -0.2442914 0.21028054 0.36611393 0.36872613 -0.06936738 0.11725345 -0.027870415 0.030397361 0.092463136 0.22972263 0.13910402 -0.16225772 -0.031306498 -0.1432271 0.23139256 0.12641358 -0.044335786 0.13300548 -0.1551105 -0.024364233 -0.28179502 -0.28444743 0.22264339 -0.12998508 0.16995631 0.20190509 0.19945563 0.0696958 -0.03697045 0.16856526 -0.031251766 -0.3157298 -0.3053198 0.4340469 0.029696332 -0.4081973 -0.39155546 -0.47256586 0.14806232 0.33726084 0.33092505 0.14994231 0.107725896 -0.031456944 -0.1693074 -0.23999843 0.10530877 -0.1395021 -0.23312518 -0.5871616 -0.19782162 0.32532644 -0.3098541 -0.22229193 -0.19192423 0.075766854 0.3886031 0.21428312 -0.4149133 0.0045281975 -0.52296025 -0.1742484 0.20634525 -0.20775259 -0.16370529 -0.07875233 -0.07481658 0.15255545 0.07925929 -0.31432283 0.10280728 0.08110696 -0.07901682 0.08791313 0.17700072 -0.18709132 0.4924703 0.28934819 -0.5377764 -0.21552494 -0.19976807 -0.2625095 0.0076698996 0.26407057 -0.108934775 -0.3243833 -0.19826938 0.17210785 -0.03990068 0.038740102 0.061357424 -0.41348863 -0.02234599 0.340832 0.0020661673 0.46467176 0.20374396 0.06411274 0.021900712 0.030217977 -0.53877044 -0.251683 0.07426661 0.08580959 -0.23096368 -0.061159186 0.14546505 0.055201937 0.16046798 -0.3556893 -0.5781156 0.3077895 0.18185125 -0.41701657 -0.14844695 -0.018991679
都 -0.10562991 0.25281033 -0.09787345 0.24700159 -0.3169687 0.49456522 0.15386675 0.16375968 0.39223433 -0.18401895 -0.08690854 0.25050148 -0.104898244 -0.16886404 0.2143138 -0.32367483 0.45162904 -0.13467854 0.28791714 -0.1757245 0.09182028 -0.23335762 0.25338987 0.3162664 -0.25947928 0.33803976 -0.20988266 0.40378758 0.11883352 -0.4478195 0.23174952 -0.056716934 0.20066929 -0.010514952 0.16996956 -0.011807609 0.41162628 -0.4427158 0.18624909 -0.23941135 -0.21955404 -0.15744984 -0.27234912 0.11548773 -0.3344884 0.25790265 0.5628859 0.34585357 -0.10210078 0.15164325 -0.16563235 0.41477567 -0.03627016 0.24550016 0.32021913 -0.4237837 0.06073622 -0.30486578 -0.16773741 0.3685135 -0.20303777 -0.088805005 -0.1297536 0.047326073 0.31173074 0.012609282 0.50548077 -0.31161535 -0.08960581 -0.252459 0.3408667 0.042635385 -0.28514418 0.07175687 -0.3043204 0.49195027 -0.032484278 -0.01060891 -0.23880497 0.018729106 0.052274793 0.32299757 0.27945212 -0.33552128 -0.14184931 0.019015187 -0.14775649 0.06360512 0.011746796 0.13332164 -0.014925406 -0.2233489 0.30248615 0.26088884 0.19319977 0.29056412 0.51186174 0.3714797 -0.15341894 0.46731946 -0.23128043 -0.10030539 0.19713932 0.05872715 0.35298312 -0.007397751 -0.10895227 -0.44087413 0.14103743 -0.15849517 0.09481506 0.15572755 -0.15760165 0.10611003 -0.41129473 0.18939032 0.11853243 -0.21528634 0.060365662 -0.10884687 0.17979993 0.36627564 -0.083439715 -0.1562613 0.10471572 -0.14334513 -0.07252853 -0.07034138 0.09585955 0.008985865 -0.34023035 0.50957423 0.42984232 0.08415265 0.21592857 0.35176992 0.3215582 0.019747553 0.14715993 -0.034230415 -0.27361065 -0.25150788 -0.18321157 0.10467433 0.47862282 0.2017641 -0.0990294 0.2777681 -0.42096722 -0.64580464 0.029201042 0.10132467 -0.25455412 -0.15604249 -0.30111256 0.53059924 -0.47041386 -0.30574122 -0.27756554 -0.25581965 0.07560228 -0.14221737 -0.21841578 0.032530133 0.2167341 -0.21002993 -0.2544225 0.12251283 0.4262934 -0.45661253 -0.5164677 -0.0063134525 0.125372 0.19550855 -0.068894625 -0.007951117 -0.02362695 -0.22723298 0.016041752 0.1585219 0.15443404 0.39874703 0.2818848 0.20114124 -0.028986821 -0.022080636 0.10503366 0.20668404 -0.19478115 0.14359905 0.07682527 0.09037902 -0.19595416 -0.2888023 0.29782295 0.030126695 0.009197035 -0.18311836 -0.19069716 -0.4271924 -0.069081604 0.06933609 0.20388502 0.29174092 0.1007445 0.33726653 -0.22214824 -0.63335097 -0.2184903 0.200804 -0.15428653 0.0057344865 -0.32348588 -0.07287886 0.26669067 0.32554987 -0.15478325 0.40048382 -0.27974552 0.13777314 0.23954281 0.49048978 0.17814454 -0.3585276 0.06297723 -0.16052438 0.11388383 0.04306102 -0.16249469 0.036428425 0.19109324 0.34964466 0.08869649 -0.022058848 -0.41987312 -0.015653357 0.27350074 0.1551597 -0.21881454 0.07755521 -0.05796183 -0.22393821 -0.0052152006 -0.7074313 0.14866023 -0.056424454 -0.29604766 -0.80199206 0.37144622 0.0065309186 0.03679742 -0.10140779 -0.3052948 -0.092191555 0.008655105 0.4162109 -0.05456638 0.17217834 0.13870549 -0.13872834 -0.49778697 -0.082877286 -0.017141223 -0.24897642 -0.32729474 0.016946375 -0.034426063 -0.27986908 -0.22373016 -0.22722802 -0.28210232 0.27037004 -0.5532005 0.5538851 0.27961946 0.21639049 -0.5090301 0.35787153 -0.24048235 0.23906383 -0.0623688 -0.12822752 0.2580848 -0.35099202 -0.21706815 0.0071768747 0.47767797 0.4420414 -0.10136876 -0.27879757 0.21505311 -0.08124359 -0.047603592 0.14203294 0.057277728 -0.2840803 0.354891 -0.20400499 -0.10115441 -0.31690654
作 -0.356477 0.18458378 -0.16899624 0.7206934 0.05620387 -0.13593344 0.20914422 -0.18267982 -0.21471678 0.27325737 0.04498328 0.12391429 -0.05976163 0.43446565 -0.18683162 -0.09326281 -0.5067774 0.13042472 -0.26443976 0.025172137 0.23616871 0.31274515 0.0039014504 0.5937971 -0.01950357 0.07210926 0.13892163 0.37970573 0.030745223 -0.5281223 -0.016139306 -0.063576855 0.06522796 0.18325205 0.04614426 0.059256934 -0.10492478 -0.37418944 -0.45962524 -0.062167913 0.20779449 -0.24136144 -0.27287415 0.059912555 -0.37455252 0.62975365 -0.018363703 0.058154747 -0.067698196 -0.19749536 0.42005 0.17338645 -0.19614972 0.41705316 0.17631193 -0.25011706 -0.25403944 -0.025785953 -0.049437664 0.10765273 -0.21095085 0.32197136 -0.6313719 0.1379077 0.47559988 0.16836047 -0.023046732 0.15987769 -0.3182898 -0.3333626 -0.3096905 -0.11574067 -0.2261147 -0.17833331 0.0348337 -0.22837208 -0.4082731 0.6127552 -0.055939876 0.09959316 0.07955713 0.0060752737 0.19397557 -0.082635574 -0.0019248318 -0.28256714 -0.3441589 0.15827753 0.55530643 -0.18560463 0.40012267 0.07643002 0.09326454 0.11183012 -0.2144245 -0.3727655 0.26223448 -0.18875203 0.19857763 0.11368651 -0.4294102 -0.09158009 0.06899869 0.036526125 -0.11700195 -0.3062945 0.04408669 0.008972914 0.42622894 -0.072389096 -0.3939646 0.06099064 -0.5012348 0.16620053 0.11032777 0.29156417 -0.13486694 -0.09689685 0.5403735 0.26139903 0.55169475 -0.13931067 -0.20631137 -0.31083784 -0.58597744 -0.028138591 -0.030452574 -0.13572977 -0.24302387 -0.017893381 -0.19219376 0.22217265 0.3674437 -0.33646333 -0.11125559 0.07919904 0.40213713 -0.184146 -0.082926095 0.18798888 -0.17561215 0.084302425 -0.22406693 0.062654376 0.104650155 0.19358395 0.09149026 -0.04220162 0.13912319 -0.5989913 -0.03963862 0.14126655 0.05240848 -0.22364543 0.14398287 0.09878971 0.009344634 0.01341936 -0.1037401 -0.285994 -0.42138815 -0.11418182 -0.27574614 -0.043597136 -0.28811944 -0.03573547 0.08540655 0.1383698 0.24862081 0.010838317 0.033138815 0.12016433 -0.04862384 -0.24306372 -0.25571203 -0.022731967 0.25833628 0.19829436 0.19662933 0.3610898 0.27491137 0.029505609 0.010455958 -0.17792141 0.13600974 -0.042366948 0.1963439 0.031320583 -0.27200902 -0.08144954 -0.16137892 -0.06690683 0.030269878 0.14331342 -0.04062375 -0.19431886 0.06009657 -0.18464027 0.07723601 0.10892034 0.060111072 0.099839054 -0.3043027 0.05544752 -0.1338733 -0.42831776 0.047254797 -0.114382036 0.23033743 0.2944173 -0.096984155 0.208469 0.18807042 0.16104122 -0.13160814 -0.2934033 0.061535995 0.5121075 -0.021267494 -0.3374876 -0.075407565 -0.26743874 0.039606098 0.088361114 0.120558925 0.07152438 -0.051161274 -0.023088682 -0.017959734 -0.30034393 -0.053786673 -0.32075122 -0.067229204 -0.6840682 -0.05307041 0.10730845 -0.32493624 -0.06565816 -0.0069526383 -0.20738275 0.4844786 0.18302804 -0.12685871 0.15587462 -0.4009029 -0.44340512 0.18645188 -0.25209954 0.004999229 0.26776445 0.011437081 0.047987223 -0.18159243 -0.19288698 0.15395425 -0.18972482 -0.16792639 0.22495386 0.083565705 -0.45958567 0.41224566 0.39459693 -0.69768655 -0.089544915 -0.16461122 -0.24844635 -0.059858065 0.28802264 0.15489614 -0.41419396 0.105844155 0.16763012 0.013705826 -0.16366088 0.14327535 -0.3055451 0.030790277 0.25406116 -0.023938112 0.18552122 -0.18600397 0.2266114 0.19449127 -0.29265785 -0.6237906 -0.37515473 0.05932179 -0.2909307 0.005030081 0.022721115 0.3688856 -0.054093592 0.06395701 -0.3013938 -0.50284106 0.25543287 -0.014161494 -0.29469037 0.060165294 -0.32807556
表示 0.16710627 -0.32413003 -0.120081514 0.14090529 -0.14939702 0.08785048 -0.17930542 0.15612279 0.32865456 0.13562486 -0.10371294 0.35329515 0.28834486 -0.40547463 0.21104611 0.17609367 0.15388556 0.3378956 0.07831473 -0.18218777 0.056421105 -0.20704226 0.2961511 0.119529225 -0.4194333 -0.014378551 -0.15200034 0.06730437 -0.32815835 0.03551571 -0.36342597 0.14515883 0.8233946 -0.70886004 0.3209852 -0.438891 -0.24758519 0.07569516 0.2949293 0.17393383 -0.1539744 -0.08923197 -0.2967952 0.28288475 -0.46234572 -0.19883235 0.062289022 -0.09740369 -0.123999536 -0.4249017 0.10901537 0.03148079 -0.42915833 -0.51970387 0.113136694 -0.29361904 0.30668238 0.075234845 0.32853016 -0.3855371 -0.09560613 -0.42437232 0.19695427 -0.15250216 0.0063520717 0.19041488 0.35763973 0.07915001 -0.04444354 -0.12877996 -0.21717939 0.084166504 -0.2737788 0.26801005 -0.15649782 0.25719422 0.35692638 -0.13701852 0.09020493 0.16191374 0.08174613 -0.35608497 -0.339831 -0.11648404 0.23555322 -0.10554396 -0.114669055 0.16457334 -0.25075555 -0.36970195 0.026468294 -0.06416778 0.27330223 0.019147584 -0.06819957 0.31435883 -0.072678395 0.2567587 -0.30379203 -0.13342349 -0.28496593 0.035558265 -0.2312711 0.33198845 -0.5321558 -0.4250175 -0.2550607 -0.375277 0.72374517 0.16064979 0.06506668 -0.0030581392 -0.0564184 0.10163998 0.31748056 0.17016052 -0.10580743 -0.04327681 0.41604623 0.02612799 0.14856464 0.13874589 -0.20335026 -0.2323059 -0.3426909 -0.04347726 -0.20159799 -0.22078001 -0.045957975 0.06708339 -0.038587134 -0.12385047 0.279884 0.23101394 -0.033281513 0.2888103 -0.09253513 0.71678495 0.10689365 0.29986238 -0.17318912 0.39733186 0.46488643 -0.2797031 0.23135479 0.16971023 -0.26833975 -0.65848476 -0.29357556 -0.2516299 0.30824405 -0.16242744 -0.0037143633 -0.094463035 0.37821048 0.14880966 0.1365622 -0.12188519 -0.09225564 -0.5949353 -0.40151215 0.12856543 -0.54673 0.21059734 -0.5350368 -0.16644812 0.08571003 0.26589313 0.14424467 -0.51657915 0.29592058 0.2064081 -0.032320898 -0.20881532 -0.20729946 -0.3423339 -0.30929863 0.039163414 0.10906648 0.24983054 0.3324383 -0.08238235 0.32022244 -0.15223347 0.1232098 0.3774314 -0.44983336 -0.03357617 -0.050250627 0.0659163 -0.0813039 0.064402774 0.13508828 -0.73514426 -0.2983732 0.12505932 0.10820262 -0.18369813 -0.035719056 -0.3288967 -0.15765703 -0.14253502 0.2907158 0.04984008 -0.1283057 0.1132401 -0.2396591 -0.3281864 0.27347964 0.13965401 0.023248421 0.23584756 -0.026087157 -0.20605655 -0.3010949 0.11975357 0.2689543 0.17863701 -0.22012332 -0.09233609 0.44052008 0.19908419 -0.016452251 -0.21023408 0.2271925 0.34298673 0.7159728 -0.042475425 0.43604672 0.13976485 -0.13070282 0.12970307 -0.08163105 -0.025294352 0.016884936 -0.20484164 -0.13061084 0.05855462 -0.029319633 0.15176243 0.01111258 0.31652063 -0.35573313 -0.011189107 -0.31784582 0.36543006 0.043120548 0.61223197 -0.18951517 0.2468044 0.0009864742 0.008529455 0.19983162 0.29913235 -0.254385 0.12760606 0.12832706 0.23761038 -0.53060174 -0.21110277 -0.14368594 0.0833566 -0.07255966 -0.24007662 -0.14930789 0.09765964 0.31427002 -0.0710972 0.32112262 -0.17329647 0.04777779 -0.31261474 -0.1847618 0.61083853 -0.4437285 -0.32031217 -0.10343802 -0.20787854 0.2425989 0.045607813 0.049237568 -0.026236909 0.20447437 -0.05297376 -0.054547 0.20342419 -0.29385477 0.26632267 0.43420964 -0.31974223 -0.03506508 -0.48053348 -0.19134623 -0.47058174 -0.29674733 0.30189896 -0.07764707 0.2920389 0.12910876 0.08045451
V 0.26211464 0.039136533 -0.12191861 0.029966032 0.24228628 0.11174197 -0.088800184 0.0049726376 0.56588846 0.18101723 0.11541487 0.13425975 -0.4504141 0.3725139 0.11065921 -0.39710775 -0.14568543 -0.07292841 0.15200666 0.124161266 0.13949998 -0.001076101 0.043322332 -0.3007414 -0.07272121 0.026794609 -0.114978105 -0.08014157 -0.16775067 0.0055530593 -0.11515145 -0.2613155 0.39111498 0.05399069 -0.15579338 -0.19940966 -0.39980516 -0.3250229 -0.0045089577 -0.02609705 -0.12350257 0.1856608 0.046542753 0.25658432 -0.12782119 -0.07134469 -0.11227943 -0.14038505 0.3274092 -0.25331122 0.022928376 0.20482764 -0.38855866 0.39654842 -0.15850031 -0.4906648 -0.086496554 -0.042160463 -0.036464486 0.28825444 -0.40000814 -0.08764678 -0.03007858 -0.12432362 0.0070581995 0.26993525 -0.08922839 0.21668361 -0.27581644 -0.23118606 0.2657807 0.17911749 0.00027598356 0.027279686 -0.26100034 0.18605807 -0.1186628 0.17977995 0.2519016 -0.47830293 0.14903007 0.1756081 0.061056003 0.07253072 -0.10655974 0.052589685 -0.29870203 0.253945 0.0029323571 -0.40120846 0.11657918 -0.08878454 0.17449267 0.25462347 0.4945191 0.42173266 -0.4334785 0.11780241 0.0059864493 -0.12609123 -0.25938305 -0.18970326 0.2819351 -0.16402414 -0.23706564 -0.08292003 -0.23952979 -0.39196935 -0.15824375 -0.06444478 -0.3621005 0.099548325 -0.34071627 0.55801773 -0.06158749 0.5262187 0.023574378 0.3304587 0.42554897 0.07619178 0.12565297 0.3175247 0.123091385 0.01757176 -0.25290525 -0.0747518 0.07888938 -0.38442603 0.31262797 -0.12345096 -0.23219733 0.4313182 0.11302777 -0.5907488 0.028117161 0.2595444 -0.017873589 0.45983133 -0.44013223 0.25750852 -0.41122106 0.21892054 0.115514085 -0.33653855 0.34778956 0.005022774 -0.13359189 0.09300416 0.16676626 -0.18148862 0.12215947 -0.19874574 0.30978218 0.14403202 -0.2374783 0.164411 -0.115922846 0.14494543 0.2507073 -0.10698316 -0.02706718 0.015461272 -0.03139204 0.24270098 -0.24614543 -0.19400999 0.011967595 0.12338801 -0.05506799 0.19739622 -0.050346166 0.12335494 0.2795418 -0.015839634 0.05484263 -0.01689571 -0.06578732 -0.00022605713 0.2067199 0.27618212 0.2461542 0.12991835 0.04392467 0.02624066 -0.3462354 0.22956297 -0.08383053 -0.13977185 -0.23895676 -0.21474466 -0.21037209 0.095768556 0.036801185 -0.09324582 0.47007307 0.026509646 -0.11018491 -0.4476895 0.1515694 -0.42396438 0.024923345 0.32278186 0.2918078 0.048244376 0.056261256 0.042975895 -0.36821988 -0.106862 -0.07386702 0.43506932 -0.25803018 0.21264416 -0.09485772 -0.22425225 0.13185816 0.07262921 0.43808728 0.02334084 0.22777528 -0.056861244 0.17751665 -0.28981924 0.20496742 0.03769812 -0.52042043 -0.37333623 -0.4901195 0.033337343 -0.11558585 -0.26545823 -0.07534285 -0.2940179 -0.17771286 -0.048643846 0.38823292 0.24042572 0.2610082 -0.0064300466 -0.068621345 0.015655354 0.12329393 -0.014832885 -0.27257156 0.32950923 -0.3492449 -0.43789348 -0.38811842 0.03723438 0.28565732 -0.010212281 -0.047961466 0.13901249 0.49575254 -0.019261535 0.20539717 -0.39354357 0.20350449 -0.33352274 0.013478267 -0.47160947 0.2523396 0.101689 -0.38968098 0.15857863 -0.68427867 0.049871862 0.22451007 0.119834736 0.1392638 -0.07645017 0.24706556 -0.071352996 -0.43441257 0.616857 -0.3700256 -0.12952943 -0.29091272 -0.3254185 0.38699088 0.60357153 -0.46527463 0.07912783 0.03752921 -0.10782309 -0.3822193 0.02001153 0.20788968 0.034545876 0.22751535 0.68915683 0.2583571 -0.083006255 0.20172009 -0.497026 -0.85876155 0.030928738 0.39470252 -0.41911092 0.2681721 0.165226
0 -0.13873866 -0.07849091 -0.05257199 0.3748241 0.6746133 0.17102851 -0.01917936 -0.45232755 0.10914652 0.077476084 -0.20611037 0.2872897 -0.20087142 -0.17886733 0.0052297623 -0.0664678 -0.4633141 -0.035537712 0.05831452 -0.035306826 0.057753682 -0.33945483 0.471782 0.04779141 -0.056853604 -0.1077362 0.12358348 0.030805664 -0.10543076 -0.10544345 0.11283948 -0.2662537 -0.12477608 0.25927958 -0.3776853 -0.117032245 0.3647613 0.1360395 -0.06706745 -0.13410135 0.30571193 0.43745655 -0.004442273 -0.32599992 -0.39864415 0.33764586 -0.3950172 -0.4726305 0.23782729 0.05883404 0.34600562 -0.18606846 -0.59881175 -0.05442395 -0.09254957 -0.4428019 -0.017710654 0.053604446 -0.10926915 0.03094579 -0.27243614 -0.39559996 -0.060524732 -0.034091342 0.16955473 -0.06602504 -0.012115392 -0.46101567 -0.025953056 -0.074170776 0.046545584 -0.7649606 0.073335186 0.35359085 0.122623935 -0.39104807 0.21910113 0.45266932 0.0017362639 -0.34418967 0.110710226 0.0017280203 0.28998634 -0.12178205 -0.22781552 -0.00044673908 -0.034769822 -0.43660635 0.2077605 0.12411559 0.16790093 0.04192342 0.37605664 0.15298119 -0.09097217 -0.15038241 0.7251925 -0.21777265 -0.14724563 0.04610048 -0.23271549 -0.10914458 0.2950546 -0.19640765 -0.5104285 0.3025033 0.13493046 -0.13866918 0.21451965 0.009738536 -0.13112208 0.262763 -0.15366998 0.42657715 0.27619708 0.11744879 -0.11135898 0.44086447 -0.027435465 -0.15737845 0.03902305 -0.115908414 -0.30180416 0.21355753 -0.11717025 -0.2567796 -0.3529086 0.13042706 -0.01275202 -0.081086755 -0.30166253 0.007105491 -0.21553825 -0.4704346 0.026456747 -0.0644933 0.06373935 0.52207536 0.59826773 0.60957783 -0.5526637 -0.13464989 -0.23949781 -0.059357364 0.12419269 0.27582562 0.09441112 -0.23784812 -0.52647805 0.07376284 0.6320942 0.11224526 -0.3619803 -0.0739033 -0.10613551 0.142677 -0.09828967 0.43903852 0.25102443 -0.6430377 -0.33717534 0.053541053 -0.3458582 -0.06357174 -0.25397083 -0.09378379 0.2712141 -0.45712608 0.34701967 -0.15982051 0.11807186 -0.73635 0.5933025 -0.035250336 -0.5620041 0.027813783 -0.044631984 0.46802646 0.05689286 0.3544759 -0.048701953 0.04028124 -0.08705027 -0.15726104 0.2260451 -0.21525016 -0.12803178 0.13012059 0.31025583 -0.13273846 0.007294734 0.09748648 -0.06541822 0.2283506 -0.40315315 -0.16503179 0.26058847 -0.23279253 -0.3188685 -0.21304971 0.06439072 0.33015135 0.43635222 0.27339643 0.087309144 0.2752318 -0.26962095 0.092131644 -0.18907267 0.19920962 -0.18490334 -0.6653881 0.30231014 -0.6086005 0.030833539 -0.09834258 0.095618464 0.10672682 0.0684293 -0.36950478 0.4102644 -0.086966805 0.0610833 -0.12545705 0.17286687 0.4518888 0.29085347 0.14237511 -0.04929418 -0.05356438 -0.06692244 0.06099034 -0.18386918 0.006502652 0.0006230809 -0.29643518 -0.18352558 0.020863982 0.1726081 0.40719998 -0.026848286 -0.46101254 0.1681007 -0.09987852 0.12912962 0.13218752 -0.030915769 0.31429067 -0.582247 -0.42320964 -0.100478254 0.46262652 0.36205932 -0.02406306 0.15508787 0.15455523 0.08990853 0.10550586 0.0027993852 0.16753797 0.44063768 -0.016889948 -0.23857205 -0.09139559 -0.64928764 -0.107874915 0.16299246 -0.2570415 -0.012240185 -0.06942629 -0.08042534 0.023659118 0.06935965 0.09674987 -0.22190285 -0.13425961 -0.46127325 -0.1110455 -0.27609476 0.45443842 0.2528701 -0.6074395 -0.2731298 0.3939816 0.093800664 -0.41572112 -0.14391558 0.26128072 0.18120085 -0.16734008 0.36420926 -0.5419134 0.40028226 -0.054161582 -0.2811759 -0.1639126 0.14986514 0.12218669 -0.30865476 0.19351366
